SVM-light Version V6.02
0 # kernel type
3 # kernel parameter -d 
1 # kernel parameter -g 
1 # kernel parameter -s 
1 # kernel parameter -r 
empty# kernel parameter -u 
9947 # highest feature index 
1600 # number of training documents 
770 # number of support vectors plus 1 
-0.15242245 # threshold b, each following line is a SV (starting with alpha*y)
-0.049832096874478621 6:0.010303438 9:0.3940964 23:0.22234483 35:0.11180787 85:0.25256959 123:0.41813126 142:0.03473381 167:0.43188894 174:0.3021068 234:0.07391315 339:0.16028255 373:0.073553517 391:0.1066279 449:0.1177727 457:0.071047358 483:0.10003943 1042:0.11739575 1045:0.10704859 1119:0.35828191 1179:0.12848657 1931:0.13431408 #
0.56962771589625982 85:0.21392022 111:0.21830052 153:0.30275765 574:0.26136854 1228:0.42982528 1528:0.52495748 1838:0.53504878 #
0.14754480849707005 6:0.029254107 11:0.065729111 27:0.042590469 31:0.055750493 37:0.069207549 60:0.11102086 73:0.15894435 96:0.1812517 102:0.13937473 142:0.0037930079 172:0.11470673 341:0.12221385 413:0.12647167 455:0.10679896 502:0.10096415 505:0.31564704 586:0.1075232 1031:0.35947859 1155:0.17027146 1175:0.30995971 1395:0.15619001 1559:0.21265504 1858:0.1883284 1943:0.3510952 2055:0.22533147 2280:0.19867611 4111:0.24779107 8197:0.28992459 #
-0.090993807390939332 6:0.025307171 10:0.071151219 13:0.11213096 15:0.028901551 22:0.089960217 52:0.13755035 63:0.018233802 116:0.18063082 142:0.021875059 171:0.072938822 229:0.044176757 232:0.14975226 281:0.097375274 282:0.11949163 344:0.51466835 363:0.078804091 375:0.059801605 409:0.043081537 415:0.073393799 453:0.08182238 474:0.34074405 522:0.23495531 541:0.17397456 574:0.063162997 658:0.078019403 678:0.27387038 818:0.38790381 829:0.062579758 867:0.074152753 987:0.068869464 1059:0.077328429 1089:0.27548265 1149:0.080930471 1202:0.10452474 1433:0.081331633 3131:0.14534491 #
-0.36137847836693637 6:0.010192631 11:0.091604583 38:0.16608438 46:0.085346982 63:0.17625082 75:0.082628384 77:0.076858379 79:0.06912151 85:0.12492668 120:0.33967626 138:0.17094091 142:0.050218854 159:0.12263684 185:0.059354153 314:0.16267341 328:0.41363454 339:0.079279408 498:0.20946407 501:0.21198402 537:0.11399461 647:0.18413821 784:0.20017706 1045:0.052948676 1312:0.39760405 1640:0.15866426 1746:0.11905925 2002:0.15782936 2376:0.14148244 2496:0.18695541 2532:0.14937556 3357:0.2114394 #
-0.29558464000615248 17:0.17477183 37:0.15175474 118:0.21002132 139:0.26238889 186:0.18200527 323:0.27437279 495:0.3534703 570:0.37209621 988:0.47395632 1172:0.48685795 #
-0.35982575641845921 27:0.13890514 42:0.19027509 51:0.21599768 74:0.13035882 83:0.16480845 125:0.17047307 142:0.045358747 181:0.13422082 186:0.18047199 207:0.56415325 218:0.090200067 351:0.11284856 386:0.12664512 538:0.13933523 704:0.21932057 805:0.4145824 1359:0.17652585 2345:0.26142818 4697:0.27911907 #
1.000000001021051 6:0.025615644 29:0.018606205 31:0.019526623 33:0.028349727 53:0.078910068 59:0.12724762 74:0.041998539 76:0.042622074 78:0.039358422 79:0.10422777 85:0.03139599 97:0.095902637 111:0.12815545 118:0.067093894 132:0.031071896 137:0.041940574 148:0.090067938 151:0.040459529 160:0.046435144 168:0.038049322 185:0.029833218 186:0.14535956 199:0.047894869 204:0.030755106 224:0.14616601 229:0.02682914 232:0.045473285 243:0.048306499 253:0.11196192 271:0.11308341 274:0.27683175 299:0.042411141 317:0.030534957 319:0.046475023 322:0.044399712 323:0.043825883 327:0.043085024 333:0.15505229 341:0.04280543 349:0.10157546 355:0.030833637 387:0.03616406 389:0.043661471 411:0.038382176 422:0.046716694 426:0.04612013 436:0.090503819 444:0.2019055 459:0.046798185 471:0.053404994 481:0.059039362 485:0.10636076 489:0.058372125 500:0.053018082 506:0.028661128 507:0.027393105 535:0.048582133 591:0.053870279 597:0.045812022 625:0.056956396 626:0.048352066 695:0.050572298 729:0.2205705 756:0.13604572 778:0.048958261 804:0.04826108 806:0.054995432 939:0.074482478 1000:0.062200498 1007:0.23654927 1009:0.045660462 1014:0.062825352 1114:0.062698141 1124:0.056956396 1194:0.078526407 1215:0.060051087 1237:0.1256507 1478:0.32823646 1489:0.060051087 1523:0.082570329 1553:0.071345761 1570:0.084824257 1574:0.078526407 1668:0.1662017 1679:0.073908649 1906:0.080628365 2099:0.074482478 2472:0.17357777 2591:0.074482478 2622:0.18568873 2623:0.092844367 2745:0.25447276 2992:0.078526407 3181:0.092844367 3323:0.092844367 3731:0.095192634 3756:0.096532404 4437:0.095192634 5254:0.10371304 5280:0.099669121 5653:0.098013453 7707:0.10627593 8137:0.11345657 #
0.36068355881173986 6:0.0083349114 11:0.037454318 15:0.028556159 60:0.063262843 63:0.018015895 75:0.016892113 88:0.063644648 98:0.05406592 102:0.079419687 108:0.077156425 142:0.0021613638 176:0.043203499 245:0.09637206 312:0.075546183 336:0.076203391 346:0.069441631 373:0.059500728 405:0.079266712 571:0.065782025 952:0.07764826 1033:0.099843785 4619:0.14119841 5514:0.43890476 9146:0.83883697 #
0.39495411047930062 6:0.023586292 26:0.010208797 27:0.034338813 28:0.017417286 29:0.0085660815 30:0.028354693 31:0.0089898314 33:0.013051886 59:0.014645833 60:0.03580448 63:0.0050981725 64:0.040913992 67:0.013341865 68:0.014479556 75:0.0047801626 80:0.015357268 81:0.028721385 83:0.024445429 92:0.015570437 94:0.014159295 132:0.014305141 141:0.021545341 142:0.0036697614 174:0.017289324 176:0.024451617 206:0.022496089 215:0.030052077 218:0.026758086 278:0.020362286 284:0.042970814 306:0.037016697 317:0.014057941 318:0.14234863 322:0.061323341 345:0.017308846 355:0.042586349 365:0.02499068 367:0.020131405 373:0.01683763 388:0.024527118 412:0.024039 430:0.055071488 437:0.021215271 478:0.018496593 505:0.016966149 509:0.043786313 534:0.017977681 583:0.074240729 584:0.033178717 591:0.049602505 592:0.023233872 593:0.045435484 608:0.02573693 631:0.015829641 643:0.019190205 647:0.1278317 656:0.046565801 662:0.024587041 676:0.023585133 696:0.026031148 719:0.050774053 726:0.021736261 772:0.021853574 781:0.025559613 784:0.02316102 800:0.041599672 827:0.04029309 858:0.023662949 872:0.053833704 876:0.022762999 880:0.027744144 890:0.024770213 963:0.020011557 969:0.026378961 1021:0.025252195 1122:0.028807456 1154:0.032036752 1267:0.031666841 1466:0.028807456 1472:0.023983924 1530:0.032036752 1645:0.05392028 1649:0.026788697 1726:0.031849153 1781:0.029941315 1815:0.030669233 1838:0.036152646 1880:0.032955531 1954:0.033409871 2007:0.22294408 2213:0.032739792 2240:0.38444102 2394:0.036334958 2643:0.034290869 2663:0.038258668 2682:0.034708541 2688:0.081276901 2731:0.034427121 2838:0.035470791 3667:0.042744473 3677:0.041818373 4164:0.088884801 4450:0.045124255 4534:0.042264871 4857:0.042744473 5237:0.048928205 6162:0.0444424 6249:0.55063808 7015:0.27531904 7711:0.35260618 8249:0.050372314 8911:0.20893636 8923:0.052234091 8977:0.31340453 #
-0.97611167772312335 6:0.0415131 13:0.045984041 17:0.11310478 18:0.074072823 28:0.051092215 29:0.075383745 33:0.076573335 37:0.065472744 50:0.19702064 53:0.053284522 58:0.046412189 94:0.083070323 96:0.042867605 98:0.044880383 101:0.067245536 160:0.062711254 179:0.037716005 180:0.053317282 186:0.039261986 204:0.041535161 224:0.065799683 242:0.096961699 253:0.075602993 254:0.066773437 274:0.074772954 322:0.059962377 369:0.061869714 394:0.1289124 410:0.26410049 411:0.051835615 423:0.052420735 428:0.10224136 430:0.053849269 468:0.092630297 485:0.047880515 489:0.078832299 502:0.047757801 534:0.10547218 567:0.075079985 580:0.062603995 586:0.10172069 599:0.06487345 603:0.074075304 647:0.062497344 656:0.068298526 771:0.073402375 856:0.051926814 876:0.20032032 1007:0.2395971 1012:0.092372008 1029:0.1065857 1127:0.079733402 1160:0.087629564 1168:0.089965746 1195:0.093157671 1196:0.086846605 1227:0.15120599 1288:0.09089198 1324:0.16514425 1431:0.080818504 1478:0.55410939 1510:0.1060509 1523:0.11151228 1645:0.079085417 1815:0.089965746 1824:0.09800519 1851:0.093700111 2472:0.11720949 2745:0.11455624 3156:0.12538749 3350:0.11082187 3662:0.11628325 4195:0.1323684 #
-0.63222199199283524 6:0.015823163 9:0.040348034 12:0.035555787 29:0.019155547 41:0.02428663 72:0.032823756 83:0.013666272 91:0.084289409 98:0.068426557 108:0.097650208 114:0.037035692 140:0.037271332 142:0.0027354511 165:0.051210746 178:0.042566657 179:0.028751716 186:0.029930251 194:0.041788708 196:0.14714019 199:0.049308952 200:0.20381476 220:0.042312015 231:0.11308795 278:0.045534328 280:0.055253543 293:0.049921297 295:0.044783257 308:0.038970936 321:0.21009365 509:0.048957672 511:0.068411544 518:0.045997184 528:0.055185117 557:0.049639367 634:0.059257705 656:0.052065428 689:0.065915577 712:0.048434533 881:0.18028663 896:0.066801891 946:0.074977003 965:0.052683745 1055:0.057553153 1056:0.051792879 1073:0.070614062 1424:0.049046732 1881:0.091703266 2248:0.069288902 2293:0.078614011 2295:0.078614011 3391:0.10261182 3754:0.31363285 4855:0.28353924 4934:0.21882738 5569:0.36802265 5624:0.39811623 5625:0.39811623 5737:0.11680634 6253:0.10941369 #
-0.43956691322499503 6:0.014675307 13:0.065023318 17:0.079967402 37:0.11572643 42:0.029266879 53:0.11301976 58:0.065628737 59:0.12150114 78:0.037581004 85:0.029978152 98:0.095194057 105:0.051963929 111:0.030591995 118:0.032031972 140:0.034567568 148:0.04300024 158:0.070221797 160:0.26602885 179:0.10666395 186:0.027759029 196:0.045488745 216:0.085120268 253:0.16035859 271:0.16196488 306:0.1151583 308:0.036143877 323:0.041846711 335:0.19432652 341:0.040872343 365:0.051830374 380:0.1202215 388:0.050868955 411:0.036648843 423:0.074125074 444:0.64262497 461:0.053528059 479:0.061955903 480:0.071959384 502:0.067531489 508:0.037953865 570:0.056751266 609:0.034641214 641:0.077414311 670:0.069788851 694:0.35992554 713:0.048915289 756:0.064950958 810:0.071985103 869:0.06549152 909:0.086138502 962:0.13249579 963:0.041503735 971:0.061001644 1034:0.061676264 1138:0.048237521 1156:0.068578832 1157:0.13409892 1216:0.052372757 1296:0.049799368 1500:0.11165047 1535:0.072595306 1898:0.070305146 2127:0.086730815 2484:0.078353338 #
-1.000000001021051 6:0.012441702 13:0.13781667 17:0.11299373 29:0.075309731 31:0.015807036 33:0.022949444 34:0.066102766 37:0.019622538 42:0.12406207 48:0.050742563 52:0.067623548 53:0.031939324 58:0.027819971 63:0.0089642387 72:0.051618431 78:0.06372223 79:0.14062271 81:0.050501499 97:0.077634335 100:0.025627507 118:0.054313309 142:0.0010754382 144:0.024656175 146:0.074481249 148:0.036455538 158:0.089300886 160:0.037589807 165:0.040266849 166:0.030944295 185:0.048300695 186:0.047068123 199:0.038771473 206:0.039555412 216:0.2886593 219:0.069352873 229:0.021718511 232:0.073622338 242:0.02905995 252:0.059860453 271:0.13731357 274:0.089639448 275:0.027888479 284:0.025185538 287:0.11548579 306:0.032543674 312:0.037589807 322:0.17971051 323:0.035477575 333:0.16735558 335:0.16474971 337:0.031706292 341:0.034651507 342:0.038742263 367:0.035397533 377:0.031919722 405:0.039441045 409:0.021180071 411:0.031070832 419:0.050451431 426:0.11200439 429:0.047328547 430:0.032277837 444:0.10896329 480:0.030503524 484:0.04583754 489:0.1417588 504:0.044054937 532:0.095904447 561:0.036751118 570:0.048113633 580:0.15010206 598:0.043829598 603:0.044401541 625:0.046106886 628:0.045065772 643:0.033742599 656:0.04093888 684:0.038813829 715:0.051172532 730:0.039866127 774:0.093046494 810:0.061028857 814:0.046038948 881:0.094505869 886:0.035721138 895:0.21563309 900:0.12106806 906:0.097054936 920:0.27240822 930:0.036310576 963:0.035186801 1000:0.050352048 1003:0.043829598 1023:0.058540337 1026:0.057382125 1034:0.10457808 1039:0.12106806 1058:0.046523247 1126:0.044226918 1170:0.11043209 1201:0.10578252 1260:0.055368789 1320:0.17501679 1332:0.0509618 1379:0.043773953 1386:0.059383631 1404:0.11232973 1424:0.038565289 1432:0.049312558 1476:0.053397086 1497:0.050352048 1503:0.056164864 1509:0.052406959 1551:0.044401541 1613:0.047558438 1645:0.047404662 1679:0.059829935 1724:0.063888632 1751:0.056499571 1759:0.062952824 1873:0.054916572 1979:0.061284583 1990:0.055216044 2141:0.13733251 2227:0.054916572 2402:0.057200056 2403:0.062369142 2472:0.070256643 2554:0.062952824 2649:0.068666257 2745:0.068666257 2907:0.061813947 2979:0.12843697 2987:0.070840321 3095:0.065642752 3323:0.075158626 3541:0.078144141 3576:0.066427834 3776:0.070840321 3810:0.074315332 3969:0.062952824 4498:0.082202837 4512:0.068181954 4522:0.082202837 4684:0.066841677 4734:0.088570841 5094:0.079343066 5823:0.076069452 6845:0.088570841 6875:0.088570841 7641:0.091844454 7982:0.088570841 #
-1.000000001021051 111:0.21943723 160:0.31803873 712:0.32221931 938:0.52072817 1042:0.39979625 1478:0.56203067 #
0.80113257424041373 6:0.022258541 18:0.19858225 31:0.056558426 33:0.041057173 36:0.17006716 47:0.14046857 60:0.056314878 63:0.016037265 75:0.015036904 84:0.043544777 107:0.14194475 121:0.080075115 142:0.011543928 159:0.089270934 180:0.057175439 205:0.05870847 252:0.10709196 255:0.069057271 284:0.045057606 301:0.13449836 310:0.15229605 347:0.12190098 351:0.052653834 375:0.21039039 392:0.092324667 409:0.037891716 415:0.064552411 498:0.15247501 505:0.05337023 513:0.16656485 539:0.068931602 607:0.07278154 641:0.05870847 647:0.26807916 784:0.21857208 876:0.07160531 1245:0.14511152 1311:0.090619296 1424:0.068994336 1995:0.095996834 2022:0.53317112 2611:0.089904912 3049:0.3988564 3760:0.12114831 6226:0.15020125 #
0.35815390035182065 6:0.020986166 20:0.039460607 25:0.052501243 27:0.040737789 28:0.10331482 29:0.025405888 31:0.053325351 51:0.047510486 56:0.064582214 83:0.018125495 94:0.041994635 96:0.043341819 138:0.058659937 142:0.0036280123 160:0.063404985 172:0.054858502 199:0.065398164 229:0.036633916 242:0.049017161 337:0.10696182 348:0.069497027 398:0.054410905 413:0.06048508 515:0.050540663 693:0.083178453 856:0.052501243 1014:0.25735509 1093:0.088802062 1124:0.077771254 1149:0.067112215 1311:0.25631756 1424:0.065050386 1844:0.090960979 2022:0.10053865 3212:0.11137427 3255:0.12278912 3407:0.13181041 4139:0.11949062 5343:0.13181041 6793:0.14939776 7354:0.28323045 7418:0.14939776 8731:0.15491955 9194:0.52801919 9412:0.48810622 #
0.016309269253604229 6:0.021640971 28:0.15980764 29:0.078595787 31:0.041241895 80:0.070453256 128:0.11631009 144:0.1286601 245:0.12511142 337:0.082724407 345:0.079406343 408:0.063715674 478:0.084855273 571:0.085399047 780:0.10977849 781:0.11725771 1248:0.13931753 1378:0.13269252 3540:0.18185697 7818:0.25166801 9061:0.81674147 9933:0.23962997 #
0.95020313180019256 68:0.19888686 111:0.20260602 232:0.28756204 339:0.25199077 829:0.24033777 1074:0.42340553 2250:0.5403595 2686:0.49414641 #
0.025864691207147603 6:0.027333679 26:0.29576924 27:0.039794561 29:0.099270597 31:0.052090675 41:0.062930807 63:0.029540848 67:0.077308096 75:0.055396345 85:0.083754279 134:0.097881302 142:0.024808073 153:0.118536 174:0.2003625 176:0.070841223 209:0.08585269 507:0.073075883 541:0.14092936 546:0.11807813 549:0.1459367 671:0.083463863 858:0.13711259 1138:0.13476811 1877:0.22168601 2202:0.19159855 2239:0.44337201 2974:0.47095084 4176:0.22795041 4308:0.25068009 5440:0.27667263 #
-1.000000001021051 6:0.012272292 17:0.022291034 20:0.046151556 26:0.017705955 29:0.059427429 30:0.024588937 31:0.015591802 37:0.1161321 42:0.048949122 63:0.088421792 67:0.046279781 68:0.025113082 75:0.049743768 83:0.031798285 88:0.031236714 94:0.024557628 111:0.025582694 132:0.024810581 142:0.032884635 162:0.022155596 169:0.059637025 176:0.042408448 178:0.03301429 181:0.10358673 185:0.023821509 199:0.076487094 215:0.026060892 218:0.023204371 228:0.092815123 238:0.080677696 259:0.099528939 275:0.027508739 286:0.022921583 299:0.033864848 309:0.03010525 317:0.024381839 370:0.24188493 399:0.038572229 408:0.048176356 411:0.061295524 433:0.033080902 436:0.07226634 507:0.043746207 534:0.031180168 586:0.030071134 609:0.028968873 644:0.15591633 663:0.03828533 827:0.034941807 850:0.14999653 913:0.042695649 1083:0.043854963 1138:0.040338848 1155:0.047620006 1296:0.083289899 1366:0.044330135 1491:0.093974963 1497:0.049666438 1551:0.17518783 1576:0.045345455 1698:0.059242032 1743:0.060708154 1849:0.050581142 1985:0.05754457 2055:0.063018702 2239:0.53084117 2379:0.061519902 2679:0.058793001 2974:0.56386083 3496:0.069300003 3699:0.062095635 3722:0.069300003 3785:0.069875732 4308:0.075033672 5222:0.071804635 5233:0.069875732 5784:0.078262702 5973:0.079584733 6335:0.087364838 6396:0.079584733 9933:0.18118773 #
-0.12756588761239879 2:0.11300109 6:0.013840447 31:0.052752376 32:0.10375252 48:0.16934171 68:0.25489831 129:0.14271957 142:0.017945148 176:0.071741104 193:0.13424554 221:0.26350456 238:0.2729601 286:0.077551514 373:0.098803297 409:0.1413673 448:0.12533997 772:0.12823687 895:0.2878505 952:0.12893799 1045:0.14379671 2683:0.19604929 2686:0.63331026 4061:0.25386444 #
-0.77217558550321186 6:0.026743634 13:0.044435866 16:0.44146401 17:0.03643227 34:0.053283349 58:0.044849597 65:0.047832288 70:0.15384401 100:0.041315045 105:0.071022585 111:0.041812129 147:0.086083405 203:0.050686099 250:0.093417689 258:0.063401826 317:0.039849464 331:0.052265808 351:0.047447685 377:0.051458955 432:0.062806159 448:0.060548015 471:0.069695868 480:0.049175855 506:0.037404034 546:0.057764605 559:0.47867268 569:0.093731284 574:0.050061151 620:0.095042191 631:0.044871632 634:0.075116135 647:0.24157281 663:0.18771961 784:0.19696076 792:0.073367678 858:0.13415277 882:0.050208028 908:0.07111454 912:0.063584365 991:0.071022585 1098:0.075001836 1283:0.082843259 1880:0.093417689 1995:0.086505145 2073:0.096824653 2740:0.096824653 3924:0.11519614 4102:0.15550403 4499:0.29613164 5507:0.29613164 5769:0.14278832 #
-1.000000001021051 6:0.03454642 11:0.25226521 17:0.023530917 18:0.046231508 26:0.14952643 27:0.012573862 32:0.12948564 41:0.019884206 47:0.020438867 63:0.074672028 75:0.026255321 88:0.098922536 134:0.061854988 142:0.021276176 154:0.031216292 155:0.044851065 159:0.02597872 174:0.031654205 176:0.044767313 192:0.034874018 205:0.068338968 227:0.030694833 229:0.022614373 280:0.045237768 283:0.032371409 312:0.03914034 317:0.025738019 345:0.063379899 346:0.035977587 357:0.039974608 377:0.066472746 405:0.041067943 416:0.084026098 434:0.074733458 437:0.077684075 469:0.099860393 472:0.039343465 478:0.033864539 498:0.044371728 502:0.029807355 506:0.024158562 507:0.069269225 539:0.040119547 580:0.0390734 599:0.040489849 633:0.04490554 647:0.19503418 671:0.026372025 730:0.04151056 755:0.090140976 757:0.041028515 799:0.0435647 827:0.036885358 959:0.04800874 965:0.043133795 966:0.043133795 997:0.16427177 1021:0.046233051 1045:0.022432718 1059:0.079169862 1066:0.057493642 1080:0.043662623 1111:0.05362029 1126:0.046051227 1140:0.35088745 1190:0.14019604 1223:0.053063914 1232:0.048892278 1245:0.084457755 1424:0.080312118 1433:0.083268397 1603:0.31268612 1731:0.05362029 1858:0.1111993 1931:0.05629275 2399:0.062781535 2401:0.58481598 2611:0.052326426 2765:0.065549552 3024:0.072576545 3592:0.073154643 5815:0.085593604 8188:0.17916068 #
-0.43670108682495601 6:0.0065258546 14:0.39724568 17:0.035560116 31:0.024873065 69:0.13241522 86:0.050695434 142:0.035537232 151:0.051537454 187:0.12170148 199:0.06100861 201:0.078320496 595:0.37106791 835:0.2131127 922:0.092766978 1074:0.34114847 1399:0.4353812 2209:0.11147035 2379:0.098140582 2401:0.088377878 2546:0.10967828 2664:0.13210994 2994:0.13537455 3440:0.13537455 3620:0.13937011 3943:0.25869954 4804:0.30356285 5606:0.13937011 #
1.000000001021051 6:0.015898915 27:0.015431277 29:0.019247254 31:0.020199385 52:0.12962145 58:0.035550389 59:0.13163175 78:0.040714458 79:0.035939593 80:0.06901294 85:0.032477692 98:0.034377072 100:0.032748699 132:0.064284861 142:0.0013742734 148:0.046585545 179:0.028889364 185:0.030861076 199:0.024772508 216:0.046108741 224:0.1008013 229:0.11101399 252:0.076494053 253:0.057909697 277:0.047993861 291:0.042656168 299:0.087744705 336:0.04845288 337:0.040516615 355:0.063791931 377:0.040789347 380:0.065122701 382:0.046548307 444:0.069620617 489:0.241533 542:0.1506719 586:0.038957547 594:0.050743964 639:0.06097284 712:0.04866641 803:0.066231146 854:0.063724652 859:0.082944624 883:0.061798096 908:0.056369502 993:0.058238328 1001:0.12424012 1007:0.12234961 1048:0.071983844 1094:0.054583903 1168:0.06891115 1192:0.065946013 1347:0.16013598 1389:0.067588307 1478:0.33954534 1523:0.08541517 1679:0.076455057 1751:0.28879711 1910:0.06485831 2146:0.081641555 2204:0.07899037 2224:0.078313909 2403:0.079699844 2472:0.17955813 2504:0.077987127 2622:0.48021591 2623:0.096043184 2663:0.085963957 2745:0.087746747 3275:0.085963957 4028:0.098472357 4310:0.31513435 5075:0.097207099 5280:0.10310306 5946:0.10504478 #
0.99539741728950148 17:0.049547642 27:0.026476027 29:0.066046491 31:0.034656852 36:0.069473788 40:0.056813505 72:0.11317316 73:0.29641947 78:0.06985534 79:0.18498878 81:0.055362146 83:0.023559997 118:0.059540838 126:0.086391285 142:0.0047157863 146:0.081649892 165:0.088284872 178:0.14676575 185:0.052949522 209:0.057119321 216:0.23733155 229:0.095235467 252:0.065621883 271:0.20070623 274:0.29480109 276:0.070636421 306:0.071351849 308:0.067184024 355:0.054725118 387:0.064185821 389:0.077492617 402:0.069306061 411:0.068122655 444:0.11945075 489:0.20720367 543:0.10064492 597:0.08130952 628:0.098806486 757:0.086391285 827:0.15533458 842:0.13168089 886:0.078318425 895:0.094554909 920:0.35835224 952:0.084708691 1094:0.093651675 1120:0.14655004 1164:0.096465811 1201:0.23192766 1393:0.1041025 2194:0.2773782 2472:0.15403736 2745:0.15055044 2979:0.14079873 3136:0.14847015 #
1.000000001021051 6:0.031250387 11:0.070214421 13:0.051924057 15:0.0089222202 17:0.085143439 18:0.013940204 25:0.019544831 27:0.0075828028 29:0.10403737 30:0.015653428 31:0.019851623 37:0.036965113 47:0.012325879 48:0.015931549 53:0.1002793 56:0.048084512 58:0.01746917 59:0.01617069 60:0.11859684 63:0.0056289714 67:0.014730959 68:0.015987102 75:0.0052778511 77:0.019637179 78:0.040013503 79:0.052981265 80:0.067824788 81:0.015855862 83:0.026990576 97:0.048749417 98:0.01689261 102:0.049628522 111:0.016286058 138:0.021837549 139:0.042609256 142:0.0020259202 145:0.021853374 151:0.020566467 159:0.015666747 160:0.51928812 162:0.014104352 179:0.014195996 183:0.091640405 185:0.03032976 186:0.014777891 190:0.022328276 194:0.020632938 199:0.012173007 203:0.019742519 204:0.015633497 206:0.02483828 215:0.016590482 216:0.045314915 232:0.069345206 237:0.022379255 242:0.018247798 243:0.024555255 265:0.024601653 274:0.14071965 275:0.017512189 286:0.014591984 292:0.10271957 299:0.021558516 307:0.025008708 317:0.01552159 327:0.087604254 331:0.020357827 337:0.11945719 341:0.04351788 342:0.048655346 345:0.038221929 347:0.021393208 355:0.015673416 364:0.024128869 367:0.022227397 369:0.023287257 373:0.018590689 375:0.018461401 383:0.031195663 385:0.027247338 387:0.018382985 389:0.022194086 408:0.015334643 426:0.023443876 441:0.018363517 444:0.034211002 448:0.02358379 454:0.025984 458:0.027417881 473:0.022928493 478:0.020422375 483:0.025285015 485:0.03604367 502:0.017975647 507:0.027849033 508:0.020205248 509:0.024172572 534:0.039698873 535:0.024695367 549:0.027808053 550:0.042434264 553:0.033290435 560:0.031022081 567:0.028259493 576:0.025492897 580:0.023563635 586:0.13400394 597:0.023287257 609:0.018441716 631:0.017477753 633:0.027080771 634:0.029258156 638:0.031806756 654:0.027213711 658:0.072256297 662:0.027146932 667:0.025083011 671:0.015903933 673:0.026331216 676:0.026040711 695:0.02570701 702:0.031022081 707:0.038647085 712:0.047828551 726:0.023999341 730:0.02503339 740:0.037289139 763:0.03016144 769:0.037861079 804:0.049064334 811:0.029577814 837:0.028259493 841:0.04011799 851:0.029577814 854:0.031313773 872:0.029719312 876:0.050265957 887:0.032908235 908:0.027699511 913:0.027180243 942:0.033694237 966:0.026012298 984:0.02986367 997:0.024766466 998:0.11529987 1002:0.038815223 1005:0.027452484 1007:0.030060798 1009:0.023210216 1014:0.12774204 1030:0.038987409 1034:0.032834187 1055:0.028416542 1061:0.033777811 1074:0.034034561 1093:0.033058669 1114:0.031870842 1124:0.057904374 1143:0.24726927 1167:0.033290435 1184:0.034300882 1216:0.027881339 1227:0.028456351 1229:0.058786809 1251:0.034211002 1263:0.035372272 1308:0.030419426 1321:0.030212298 1379:0.027487256 1382:0.034122236 1428:0.043768067 1439:0.030687077 1442:0.03916385 1446:0.027180243 1476:0.033529967 1558:0.031373568 1624:0.032983053 1652:0.031195663 1658:0.038011517 1669:0.038987409 1694:0.040985167 1697:0.035585586 1702:0.040538434 1713:0.042813927 1734:0.036032323 1739:0.041972313 1741:0.039530363 1771:0.037153032 1781:0.066117339 1794:0.042813927 1797:0.36222371 1799:0.044869542 1819:0.14459404 1836:0.055543378 1838:0.079833396 1844:0.033862375 1865:0.030908659 1884:0.03916385 1947:0.036148511 2024:0.025362264 2056:0.033947948 2099:0.037861079 2107:0.033369388 2185:0.032545444 2211:0.04011799 2229:0.074038938 2318:0.11975009 2383:0.041461706 2395:0.044869542 2403:0.03916385 2411:0.043768067 2412:0.038322236 2423:0.033611633 2472:0.044116694 2621:0.044116694 2658:0.042813927 2659:0.040538434 2745:0.043118034 2956:0.043118034 3182:0.047194831 3350:0.041712452 3624:0.045277964 3681:0.057672467 3739:0.04011799 3820:0.041712452 3958:0.04982239 4234:0.041461706 4354:0.046665296 5080:0.057672467 5280:0.050664004 5297:0.045277964 5582:0.048388507 5601:0.046172313 5629:0.052719619 5709:0.055616848 5975:0.050664004 5978:0.091422312 6016:0.05402239 6198:0.057672467 6220:0.055616848 6713:0.057672467 7020:0.098139085 7324:0.055616848 7876:0.12113939 7877:0.18170908 8182:0.05402239 #
0.70984438012281059 6:0.03517545 17:0.047918752 29:0.010645865 31:0.011172499 33:0.064883165 37:0.069346584 41:0.026995018 47:0.013874016 53:0.18059909 59:0.12741217 60:0.022248778 64:0.02542381 65:0.020971 72:0.018242093 79:0.05963574 83:0.0075951517 96:0.036323167 97:0.01829079 98:0.019014332 111:0.018331597 118:0.019194473 132:0.053334985 138:0.024580356 144:0.017427118 145:0.02459817 160:0.13284341 174:0.064461149 179:0.015979022 180:0.022588767 186:0.049902007 216:0.025503246 220:0.023515277 224:0.055754293 229:0.18420914 252:0.021154847 256:0.019948302 274:0.031678826 284:0.017801275 291:0.023593592 293:0.083232611 299:0.072798826 319:0.026591497 320:0.027823705 323:0.05015149 337:0.067230538 341:0.024491875 347:0.024080208 355:0.017642004 380:0.036020078 382:0.025746375 388:0.060964257 389:0.024981674 391:0.030335221 423:0.044417858 426:0.026388438 444:0.15403169 454:0.029247604 459:0.026776399 462:0.036020078 466:0.054172479 473:0.025808323 478:0.022987435 480:0.043120116 485:0.020285388 489:0.033398632 510:0.026500614 521:0.0289053 543:0.032445397 604:0.043316279 607:0.028754396 625:0.032588597 631:0.019672967 640:0.027358068 641:0.023194434 653:0.029944539 671:0.017901476 676:0.029311437 680:0.040429309 687:0.032983422 696:0.032351326 706:0.029841203 726:0.027013671 727:0.03138325 774:0.032882884 781:0.063530616 789:0.090359323 803:0.073266335 806:0.0314666 811:0.066585608 827:0.025037983 840:0.037041526 841:0.13547049 876:0.028289694 883:0.0341812 912:0.027877146 913:0.030594097 963:0.024870222 987:0.023931107 993:0.032212254 1009:0.10450172 1014:0.071893252 1035:0.035801705 1094:0.03019095 1098:0.032882884 1124:0.032588597 1168:0.038115505 1185:0.092265852 1188:0.036094204 1194:0.044930253 1201:0.11215148 1227:0.032030482 1260:0.039134961 1305:0.026660338 1327:0.07623101 1347:0.044286478 1386:0.041972674 1393:0.033560034 1404:0.039697632 1410:0.040429309 1431:0.034240123 1464:0.03747173 1478:0.093903117 1497:0.035589103 1512:0.10014065 1523:0.047244057 1574:0.089860506 1679:0.042288125 1784:0.042785782 1822:0.04166913 1875:0.045877576 1906:0.092265852 1939:0.080355898 1953:0.051452503 2024:0.028547779 2229:0.04166913 2472:0.29794666 2622:0.053122528 2623:0.053122528 2663:0.047547601 2745:0.2912021 2848:0.053766306 2926:0.050070323 2986:0.051971581 3089:0.047547601 3323:0.10624506 3518:0.090779953 3756:0.055232704 3812:0.059341233 3950:0.053766306 3958:0.50472099 3969:0.044495396 3982:0.053122528 4310:0.058101412 4639:0.056080107 4849:0.052526485 5056:0.050964903 5280:0.057027429 5573:0.059341233 6982:0.06080763 7002:0.064916156 7539:0.064916156 7990:0.059341233 9117:0.29500884 #
1.000000001021051 6:0.011157289 11:0.025068576 17:0.030398663 29:0.02026055 37:0.079185665 53:0.08592625 58:0.074843965 64:0.048385017 67:0.063112527 72:0.034717221 91:0.13372757 111:0.034887556 132:0.06766922 160:0.2528193 185:0.032485798 199:0.052153379 218:0.031644199 232:0.099032953 252:0.040260591 280:0.11688177 323:0.0477226 330:0.11096358 377:0.042936757 389:0.04754357 415:0.048536196 437:0.050178498 448:0.050520562 505:0.080256894 510:0.050434325 513:0.0834921 534:0.042520925 629:0.068135582 636:0.05705471 740:0.079879791 762:0.14854753 839:0.088818155 853:0.059032526 903:0.062112529 930:0.048843108 1045:0.028979944 1048:0.07577353 1083:0.059805762 1088:0.14330807 1094:0.17237262 1216:0.11945331 1322:0.12535207 1340:0.14979723 1431:0.065163672 1464:0.071313873 1525:0.078208297 1579:0.070024118 1625:0.075329825 1645:0.063766301 1791:0.078208297 1990:0.2228213 2041:0.087797321 2134:0.30400121 2202:0.078208297 2841:0.38447332 2861:0.095290735 3005:0.36946517 3270:0.21706213 3813:0.096993238 4450:0.21345636 4481:0.10511545 4482:0.10511545 4483:0.10511545 4505:0.10853107 5811:0.10232469 #
-1.000000001021051 6:0.0083731292 12:0.056445077 33:0.046334174 54:0.062694319 67:0.094727196 98:0.054313831 132:0.050783228 179:0.045643564 215:0.053342413 218:0.047495581 224:0.079630181 271:0.092410527 318:0.40426996 341:0.069960259 394:0.15600862 443:0.13034087 448:0.075827591 453:0.081215248 531:0.094216093 542:0.23805308 591:0.088044405 603:0.089645252 745:0.11373042 786:0.13253056 820:0.12425973 830:0.29115924 874:0.11441626 1211:0.14557962 1229:0.094506912 1319:0.088378176 1339:0.10106749 1498:0.13765714 1517:0.15558076 1530:0.11373042 1574:0.12834184 1759:0.12709968 1860:0.15358174 2218:0.12425973 2293:0.12480033 2622:0.45522842 2623:0.1517428 3174:0.17369506 4182:0.17369506 4859:0.15777045 #
-0.92002932876916488 6:0.023482542 11:0.015074678 13:0.022295658 17:0.16451874 29:0.012183432 33:0.037127074 37:0.031744882 53:0.15501206 58:0.045006495 59:0.041661173 63:0.007251068 79:0.090998448 83:0.0086921081 88:0.025615804 91:0.13402569 132:0.061038077 144:0.01994409 146:0.030123504 160:0.091217861 194:0.026578715 199:0.015680894 203:0.025431708 215:0.064114049 218:0.038057692 242:0.023506252 258:0.063623622 262:0.031396054 275:0.045117326 286:0.018796945 293:0.063502513 335:0.044421371 337:0.076940544 342:0.062676325 357:0.031054048 359:0.037350602 372:0.033114981 413:0.02900571 422:0.12236126 426:0.03019968 437:0.030174218 438:0.18703109 448:0.030379916 473:0.029535782 485:0.046430349 493:0.029948175 502:0.092622705 505:0.072392233 507:0.017937135 509:0.031138366 513:0.025103472 515:0.02423685 516:0.18811837 523:0.078643471 534:0.025569433 539:0.031166643 541:0.034592383 550:0.027331257 567:0.036403012 575:0.035012756 580:0.03035395 629:0.04097249 658:0.031026114 714:0.034716491 726:0.030915214 764:0.031026114 780:0.10210308 796:0.029488457 800:0.02958335 810:0.049365528 828:0.050921798 848:0.037077449 853:0.070996962 856:0.025177049 858:0.067311041 876:0.032375533 887:0.042391375 917:0.040809572 1026:0.046415731 1034:0.042295992 1043:0.037518471 1094:0.069102764 1110:0.054775838 1143:0.039815586 1150:0.036605317 1207:0.038222346 1239:0.044912398 1247:0.051945582 1294:0.03810123 1316:0.046565402 1340:0.045039359 1351:0.044541694 1421:0.094059184 1431:0.039185371 1445:0.051945582 1464:0.042883713 1579:0.042108137 1744:0.092246994 1776:0.038853042 1788:0.041307237 1796:0.054414827 1911:0.0454311 1963:0.048034724 1972:0.097542964 1990:0.31264526 2024:0.13068356 2026:0.040414467 2047:0.046123497 2108:0.050449666 2134:0.18280737 2325:0.059477754 2399:0.048771482 2409:0.048034724 2485:0.053732697 2495:0.04978399 2528:0.038595553 2534:0.058325686 2643:0.048771482 2760:0.052795835 2866:0.045980789 2959:0.058325686 3005:0.2221733 3216:0.066492908 3344:0.06958998 3345:0.13917996 3381:0.063209876 3813:0.058325686 3924:0.057799567 4241:0.51571715 4476:0.13582359 4823:0.071643919 5388:0.0742919 5588:0.1485838 5683:0.12641975 7297:0.15604804 #
0.3701896904952453 6:0.032359056 28:0.059738822 29:0.029380446 31:0.061667699 63:0.034972023 75:0.016395282 142:0.010488968 159:0.048667669 169:0.058968138 174:0.11859987 176:0.041932795 229:0.042365015 277:0.073261417 304:0.061255638 347:0.066456527 404:0.13587055 408:0.047636013 413:0.069947511 427:0.17187072 467:0.10154412 480:0.059501421 535:0.076714449 555:0.093227111 671:0.049404472 842:0.11715515 847:0.17254168 987:0.066045038 1007:0.093381792 1014:0.099205449 1225:0.072160527 1731:0.10045046 5674:0.16376986 5741:0.53746659 6831:0.30953965 9201:0.61062378 #
-0.6132680365475861 11:0.18043613 25:0.30135635 53:0.30923578 56:0.37070093 80:0.26144293 87:0.37407041 142:0.020824736 323:0.34349307 2202:0.56292003 #
-1.000000001021051 4:0.012903865 6:0.038781613 12:0.48264968 13:0.019826941 15:0.040882863 25:0.044778574 28:0.044058867 29:0.11917845 31:0.034111094 37:0.028229887 39:0.17977224 40:0.018639613 41:0.082419306 42:0.017848141 53:0.02297469 55:0.029962039 58:0.020011544 60:0.090571225 63:0.070930019 68:0.018313784 75:0.054413673 77:0.022495076 79:0.14161442 80:0.097119585 81:0.018163444 83:0.0077296626 86:0.23174691 98:0.019351076 108:0.13807774 110:0.057581414 138:0.025015676 140:0.042161435 142:0.013150987 144:0.03547151 145:0.050067611 154:0.021565063 160:0.027039213 162:0.048471089 165:0.086894609 169:0.065235697 171:0.025794014 172:0.070183635 178:0.16853033 179:0.048786033 183:0.078732967 184:0.035153121 185:0.0173719 186:0.033857185 190:0.051155642 197:0.033264365 199:0.055778425 204:0.017908717 208:0.022349965 209:0.018739946 215:0.038009956 216:0.051909823 219:0.024943558 229:0.015622625 234:0.021400411 242:0.041806981 255:0.027766202 259:0.10887263 260:0.07522542 269:0.031855099 279:0.033776116 280:0.031251479 284:0.018116537 288:0.030984337 295:0.025329472 296:0.053802509 306:0.023409413 317:0.017780524 327:0.025088435 330:0.029669093 337:0.1368424 345:0.021892279 346:0.04970859 351:0.042341582 353:0.033465244 355:0.017954446 377:0.02296059 387:0.042116709 390:0.054501224 398:0.023203667 399:0.028128903 411:0.022349965 415:0.025954911 433:0.048248678 441:0.021036051 442:0.025386117 459:0.054501224 461:0.032643601 471:0.03109776 472:0.027179537 475:0.024173208 485:0.020644644 496:0.025015676 502:0.020591732 506:0.016689392 508:0.046291638 510:0.026969943 515:0.021553192 526:0.035803095 531:0.067135118 534:0.022738224 546:0.025774123 548:0.067552231 549:0.031855099 550:0.024304967 565:0.19038457 571:0.047088929 597:0.026676368 636:0.030510219 674:0.039502755 689:0.037281942 695:0.05889656 702:0.035536882 707:0.044271588 712:0.027394639 719:0.064219169 730:0.028676623 733:0.033671174 739:0.03047486 763:0.034550983 829:0.022130644 856:0.022389287 890:0.031329438 903:0.033214904 908:0.03173076 909:0.026265392 912:0.028370854 953:0.065195493 984:0.034209877 987:0.048709854 989:0.036078259 997:0.028370854 1000:0.036219388 1009:0.079764344 1031:0.073315993 1060:0.13585024 1064:0.027640464 1079:0.10373499 1134:0.10887263 1167:0.038135357 1192:0.037121441 1225:0.026610089 1229:0.033671174 1273:0.040052313 1288:0.039189901 1300:0.054063331 1308:0.034846518 1380:0.030725634 1393:0.034154385 1433:0.057524074 1457:0.039502755 1462:0.036657996 1472:0.030334936 1497:0.036219388 1501:0.048710708 1511:0.036008596 1525:0.04182218 1547:0.040052313 1566:0.046438191 1587:0.048080754 1607:0.03859793 1610:0.16510513 1665:0.032152779 1666:0.043037049 1691:0.04182218 1722:0.042560097 1755:0.046193834 1788:0.036733437 1797:0.051867496 1840:0.052891999 1865:0.035406951 1880:0.041682255 1886:0.051399633 1951:0.0372013 1975:0.042407095 1989:0.048389673 1995:0.03859793 2003:0.046690069 2018:0.094436683 2020:0.049757071 2034:0.040166795 2040:0.040641442 2056:0.038888566 2058:0.044661444 2104:0.050957073 2120:0.044083413 2229:0.084814191 2255:0.051399633 2270:0.13169838 2279:0.051867496 2314:0.049393218 2331:0.057073291 2380:0.046193834 2456:0.042109415 2565:0.048080754 2590:0.054063331 2625:0.047218341 2658:0.049044851 2666:0.040282901 2678:0.057073291 2858:0.044863559 2862:0.10107443 3118:0.044083413 3221:0.056210879 3421:0.053456731 3513:0.048710708 3722:0.050537217 3773:0.052891999 3853:0.058037389 4137:0.054063331 4209:0.060392171 4221:0.052363731 4234:0.047495838 4265:0.054063331 4413:0.059130389 4429:0.056210879 4468:0.059130389 4473:0.054063331 4547:0.063711047 4650:0.049757071 4686:0.057073291 5148:0.055430729 5673:0.063711047 5680:0.066065826 6021:0.059130389 6097:0.066065826 6110:0.063711047 6328:0.059130389 6563:0.066065826 6983:0.063711047 7770:0.061884537 #
0.61896697065941597 26:0.13047965 63:0.065160252 142:0.015634527 531:0.33920726 799:0.30412316 827:0.25749499 947:0.73345387 2401:0.40825737 #
0.12211047696337143 6:0.022950193 15:0.019657359 26:0.074501075 28:0.042368896 29:0.020837657 31:0.043736923 41:0.026419315 63:0.0248034 88:0.043811414 106:0.040161297 140:0.040544249 142:0.0074391495 154:0.041475784 159:0.034516841 185:0.03341113 296:0.051738802 312:0.052004136 377:0.044159777 389:0.048897814 405:0.054565262 448:0.051959604 502:0.039603788 506:0.032098472 507:0.030678375 531:0.32280007 539:0.053305168 541:0.059164304 593:0.05526267 697:0.061509285 726:0.052875139 755:0.11976656 757:0.054512873 774:0.064363226 799:0.1157652 827:0.049008034 880:0.13497958 947:0.41878638 987:0.046841491 1118:0.073872939 1411:0.072667979 1688:0.077252232 1731:0.07124304 2024:0.05587792 2171:0.1587722 2401:0.38851029 2449:0.28807482 2723:0.14958766 2740:0.083090596 3767:0.091900513 4468:0.34117395 4530:0.28298181 5557:0.10660914 6734:0.25412697 7985:0.11162249 #
0.67977683901366737 6:0.023306586 26:0.10087733 27:0.067863189 31:0.044416115 33:0.064485535 63:0.025188573 64:0.202144 75:0.047234755 142:0.021153081 159:0.070105702 196:0.43345767 375:0.082611248 409:0.059513777 441:0.082173228 647:0.10526314 799:0.11756291 824:0.1303307 895:0.24236256 966:0.11640008 997:0.11082521 1190:0.12611017 1305:0.1059878 1433:0.1123533 1731:0.14469874 1916:0.28465834 2674:0.17220326 5215:0.43915367 8188:0.48347977 #
0.62680679761587144 6:0.021256989 11:0.28656551 29:0.025733747 37:0.033525642 63:0.015315648 75:0.014360299 142:0.0018374156 179:0.19312666 199:0.066242121 240:0.063787527 254:0.068383344 279:0.080224626 284:0.04303018 351:0.050284609 355:0.042645182 373:0.050582677 490:0.073327899 513:0.053023353 587:0.35896924 643:0.11530031 916:0.17171906 1056:0.06957905 1341:0.081387602 2907:0.73927575 3090:0.12996675 3698:0.10755662 4300:0.25682116 5530:0.13165841 #
0.38751599537426956 6:0.014442604 15:0.024740834 27:0.042053401 67:0.040848151 81:0.087934889 88:0.055141225 142:0.0093629444 158:0.051831227 159:0.043443039 185:0.08410278 229:0.037816994 242:0.1012003 252:0.052115507 322:0.062583581 365:0.076512769 537:0.080763206 631:0.048464857 902:0.099598639 1057:0.098378934 1237:0.088555433 1620:0.2619991 2318:0.44274732 4947:0.13606718 6767:0.31984523 8304:0.47976786 9120:0.54507136 #
-1.000000001021051 4:0.048024472 6:0.033307847 20:0.062629253 29:0.12096761 31:0.042317227 83:0.02876758 88:0.1695572 142:0.0028790701 205:0.0878518 228:0.16793777 252:0.080126606 382:0.097517595 391:0.11489842 398:0.08635737 408:0.065376982 430:0.086411431 496:0.093101151 507:0.059365112 508:0.17228416 534:0.084625125 587:0.14061837 631:0.074513808 806:0.11918364 853:0.11748651 950:0.12098095 987:0.090642035 1064:0.10286985 1751:0.15125576 1863:0.13375655 2067:0.13845253 2264:0.15080445 2965:0.16934425 3767:0.17783485 4286:0.22006631 4530:0.18253084 5003:0.19895057 6638:0.63723111 8428:0.23711419 #
-1.000000001021051 6:0.023309685 11:0.41898391 15:0.07986109 18:0.24955219 27:0.13574442 142:0.036267247 179:0.25413129 441:0.16436832 499:0.34724236 1313:0.30463684 1449:0.29868302 2674:0.34445229 5136:0.47188321 #
-0.72931400750334341 6:0.029698405 11:0.20018214 18:0.15897474 27:0.086474635 142:0.011551844 148:0.13052933 182:0.30199081 185:0.0864705 192:0.11992013 255:0.13820925 283:0.11131449 357:0.13745935 375:0.21053468 402:0.11318195 502:0.10249756 640:0.27717888 655:0.11243806 723:0.15240048 799:0.14980447 3105:0.46480966 3448:0.47569075 5722:0.31712857 #
-1.000000001021051 6:0.022237103 15:0.038093161 26:0.24062078 27:0.016187279 28:0.041052442 29:0.12114123 41:0.025598435 42:0.033260494 63:0.084114552 75:0.056334082 83:0.043213304 97:0.034689035 114:0.039036121 137:0.045511097 142:0.044689637 144:0.033051059 159:0.03344436 168:0.041288573 171:0.048067842 174:0.040750843 176:0.028816164 192:0.044895947 198:0.048405576 199:0.0519723 218:0.031534329 228:0.16817881 229:0.029113185 234:0.039880242 238:0.10963956 256:0.037832558 265:0.10503605 286:0.031150024 298:0.11022288 346:0.04631665 386:0.044275675 402:0.042373296 405:0.052869853 433:0.04495636 436:0.049104337 442:0.047307719 448:0.050345156 465:0.047272451 472:0.050649803 507:0.02972516 534:0.042373296 597:0.049712133 608:0.060661804 655:0.042094797 658:0.051416025 667:0.053545594 696:0.06135527 772:0.10301751 774:0.062363382 840:0.21075112 850:0.05096066 869:0.074428171 1025:0.067763425 1201:0.070899561 1207:0.063341513 1260:0.074220635 1321:0.064495265 1359:0.061714195 1433:0.053598836 1489:0.065163411 1613:0.063751034 1731:0.069029428 1831:0.15057552 2024:0.054141726 2066:0.074428171 2264:0.30204177 2306:0.078202046 2555:0.07506828 2686:0.084793657 2907:0.082860231 2929:0.10635763 2965:0.084793657 3191:0.095784605 3222:0.099618062 3676:0.57993889 3944:0.096656479 4530:0.091396406 4683:0.10196942 4917:0.10074848 4976:0.10196942 5051:0.10635763 6231:0.098565675 7989:0.11254244 8226:0.24623092 #
-1.000000001021051 27:0.1166995 97:0.25008488 140:0.28321502 142:0.031178957 153:0.34761268 313:0.45448682 358:0.53071123 501:0.41677365 671:0.2447619 #
1.000000001021051 6:0.021578707 12:0.2182001 20:0.030431079 39:0.43345526 41:0.049681034 42:0.064551435 47:0.02553343 63:0.12826642 75:0.054666143 82:0.080927931 83:0.11182359 84:0.031661104 86:0.083815992 108:0.099877246 110:0.052063726 114:0.037880339 140:0.11436406 142:0.089530766 173:0.040322319 176:0.027962975 181:0.045534845 211:0.053652156 215:0.034367684 218:0.12240265 227:0.038345784 229:0.084753603 239:0.045736697 268:0.31145239 276:0.041907996 283:0.040440265 286:0.030227734 296:0.1459408 309:0.039701164 316:0.36747012 317:0.064306885 345:0.11876682 346:0.044945307 350:0.39371002 355:0.032467954 365:0.057158895 370:0.063796937 389:0.045975719 408:0.063532352 437:0.04852375 455:0.078778125 457:0.074397989 477:0.057680935 507:0.028845057 509:0.050074216 534:0.041118708 537:0.12066837 548:0.1221582 560:0.06426318 609:0.076405145 612:0.062798671 631:0.036205694 655:0.040848456 684:0.050488606 706:0.054919086 780:0.054731321 789:0.055431765 848:0.059624974 891:0.075886644 893:0.16980402 987:0.088084556 1069:0.085889183 1128:0.081129096 1335:0.17396317 1782:0.066426978 2116:0.081503853 2301:0.095647343 #
1.000000001021051 6:0.025050752 29:0.068234585 65:0.089608975 78:0.048113085 85:0.038379531 91:0.050041664 132:0.03798335 151:0.098918229 162:0.033918746 183:0.11019037 186:0.035538502 204:0.037596095 216:0.054487616 226:0.048560213 271:0.069118522 275:0.042114053 280:0.065606803 288:0.13009195 295:0.053174619 306:0.049143806 322:0.27137867 325:0.11247323 333:0.063180409 335:0.082928851 337:0.04787929 351:0.044444229 377:0.048201583 382:0.055007063 400:0.22073503 411:0.046919689 424:0.06450288 471:0.13056819 479:0.079319052 505:0.045048922 506:0.035036344 534:0.047734767 546:0.054108083 574:0.046892259 629:0.076490238 641:0.049554843 644:0.05967439 649:0.16769107 663:0.17583689 712:0.057510063 715:0.077275023 739:0.063976429 763:0.14506702 804:0.058995999 860:0.086106494 868:0.089347184 881:0.071356088 963:0.053135164 991:0.06652683 1056:0.061497688 1225:0.055863045 1519:0.1009368 1608:0.067866497 1690:0.081847757 1721:0.16411722 1827:0.084322885 2026:0.075448491 2050:0.080634288 2353:0.09599337 2380:0.096975558 2464:0.10697511 2644:0.20451856 2673:0.45948625 2815:0.09461794 3749:0.11349613 4244:0.098562874 4265:0.11349613 4534:0.11222269 4689:0.25356475 4757:0.12183894 4805:0.24826701 5247:0.10445593 5450:0.12678237 #
0.61706751746321731 6:0.043709353 12:0.18132567 26:0.058211118 27:0.068530619 29:0.048844263 37:0.015908442 39:0.033769131 40:0.042016067 41:0.09289182 42:0.020115994 51:0.022835402 59:0.062633507 60:0.025519889 63:0.043605085 67:0.13313307 68:0.020640805 83:0.0087118233 84:0.019732935 86:0.052238714 92:0.02219587 108:0.062248968 110:0.032448966 111:0.021026785 132:0.020392174 142:0.020053297 148:0.029555341 151:0.026553182 162:0.018210003 172:0.026367145 176:0.034856115 180:0.051819727 190:0.028827839 194:0.053278003 199:0.031432923 203:0.050978784 204:0.040368535 215:0.042839646 218:0.019072007 222:0.042880159 231:0.072090052 232:0.14921829 240:0.030268179 268:0.22646654 269:0.035902727 284:0.061255485 286:0.018839579 309:0.024743939 317:0.020039786 322:0.029139087 345:0.074021988 346:0.028012378 353:0.075434931 355:0.06070742 373:0.024002273 375:0.02383535 384:0.036435578 385:0.035178795 390:0.03071318 396:0.034150403 399:0.03170307 408:0.019798422 426:0.060536359 430:0.026168386 433:0.02718967 434:0.029093975 437:0.030242659 441:0.071126916 459:0.03071318 466:0.031068573 475:0.027244749 478:0.026367145 485:0.069803499 504:0.035716351 505:0.024185479 507:0.017977819 534:0.051254861 561:0.1191799 571:0.026536115 576:0.032913655 588:0.046085082 591:0.10606357 597:0.03006597 613:0.031096486 618:0.048143674 654:0.035135381 656:0.03319009 709:0.029321775 712:0.061751015 729:0.036189552 749:0.078279138 772:0.031152569 776:0.041928239 780:0.034111556 793:0.040352374 794:0.039274249 819:0.033769131 856:0.025234155 872:0.038370341 909:0.029602773 965:0.033584248 989:0.040662501 1009:0.029966503 1013:0.041660815 1021:0.03599735 1033:0.040276442 1045:0.017466258 1060:0.1020746 1074:0.043941721 1121:0.044169519 1126:0.035855781 1128:0.65733325 1141:0.044764914 1154:0.045668826 1162:0.039006829 1190:0.036385845 1242:0.042681754 1243:0.044764914 1305:0.030580053 1335:0.072282247 1373:0.039006829 1389:0.042880159 1433:0.032416653 1439:0.039619811 1457:0.044522125 1502:0.14443102 1744:0.046228115 1782:0.041400928 1880:0.093957126 1942:0.043610234 2040:0.045805503 2106:0.091337651 2160:0.1041268 2246:0.042584129 2301:0.059612662 2444:0.047626227 2564:0.15384997 2674:0.049684819 2768:0.05453825 2825:0.045401406 3924:0.057930667 3994:0.061671253 4440:0.064325243 4471:0.066643722 4781:0.30466413 5151:0.057930667 6288:0.07446041 #
0.66361900925501649 6:0.025703711 12:0.17327428 27:0.037421521 28:0.09490446 29:0.093350865 31:0.048984393 63:0.027779263 75:0.026046468 80:0.083679706 108:0.3569096 110:0.24806508 142:0.013330693 144:0.22922091 158:0.092244782 185:0.14967893 317:0.076599844 346:0.32122254 367:0.10969335 408:0.075677253 425:0.18470857 565:0.13669851 641:0.40677211 674:0.17018086 856:0.09645474 946:0.18269297 977:0.1767018 993:0.14123049 1018:0.13946205 1198:0.15309557 1232:0.14551006 1315:0.19602478 1389:0.16390461 1755:0.19900654 1936:0.1730416 #
1.000000001021051 6:0.036053032 11:0.048603099 15:0.037056282 18:0.038598172 25:0.027058238 27:0.041991111 28:0.026623342 29:0.026187515 37:0.051175211 42:0.021570103 53:0.11106288 56:0.066569127 59:0.022387015 63:0.023378568 64:0.062539436 68:0.088531405 75:0.021920277 79:0.097797707 80:0.023474485 83:0.018683136 92:0.047600649 96:0.022337627 97:0.022496544 142:0.013088706 144:0.042868562 160:0.26142269 174:0.052855492 176:0.018687867 178:0.029096402 179:0.039306421 185:0.020994551 186:0.020458797 189:0.026979161 199:0.016852545 203:0.027331924 204:0.021643313 208:0.081032149 209:0.022647882 215:0.022968182 216:0.031367421 226:0.027955133 239:0.030566176 262:0.033741914 283:0.027026532 286:0.080805689 293:0.034123659 306:0.028291097 323:0.030841619 327:0.030320255 330:0.10756841 331:0.028183766 337:0.1378157 341:0.030123495 346:0.12014915 347:0.05923434 359:0.040141378 364:0.033404469 373:0.025737306 377:0.027748678 387:0.076349273 396:0.036619004 399:0.067989536 409:0.018412409 455:0.026324006 465:0.030657141 466:0.033314403 478:0.028273128 505:0.077801265 507:0.01927737 521:0.035551738 535:0.03418874 586:0.026502518 625:0.040081967 626:0.068053663 655:0.02729933 667:0.034725402 671:0.022017712 686:0.04263597 695:0.10676783 696:0.039790135 702:0.085895129 712:0.033107381 719:0.038805559 733:0.040692795 754:0.043945953 792:0.039562717 793:0.043269295 796:0.031691786 804:0.033962805 827:0.030795176 890:0.037862722 986:0.064478651 1009:0.12853068 1033:0.043187875 1101:0.046419531 1143:0.042790543 1162:0.041826483 1175:0.038199719 1189:0.049116608 1194:0.055261441 1195:0.048542984 1250:0.048683301 1272:0.13667637 1308:0.042113237 1338:0.091117583 1373:0.041826483 1377:0.03438659 1411:0.045662377 1469:0.3673766 1489:0.084519587 1499:0.054990403 1547:0.048404627 1561:0.048000801 1639:0.097366601 1651:0.098832794 1665:0.23314656 1688:0.048542984 1802:0.10747308 1806:0.049569771 1808:0.10875092 1809:0.056426585 1816:0.039619084 1863:0.043434169 1890:0.11938687 1897:0.096267171 1949:0.13458769 1954:0.051068947 1969:0.04926537 2056:0.046998195 2058:0.053974919 2154:0.04926537 2229:0.15375139 2575:0.050208203 2593:0.11285317 2779:0.054219186 2858:0.32531512 3101:0.054990403 3349:0.054990403 3401:0.10893928 3624:0.062683687 3739:0.055540118 3779:0.062683687 3904:0.061583411 4781:0.065337434 5056:0.062683687 5217:0.063921839 5406:0.13067487 5482:0.062683687 5494:0.064604335 5589:0.074789636 5740:0.064604335 5774:0.072986051 5893:0.07014022 6539:0.072986051 6978:0.07014022 7075:0.079842873 7163:0.079842873 7835:0.25156155 8275:0.079842873 #
-0.41716813787494872 6:0.029790653 29:0.027048461 31:0.028386503 39:0.1496025 75:0.030187909 108:0.20682946 142:0.028969312 194:0.059007458 231:0.23952761 243:0.070224769 260:0.093901411 316:0.50731373 317:0.044389684 350:0.21741578 457:0.051355362 511:0.096600056 537:0.16658966 634:0.083674438 668:0.21488692 724:0.17429267 745:0.10116 893:0.11721214 977:0.10239887 1132:0.23064898 1225:0.066432998 1335:0.1601108 2217:0.13204668 2220:0.27676943 2347:0.13838471 2359:0.13345656 2620:0.2699419 2948:0.13204668 3754:0.29524207 #
-1.000000001021051 6:0.014909023 12:0.15075743 15:0.02553983 27:0.043411501 28:0.11009561 42:0.04459947 63:0.016112914 74:0.061110824 75:0.015107834 86:0.057909612 108:0.41403931 142:0.007732254 158:0.0535051 172:0.11691798 173:0.055718482 174:0.054643381 185:0.13022828 198:0.064907722 231:0.079915956 256:0.050730214 260:0.093987763 316:0.10155606 345:0.054705083 350:0.10880785 367:0.063625857 404:0.062600628 462:0.091602094 499:0.055524606 565:0.079289772 827:0.063673705 884:0.076960757 916:0.090328999 1069:0.11868402 1273:0.10008392 1315:0.11370102 1755:0.11543053 2152:0.12014563 2528:0.085764863 3277:0.14261645 4882:0.15090975 6460:0.69352233 6529:0.16508727 6530:0.16508727 #
-1.000000001021051 6:0.033503726 12:0.15057057 18:0.059781503 27:0.032518271 29:0.081119336 31:0.042566087 39:0.11216587 42:0.066816285 57:0.083377011 75:0.022633664 108:0.10338154 110:0.10778087 142:0.023168011 180:0.17212182 185:0.065033436 215:0.071147017 283:0.0837183 284:0.067821056 316:0.30429056 350:0.16300949 367:0.0953205 404:0.093784556 423:0.08461377 537:0.12490214 561:0.098965511 668:0.16111347 888:0.16719455 987:0.091175087 1190:0.12085742 1335:0.12004457 1410:0.15403157 1954:0.1581929 2620:0.20239145 2948:0.19800645 3277:0.21365952 4535:0.20484418 6584:0.51949704 7674:0.24732399 8201:0.23850863 #
-1.000000001021051 6:0.023371298 18:0.041701969 29:0.056586664 42:0.093218483 57:0.058161557 63:0.016839005 68:0.04782524 73:0.16930892 75:0.015788635 83:0.080742009 92:0.051428363 110:0.075185031 117:0.4021441 131:0.20687652 140:0.055050902 142:0.022221899 173:0.058229309 179:0.042467169 202:0.096733667 218:0.044190299 237:0.066947296 239:0.06604819 254:0.075185031 301:0.070611119 351:0.055286124 405:0.074088611 408:0.045873418 437:0.070072964 455:0.056881595 465:0.1324895 500:0.080621392 508:0.060443778 534:0.059379369 592:0.076740302 684:0.14582081 697:0.083517194 719:0.08385206 733:0.26379013 742:0.07995484 780:0.079037294 782:0.088762969 881:0.088762969 884:0.080428824 890:0.16362952 930:0.13641627 1086:0.098223113 1128:0.35147467 1264:0.12898713 1424:0.07244353 1469:0.088204101 2114:0.11155005 2161:0.10343826 2248:0.10234184 2682:0.11464055 2913:0.11464055 4595:0.146791 5178:0.13422675 5752:0.36238715 6146:0.1663772 7554:0.17252655 #
-0.54376607690175349 6:0.012583463 15:0.021556042 29:0.022850344 73:0.27347553 117:0.12991232 131:0.16707823 142:0.019578453 172:0.049340356 180:0.048484653 181:0.053106621 202:0.15624864 218:0.035689101 260:0.15865447 295:0.053421222 301:0.057027161 311:0.16124056 316:0.51428998 360:0.077472799 409:0.032132097 434:0.05444302 457:0.043384638 507:0.033641566 631:0.042226166 724:0.073620588 730:0.060480546 775:0.52086478 1045:0.032684289 1132:0.097425289 1225:0.056122113 1226:0.099586032 1548:0.069239482 1626:0.090425603 2044:0.23710355 3680:0.13437004 3885:0.11274313 5749:0.29267219 6245:0.13933639 #
0.73415561903069193 6:0.024318179 7:0.021571852 15:0.023804652 16:0.11469326 20:0.019596789 26:0.060146164 27:0.010115529 28:0.05130785 29:0.012616984 40:0.04341276 41:0.01599662 63:0.052563701 75:0.070407033 81:0.063455604 83:0.0090014199 96:0.021524264 100:0.021467468 114:0.024393912 134:0.049761638 142:0.023422502 144:0.02065381 159:0.020899586 166:0.025921198 171:0.030037891 174:0.025465451 176:0.054022193 180:0.053542309 183:0.15281144 189:0.025996789 192:0.028055755 204:0.041710462 215:0.022131858 218:0.059117991 219:0.02904751 228:0.052547988 229:0.054579023 238:0.10277165 240:0.031274348 255:0.097003683 262:0.065026589 265:0.06563767 298:0.10331844 313:0.039394982 317:0.062117837 320:0.065950722 322:0.030107724 327:0.029216224 346:0.028943561 363:0.032453343 386:0.055336285 388:0.036125999 402:0.079438001 408:0.040913116 422:0.031678885 455:0.025365489 457:0.023955144 472:0.031651374 473:0.030586824 478:0.054487277 496:0.029131494 507:0.037150871 508:0.053907979 550:0.02830385 557:0.032695442 574:0.026011979 580:0.031434108 586:0.17876251 597:0.062130835 608:0.075815871 610:0.13418788 643:0.02826526 655:0.052610595 658:0.032130189 731:0.040034961 737:0.040936846 767:0.066462539 796:0.030537816 856:0.026072985 930:0.030416386 1000:0.042178549 1017:0.040936846 1314:0.040509965 1358:0.046510622 1359:0.11569674 1380:0.10734273 1544:0.091038771 1634:0.18120369 1711:0.050507035 1880:0.048540216 1917:0.043229014 1979:0.051336434 2017:0.052244939 2107:0.044515077 2886:0.06455072 3416:0.054987151 3666:0.099488117 3676:0.72481477 3944:0.060401231 5119:0.066463538 6231:0.18478289 6524:0.14838679 7126:0.076935612 7127:0.076935612 7247:0.068859085 7703:0.20275876 8226:0.076935612 #
-0.36802970623480608 6:0.039615944 11:0.1424167 18:0.12723783 37:0.037488375 40:0.049505606 58:0.053149369 68:0.048640225 79:0.053731248 83:0.020529483 85:0.048555553 92:0.1046095 94:0.047564395 138:0.066440016 141:0.072375864 142:0.0020545982 144:0.094210029 154:0.057275414 157:0.080293015 168:0.058845282 185:0.13841593 203:0.12013192 204:0.09512879 208:0.059360061 218:0.044943344 237:0.068088137 257:0.096008129 275:0.053280253 286:0.088791251 287:0.22063275 291:0.06377282 309:0.17492789 357:0.073345102 399:0.074708551 414:0.058542166 427:0.084165879 430:0.12333203 432:0.074428931 459:0.072375864 466:0.073213346 534:0.060391251 574:0.05932536 638:0.096771002 644:0.075496569 661:0.10578071 673:0.080111846 709:0.069097005 721:0.10491676 772:0.073411286 890:0.083208956 909:0.069759183 973:0.32480389 991:0.084165879 1160:0.2006997 1308:0.092550099 1342:0.11345097 1459:0.12084958 1507:0.10859988 1836:0.084494442 2030:0.12205765 2092:0.11145509 2699:0.12084958 3546:0.11474282 8324:0.59805048 #
0.10017820454132577 6:0.01927587 26:0.16686256 28:0.14234257 29:0.070006207 67:0.21807247 111:0.12054684 132:0.11690861 134:0.13805294 185:0.11224806 256:0.13117816 314:0.15382053 322:0.16705477 439:0.4155086 647:0.17411718 799:0.1944624 895:0.40089521 1431:0.22515981 1731:0.47869629 3170:0.29848018 #
0.14870321353279811 63:0.060142249 75:0.05639074 111:0.17400695 142:0.0072152549 144:0.16542149 183:0.24478096 209:0.1747876 610:0.358248 2886:0.51700276 2999:0.46408451 3676:0.48376843 #
0.51408082094009333 6:0.011643667 26:0.025198501 27:0.016951783 31:0.022189712 67:0.03293189 87:0.16270909 88:0.088910013 97:0.036327358 134:0.041695714 142:0.0030193725 146:0.10455582 153:0.050494254 204:0.034949563 215:0.037088957 218:0.033023655 226:0.045141876 232:0.10335008 277:0.052722894 308:0.043015856 312:0.052768085 322:0.10091011 372:0.057469472 389:0.099232256 457:0.040144455 597:0.052059975 663:0.10897271 784:0.22867453 880:0.13696243 883:0.067887314 909:0.051257942 1005:0.12274315 1045:0.030243261 1192:0.072443947 1201:0.074248061 1322:0.06540826 1904:0.56941187 2025:0.182235 2246:0.073735483 2421:0.37300214 3369:0.095060855 3727:0.10322081 4124:0.10969773 4379:0.46158108 4416:0.11138076 5241:0.1207701 #
-1.000000001021051 6:0.01858923 10:0.02613185 13:0.020591281 14:0.06286525 17:0.067529872 21:0.018742384 26:0.013409886 28:0.022878679 33:0.034288917 38:0.025241936 41:0.014266103 51:0.021042036 57:0.023130478 58:0.083131999 59:0.057714615 65:0.022165159 72:0.01928086 81:0.018863656 91:0.049512073 96:0.057587292 97:0.019332329 98:0.060291216 101:0.030112006 110:0.029900605 111:0.019375458 112:0.034495357 118:0.020287469 124:0.035822865 140:0.021893391 142:0.0016068193 158:0.066712528 166:0.023117037 176:0.016059354 177:0.032336228 179:0.050666761 183:0.027256055 185:0.018041596 196:0.028810326 199:0.057928711 208:0.023211569 216:0.026955487 220:0.049708631 222:0.03951259 242:0.021709332 252:0.022359475 266:0.031504363 271:0.27354816 277:0.028057542 279:0.035078201 280:0.032456242 290:0.032217883 291:0.02493709 301:0.028081588 319:0.028105706 322:0.080551997 323:0.053007282 327:0.026055608 333:0.031255886 341:0.025886524 342:0.028942535 380:0.038071182 384:0.03357413 394:0.028862962 399:0.087639861 400:0.13649938 403:0.035882942 404:0.026017742 411:0.023211569 413:0.053576775 414:0.045783494 423:0.023473579 439:0.033392288 441:0.021847 459:0.028301137 471:0.16148297 478:0.024296416 484:0.13697235 499:0.023076843 507:0.049697824 523:0.03631581 525:0.049934294 550:0.050483871 580:0.028033562 581:0.046383165 594:0.029665271 598:0.065486096 599:0.11619922 641:0.024515202 651:0.080171801 653:0.031649683 656:0.030583527 671:0.018920846 676:0.061961055 699:0.046178315 714:0.032062612 715:0.038228609 722:0.079588823 724:0.036252607 757:0.029436275 764:0.028654341 786:0.1471159 796:0.02723423 827:0.079391189 849:0.038719181 854:0.037253868 870:0.15280667 876:0.029900605 882:0.023266062 890:0.032537203 913:0.032336228 998:0.034292948 1021:0.033170316 1063:0.045404971 1088:0.079588823 1098:0.034755345 1160:0.039239809 1192:0.038552493 1193:0.037764806 1214:0.045043174 1218:0.037689909 1239:0.041479096 1280:0.12242287 1292:0.037183322 1308:0.036189869 1318:0.041025609 1328:0.046178315 1333:0.044041913 1395:0.03308313 1431:0.036189869 1438:0.042867508 1446:0.032336228 1449:0.039699428 1543:0.043434445 1682:0.043434445 1747:0.046593074 1791:0.043434445 1811:0.049934294 1873:0.082051218 1969:0.084672056 2187:0.086578257 2240:0.04208225 2363:0.052921496 2403:0.046593074 2424:0.043434445 2440:0.05438238 2528:0.035645142 2537:0.046593074 2561:0.046178315 2577:0.04452781 2609:0.062720321 2640:0.042867508 2644:0.050588533 2673:0.56827939 2695:0.10335047 2701:0.10773403 2767:0.097519778 2845:0.050935555 2923:0.053867016 3085:0.056147501 3518:0.047974631 3576:0.099250272 3611:0.091565698 3636:0.053867016 3645:0.052485455 3672:0.060274761 3732:0.12854044 3782:0.11854699 3845:0.061409898 3944:0.053867016 3986:0.058377836 4101:0.064270221 4148:0.052485455 4165:0.056147501 4166:0.15745637 4519:0.059273496 4629:0.068612702 4798:0.060274761 4831:0.062720321 5031:0.064270221 5079:0.058377836 5107:0.055517517 5176:0.052921496 5398:0.064270221 5629:0.062720321 5775:0.068612702 5789:0.062720321 5942:0.061409898 6438:0.057567615 6808:0.068612702 8486:0.068612702 #
-0.58808260675450541 6:0.0088935401 10:0.075012676 12:0.11990655 41:0.040951505 91:0.071063347 111:0.055618145 119:0.093051761 132:0.053939529 183:0.15647952 212:0.1006936 215:0.056657776 226:0.068959557 227:0.18964794 235:0.53999692 252:0.064183898 276:0.069088556 277:0.24162139 286:0.049832746 325:0.079860695 355:0.053525921 393:0.27838555 400:0.23509663 471:0.18541773 484:0.19659272 515:0.06425453 731:0.10248989 964:0.1065356 967:0.11395904 1061:0.11535383 1232:0.1006936 1525:0.12468057 2383:0.14159493 2868:0.14159493 2961:0.15191358 3135:0.14947133 3302:0.16312721 3672:0.17302148 4276:0.15191358 4321:0.14725141 4629:0.19695592 #
-0.36134983705265639 4:0.029767744 6:0.029821586 26:0.029786779 27:0.02671794 29:0.024993734 30:0.068943396 32:0.017196337 33:0.012694073 40:0.028666308 47:0.010857532 48:0.014033669 57:0.017126232 60:0.017411457 63:0.059500895 64:0.079584695 75:0.074385859 77:0.017297858 81:0.013966999 83:0.023775266 109:0.12622373 132:0.01391297 137:0.018779606 142:0.024389233 144:0.013638121 154:0.016582714 159:0.013800411 162:0.024848282 168:0.017037231 173:0.034292366 176:0.023781285 179:0.012504868 181:0.019362696 185:0.040074993 189:0.017166195 190:0.019668372 199:0.010722872 204:0.013771122 209:0.014410306 218:0.026024522 225:0.02185821 227:0.032611411 228:0.052047718 229:0.012013204 286:0.038561046 291:0.018463882 299:0.018990312 308:0.084747359 317:0.013672546 320:0.021774285 337:0.087688833 345:0.03366866 347:0.018844698 355:0.013806286 363:0.021429587 396:0.023299798 402:0.017484829 405:0.021816107 408:0.013507871 414:0.016949471 418:0.023683043 423:0.017380271 442:0.019520959 457:0.015818058 472:0.041800059 478:0.017989514 483:0.022272885 505:0.033002056 506:0.012833508 507:0.024531458 509:0.021292962 513:0.034332391 521:0.022620721 557:0.021589449 560:0.027326509 574:0.017176228 586:0.067451678 598:0.048487112 622:0.025317512 625:0.025503196 631:0.015395678 657:0.023825776 686:0.1627695 689:0.11467358 693:0.027276356 724:0.026842099 767:0.021943267 778:0.043843791 806:0.024625141 814:0.025465619 836:0.026013289 850:0.042056601 882:0.017226622 883:0.026749535 944:0.050203379 966:0.022913529 986:0.020513112 987:0.018728014 1009:0.14311674 1010:0.025541 1058:0.051466998 1081:0.025503196 1089:0.18728341 1102:0.027479414 1175:0.024305569 1190:0.024824975 1248:0.029535638 1335:0.024658009 1363:0.025972549 1424:0.021331698 1426:0.027226599 1504:0.03205207 1545:0.02932464 1649:0.026054293 1665:0.024724266 1707:0.026221037 1746:0.026795646 1781:0.029120484 1844:0.029828446 1858:0.029535638 1865:0.027226599 1939:0.031442475 2571:0.030541763 2642:0.031842243 2736:0.11992049 2804:0.11992049 3264:0.039184052 3333:0.041572645 3540:0.038554102 3785:0.078368105 4606:0.039184052 4662:0.089257091 4663:0.089257091 4859:0.043224029 4985:0.043224029 5056:0.039884131 5295:0.048991371 5302:0.65769911 5324:0.087774381 5355:0.044628546 5621:0.084152907 5702:0.048991371 6414:0.043887191 6823:0.046439283 7548:0.046439283 7549:0.46439281 8254:0.048991371 8273:0.048991371 9042:0.050802112 9754:0.17315109 #
-0.26508889176615674 6:0.017581049 11:0.15800679 29:0.063850947 51:0.05970249 63:0.095003515 82:0.26374111 83:0.068330415 92:0.1160609 114:0.37035182 120:0.21971262 142:0.084341913 157:0.089082532 162:0.047609519 234:0.06306006 286:0.049255528 296:0.07926926 304:0.26624718 309:0.064692304 314:0.070147969 317:0.10478687 328:0.17836733 346:0.14647508 375:0.06231682 386:0.21003082 457:0.060615066 489:0.10015786 490:0.09097112 510:0.079471663 518:0.15332183 521:0.17336597 535:0.083359696 628:0.095521919 866:0.098313428 1005:0.1853328 1245:0.085962944 1266:0.47902855 1269:0.089799516 1726:0.11870064 1980:0.1091518 2223:0.22318038 #
-0.19517108703080743 51:0.32015091 63:0.1018901 75:0.095534474 85:0.28887904 111:0.2947942 122:0.5073753 142:0.024447476 304:0.3569335 356:0.4495981 586:0.34651536 #
0.67538397960025287 6:0.023666106 15:0.027027406 17:0.042986427 28:0.11650816 29:0.057300456 31:0.060135014 57:0.058895215 60:0.059876069 63:0.017051416 73:0.085722297 75:0.03197559 83:0.040880252 117:0.40721679 142:0.0081826216 144:0.046899986 158:0.056621518 159:0.047458086 172:0.061863948 199:0.036874767 297:0.30825818 337:0.060310435 340:0.090316996 351:0.05598351 360:0.19427395 365:0.083584152 425:0.11337746 436:0.069679849 451:0.089597821 457:0.054396547 533:0.098802812 565:0.083908029 574:0.059067138 850:0.072313994 876:0.076133423 963:0.06693092 998:0.08731728 1076:0.10812718 1331:0.089177519 1479:0.12415326 1482:0.18691897 2239:0.12796044 2679:0.11337746 2718:0.61389047 4160:0.1359199 5731:0.1684759 7095:0.17470282 #
1.000000001021051 6:0.03196948 15:0.018255055 18:0.057043914 26:0.023062121 27:0.046543732 29:0.019351155 31:0.040616848 42:0.063756548 57:0.039779454 63:0.011516997 64:0.046213251 65:0.038119312 73:0.11579841 75:0.010798598 80:0.034692746 110:0.051422615 117:0.27504545 131:0.14149268 140:0.03765193 142:0.022107072 145:0.044712476 158:0.038243737 173:0.039825793 174:0.039057344 179:0.058090631 185:0.093083009 202:0.19848225 208:0.039918911 242:0.037335388 263:0.22888315 272:0.2515696 301:0.096588604 317:0.031757507 329:0.28614715 345:0.039101444 360:0.065608993 375:0.037772421 387:0.037611984 437:0.047926232 500:0.055140804 507:0.056979723 508:0.082680747 515:0.038495809 592:0.052486338 684:0.099733785 730:0.051218852 733:0.12027908 761:0.054180738 780:0.054057363 799:0.05375341 804:0.050193343 813:0.074447997 821:0.093526006 856:0.039989144 873:0.061607637 890:0.055957001 893:0.083856538 897:0.088870302 987:0.043499943 1059:0.04884287 1073:0.071335137 1128:0.16026016 1190:0.057661481 1229:0.060139541 1305:0.048460908 1509:0.067330956 1548:0.05863649 1609:0.074447997 1635:0.16678476 1867:0.088870302 2059:0.20731927 2097:0.22758654 2128:0.11799911 2129:0.11799911 2130:0.47199643 2387:0.072372429 3926:0.22106194 #
0.22683486927314869 60:0.18034519 67:0.13440447 153:0.20608151 198:0.20688738 203:0.18012966 2264:0.32273468 2691:0.39630461 2798:0.40586236 2833:0.3589794 6735:0.52620041 #
0.82945316195547536 6:0.013090198 11:0.11764599 25:0.049121764 29:0.023770524 67:0.037023127 98:0.084911957 114:0.045958374 142:0.0033944789 153:0.056767322 179:0.035678614 372:0.064609095 409:0.03342605 429:0.074693158 508:0.050781585 571:0.051656209 671:0.03997115 772:0.12128554 869:0.08762648 880:0.076988861 1048:0.08890067 1135:0.08890067 1236:0.072131261 1330:0.086436734 1422:0.08890067 1457:0.086668462 1599:0.15861864 2216:0.35666692 2296:0.095533848 2461:0.11179907 3191:0.11277004 4311:0.11488525 4683:0.12005161 5100:0.62608981 5357:0.11087792 6263:0.12332584 9147:0.49403086 #
0.41052596222383247 6:0.028442409 15:0.013920894 26:0.035173308 27:0.023662135 28:0.030004689 29:0.02951351 31:0.046460241 33:0.044968866 63:0.017565204 88:0.031026246 96:0.025174659 118:0.026606396 134:0.029100468 142:0.0094828252 172:0.03186401 176:0.06318406 192:0.065627709 229:0.021278441 244:0.059792269 252:0.029323768 255:0.075636648 265:0.038384728 275:0.027323391 284:0.049350437 317:0.024217559 344:0.061974563 345:0.029817883 373:0.087018363 388:0.042252768 413:0.035132151 414:0.030021828 423:0.030784883 445:0.063593149 475:0.03292457 502:0.028046502 506:0.022731408 530:0.033401955 550:0.033104029 586:0.029868519 593:0.039135765 643:0.066117786 655:0.030766532 952:0.037852895 987:0.033172078 1379:0.042886987 1407:0.049527392 1924:0.056041043 2340:0.16920213 2528:0.046747513 2722:0.056041043 3119:0.065908052 3793:0.068289123 4332:0.15547076 4649:0.073635735 5946:0.080537207 6404:0.084288426 9102:0.51115769 9627:0.75603092 #
-0.61778835206935179 6:0.0055299178 41:0.025463251 50:0.052489832 59:0.034337848 72:0.10324194 98:0.071741633 117:0.1141823 132:0.067078158 140:0.039077029 142:0.007169941 144:0.032876518 196:0.20569165 199:0.02584892 218:0.031367797 224:0.05259065 242:0.038748506 243:0.052142151 295:0.046952885 331:0.04322907 355:0.033281904 360:0.47664577 379:0.27016178 387:0.039035574 398:0.04301231 411:0.082859628 424:0.056955677 433:0.044718947 448:0.050079286 465:0.047022805 478:0.043366138 514:0.058742806 589:0.26412708 640:0.051611401 644:0.052692141 645:0.070361108 657:0.057435226 658:0.102289 692:0.077265806 722:0.071028166 819:0.055540208 844:0.060596466 865:0.08206562 888:0.082788281 909:0.048687786 1003:0.11688468 1019:0.079476707 1101:0.071199618 1114:0.067676522 1296:0.056295872 1581:0.078893051 1678:0.093680128 1714:0.08518903 1841:0.21159191 1965:0.10275116 2070:0.10143093 2095:0.08206562 2100:0.10758309 2177:0.22389622 2256:0.083941221 2319:0.090294354 2352:0.20043287 2417:0.094458409 2568:0.10419731 2609:0.22389622 2640:0.076513268 2774:0.089126617 2792:0.08476159 2919:0.1147145 3078:0.10758309 3841:0.12246529 3981:0.099091992 4219:0.10419731 4417:0.11194811 4781:0.10021643 5012:0.12861745 6475:0.12246529 #
-0.65453680462827812 6:0.0099607985 23:0.071650259 75:0.020187249 83:0.025809059 92:0.065755986 142:0.00774894 156:0.1382644 183:0.087628826 263:0.14262719 293:0.094277479 294:0.09518858 295:0.16914836 325:0.17888856 355:0.059949234 424:0.20518352 882:0.074800909 952:0.092795074 1120:0.48161963 1159:0.10128724 1383:0.14481482 1458:0.53547019 2574:0.18508117 3746:0.21272884 3822:0.18270309 4178:0.37537211 #
-0.35932542832732212 6:0.016994499 17:0.030868314 38:0.046152968 42:0.033892032 48:0.034655403 58:0.03800014 78:0.087040126 91:0.045264538 96:0.035098001 98:0.036745973 100:0.035005391 111:0.070853114 135:0.05161152 164:0.066170432 186:0.032145888 199:0.026479565 215:0.036088761 275:0.076187439 293:0.053616807 295:0.048098411 349:0.056157876 371:0.079150893 376:0.14449155 383:0.13571791 398:0.044061698 402:0.043177862 424:0.11669049 478:0.044424158 493:0.05057203 502:0.07820373 514:0.060175978 515:0.040927593 537:0.063355617 603:0.060649414 657:0.058836494 660:0.072936699 729:0.12194648 767:0.054187741 800:0.049955968 827:0.096773855 865:0.084067807 876:0.05467099 882:0.04254023 932:0.07694421 1025:0.20715027 1039:0.082685269 1068:0.2670106 1184:0.074613646 1205:0.15675998 1237:0.13893664 1245:0.055396661 1281:0.073294036 1319:0.059792176 1331:0.064037882 1377:0.054029938 1446:0.059124343 1620:0.0685094 1787:0.081415728 1899:0.081415728 2993:0.10266145 3204:0.11228335 3382:0.1004372 3775:0.10390558 4231:0.60490805 4355:0.10673945 4359:0.11228335 5297:0.098491758 5359:0.26351076 5360:0.26351076 5619:0.11751322 #
-0.87470058850444321 10:0.025289584 16:0.19797783 22:0.095924839 52:0.024445057 57:0.022384951 63:0.03240459 67:0.016960496 70:0.034496248 75:0.018229969 83:0.0077689029 86:0.069877021 98:0.058347944 109:0.098988913 115:0.040370706 133:0.04325553 142:0.032655615 154:0.065023623 171:0.15554976 181:0.050616268 200:0.028965784 218:0.017007757 225:0.028569911 232:0.079840638 239:0.050840642 289:0.026086673 317:0.035741579 331:0.023438992 351:0.063834801 354:0.044689924 377:0.023077153 413:0.02592496 425:0.81875974 453:0.029082479 457:0.020675093 458:0.031567588 474:0.080741413 515:0.02166261 531:0.033737969 541:0.092754789 558:0.033284999 571:0.02366399 574:0.022450296 599:0.056226976 632:0.047458049 655:0.022703452 660:0.23162846 689:0.074942417 711:0.16301337 727:0.032101192 903:0.033383526 1049:0.047458049 1072:0.11666404 1136:0.053728111 1148:0.054337792 1161:0.053728111 1267:0.040255643 1269:0.03062957 1408:0.12139751 1433:0.028908052 1451:0.05649624 1781:0.038062114 1817:0.04262238 1924:0.041354194 1948:0.045091316 2056:0.039085988 2161:0.039810836 2358:0.05121576 2584:0.066401221 2589:0.04863533 2722:0.041354194 3287:0.10158756 4004:0.049293831 4559:0.058332022 5556:0.062198702 #
-0.38639971567500753 6:0.021627393 11:0.07288973 12:0.18224366 29:0.019636618 39:0.1086083 55:0.054304149 57:0.04036627 59:0.03357365 63:0.011686892 65:0.038681641 69:0.054854807 75:0.021915792 97:0.033737909 98:0.035072505 105:0.11487094 106:0.037846483 138:0.045339204 140:0.038207363 142:0.0084124468 144:0.064289689 174:0.079267018 214:0.046322942 229:0.028314941 278:0.046677873 291:0.043519087 296:0.09751337 297:0.26409686 310:0.16647485 375:0.1149889 381:0.051974423 413:0.04674989 427:0.057435472 430:0.04208139 478:0.042401016 541:0.11150839 588:0.59287548 613:0.10001254 618:0.15483971 726:0.049827527 761:0.054979999 867:0.047527954 882:0.08120577 1045:0.028087495 1215:0.063376717 1258:0.55413729 1476:0.069615051 2146:0.083293132 2157:0.087143086 2824:0.078919657 3715:0.097986095 4327:0.093158327 #
1.000000001021051 6:0.01282695 11:0.096066751 26:0.037012383 27:0.012449668 29:0.015528327 52:0.069717452 63:0.027725428 72:0.079825133 75:0.017330661 84:0.025093589 88:0.06529697 97:0.053358812 118:0.02799754 142:0.0066524297 151:0.10129988 176:0.022162568 185:0.024898143 218:0.024253115 237:0.036742914 242:0.029959768 304:0.064750381 309:0.031465884 310:0.043881893 317:0.0254838 328:0.086756624 337:0.032688055 341:0.035724465 357:0.039579771 377:0.032908089 480:0.031448044 493:0.038170286 501:0.044461999 558:0.047464509 561:0.037889089 628:0.046461198 643:0.034787409 655:0.03237519 717:0.043329123 913:0.04462532 936:0.050030086 1005:0.045072291 1026:0.059158921 1066:0.056925766 1266:0.11649808 1319:0.045129381 1359:0.094929017 1535:0.063451916 2024:0.041640509 2402:0.058971211 2723:0.055736739 2873:0.061682522 3141:0.074338689 4292:0.073033832 5631:0.088695541 5817:0.075807057 7361:0.080563813 9208:0.75303781 9387:0.29833531 9388:0.29833531 9632:0.29833531 #
0.37778716483591324 6:0.019518688 15:0.10030919 26:0.042241134 29:0.035444036 75:0.019778969 134:0.069895998 142:0.0025307401 159:0.05871179 174:0.071538366 240:0.17571381 322:0.084579587 365:0.10340441 373:0.13933876 411:0.21934929 430:0.075956777 582:0.082315318 643:0.15880735 644:0.092992485 1064:0.27127185 1155:0.11360715 1195:0.13140301 1245:0.19087414 1296:0.099352442 1313:0.38263786 1407:0.11895913 1786:0.26131827 2768:0.15830362 2866:0.13376731 3540:0.32804534 4235:0.38688231 6186:0.19344115 8702:0.21612999 8897:0.21612999 #
1.000000001021051 4:0.057563603 6:0.013307935 15:0.045594186 29:0.096663654 63:0.057530154 75:0.053941581 83:0.10344511 111:0.083224751 142:0.010352824 218:0.075487673 228:0.10064767 234:0.095466338 339:0.10351059 363:0.12431888 472:0.12124678 505:0.095726967 506:0.074450679 513:0.099585786 518:0.11605661 592:0.39327276 716:0.1274233 850:0.12199091 912:0.12656119 2624:0.33787176 2887:0.68195212 7542:0.27606434 #
0.25142036759407432 6:0.041078601 15:0.070369504 26:0.088899761 29:0.14918947 63:0.022197831 75:0.020813191 81:0.062527545 96:0.06362839 134:0.14710157 142:0.0053261397 176:0.0532321 178:0.33152261 199:0.048004217 204:0.061650645 215:0.065424517 240:0.18490171 256:0.069888085 279:0.11627407 294:0.098140076 373:0.29324928 387:0.072493248 411:0.076939613 457:0.070814379 574:0.076894641 582:0.086619504 643:0.083555609 644:0.097854964 645:0.13066813 693:0.12211096 872:0.11719802 1155:0.11954755 1192:0.12779033 1294:0.23328003 1296:0.10454748 1380:0.1057728 2163:0.12977351 2866:0.14076185 3051:0.15444252 3930:0.17855352 5222:0.18026181 6455:0.20789966 6638:0.3929489 7443:0.19979334 7963:0.21932487 8280:0.22743119 #
0.43374807764931844 6:0.023088489 28:0.17049682 29:0.083852887 31:0.088000953 57:0.08618664 59:0.071683615 63:0.09981145 75:0.046792742 96:0.071525477 142:0.020955134 173:0.086287037 174:0.084622115 176:0.05983888 187:0.10764502 304:0.2622388 413:0.099816404 480:0.084909633 505:0.24912103 513:0.17277551 527:0.11010648 539:0.10725275 561:0.10230044 633:0.24009457 653:0.11793011 750:0.13347985 931:0.20467885 1179:0.14395975 1313:0.15087301 3360:0.32368281 3502:0.39113286 3972:0.19890377 4900:0.40526915 5402:0.21752208 #
-0.74356091661197143 1:0.16355163 3:0.097612828 4:0.16564798 7:0.11889765 15:0.065602086 20:0.21602339 21:0.11583333 27:0.055753797 30:0.11509439 31:0.072981156 47:0.090628043 63:0.082775868 75:0.2328376 83:0.049613155 110:0.18479435 142:0.069514245 165:0.18591222 172:0.15015885 227:0.13610406 256:0.13030659 346:0.15952832 825:0.24774241 862:0.1842442 1595:0.23981847 2303:0.26578784 4720:0.32707009 6598:0.35578442 8752:0.38762963 #
-1.000000001021051 6:0.024983713 11:0.037422832 31:0.031741511 41:0.038346957 60:0.06320966 63:0.054002251 75:0.033755824 96:0.051597778 142:0.0064786407 161:0.081271552 169:0.060703997 179:0.045397032 180:0.064175583 189:0.12463856 227:0.059195399 229:0.17444849 255:0.077512138 286:0.046663348 346:0.069383256 386:0.066325836 399:0.078524657 405:0.079200082 490:0.08618357 502:0.057483885 513:0.18695784 530:0.068460375 571:0.065726727 574:0.062355693 607:0.081692383 631:0.055891681 737:0.09813346 781:0.180493 852:0.24793926 853:0.088124849 1081:0.092585497 1225:0.074284732 1312:0.10828767 1315:0.25404513 1324:0.099388301 1411:0.10547572 1497:0.10111006 1591:0.098842055 1598:0.087133601 4624:0.53035754 4643:0.14225177 5454:0.4642213 5823:0.15275221 8660:0.17275688 #
-1.000000001021051 2:0.048247628 4:0.10224468 6:0.011818801 7:0.036694236 15:0.040492278 17:0.032200988 20:0.16667303 26:0.076732539 27:0.017206756 30:0.071040943 32:0.044298802 63:0.12773158 67:0.033427224 75:0.095811225 82:0.044324763 83:0.061246518 94:0.035475243 97:0.036873762 100:0.073033348 132:0.035840653 134:0.084645733 142:0.062828138 162:0.03200534 173:0.044169601 176:0.061262026 198:0.051454172 204:0.10642573 213:0.061008949 218:0.033520371 226:0.045820858 228:0.044692691 229:0.061893482 234:0.16956764 256:0.040215261 322:0.051213954 339:0.045963969 345:0.04336625 408:0.034797091 524:0.13360517 609:0.1255428 631:0.079320394 829:0.087676853 844:0.064754814 895:0.061451185 997:0.05619961 1038:0.078462668 1094:0.060864177 1164:0.062693082 1332:0.072615549 1788:0.072764985 1849:0.073068067 4131:0.10274393 5032:0.11713094 5119:0.79139239 6759:0.12258662 7590:0.25240946 #
-1.000000001021051 6:0.029843872 15:0.081798241 27:0.01737964 29:0.086709701 77:0.045008041 96:0.036981151 142:0.0030955803 145:0.050087519 160:0.054099929 199:0.055800602 205:0.094458379 306:0.046837442 383:0.64349878 408:0.070293419 411:0.089435406 413:0.05160854 414:0.044101559 478:0.046807695 507:0.03191473 513:0.044665463 528:0.062450379 535:0.056601308 658:0.055203352 697:0.063988134 733:0.13473825 881:0.068007283 884:0.06162193 890:0.12536758 1036:0.13494754 1059:0.054714441 1124:0.33178931 1273:0.080136478 1627:0.079687759 2369:0.1556161 2692:0.3898406 2834:0.21165213 3084:0.10582606 3370:0.10111463 3559:0.10948054 4650:0.099553712 5005:0.20568028 6651:0.13218419 #
-1.000000001021051 2:0.039374709 4:0.041720748 6:0.038581118 15:0.033045597 20:0.054408494 26:0.041747428 29:0.035029773 30:0.05797625 63:0.041696507 68:0.059212092 75:0.019547796 83:0.024991529 92:0.063673094 97:0.060185079 114:0.067727216 142:0.02000929 144:0.057343204 229:0.05051104 278:0.08326868 339:0.075022049 386:0.076817788 396:0.097966947 399:0.090946317 408:0.1135911 411:0.21678558 505:0.069380663 515:0.069685735 534:0.073517181 613:0.089206211 640:0.090020582 644:0.18381122 758:0.10104223 796:0.16957028 850:0.088416159 987:0.15748861 1155:0.33683801 1296:0.29457369 1380:0.099342056 1464:0.24659832 1576:0.10691635 1788:0.11876647 2575:0.13432218 3079:0.28387132 3759:0.15857172 4645:0.36348179 5992:0.19525984 7219:0.2136039 7440:0.2136039 8864:0.2136039 #
0.38872396998821002 6:0.0097965356 15:0.033563815 27:0.057050321 64:0.16993573 142:0.0076211528 286:0.054892458 337:0.074896134 351:0.069522776 455:0.07152909 499:0.29187626 733:0.11057279 965:0.097853661 993:0.10765523 2255:0.67516512 2270:0.14416148 2392:0.30031911 2683:0.13876747 3421:0.17554659 4512:0.16105841 6633:0.38117802 8854:0.20322266 #
0.7503008614563379 6:0.014191582 12:0.14350279 29:0.05154106 37:0.033573564 41:0.032673527 60:0.053857792 75:0.014380826 81:0.086406521 83:0.018385643 115:0.095540062 138:0.059501864 142:0.001840042 174:0.05201387 186:0.040266059 199:0.033168402 204:0.042597372 205:0.1122939 215:0.045204919 294:0.067809656 309:0.052220214 370:0.083914153 393:0.33316863 398:0.055191848 478:0.055645864 504:0.075376652 586:0.052161034 608:0.077427976 697:0.076070301 710:0.081772484 827:0.060609646 882:0.10657211 998:0.078540824 1113:0.086150825 1340:0.09526775 1608:0.076894529 1726:0.095816225 1951:0.088486373 2393:0.11105621 3027:0.36361688 4492:0.10987587 5125:0.13184659 5234:0.12225829 5480:0.13184659 6498:0.44159251 6756:0.14719751 9130:0.53559768 #
1.000000001021051 6:0.011008536 11:0.19787478 20:0.041399032 23:0.026395623 40:0.022927815 68:0.022527026 75:0.0074368888 83:0.0095079364 85:0.022487812 91:0.058642063 92:0.048448395 98:0.071408868 132:0.044511348 142:0.0076124626 162:0.019874092 172:0.086329974 180:0.028277587 218:0.020814868 237:0.03153405 274:0.039656911 284:0.0222844 293:0.034731384 304:0.027785517 346:0.030572237 377:0.028242869 399:0.034600198 404:0.030815395 408:0.021607663 411:0.027491765 448:0.033231333 457:0.025303118 465:0.03120313 502:0.025329035 540:0.041481849 575:0.038299002 587:0.0464756 663:0.03434284 695:0.036223106 697:0.039338935 797:0.10845035 804:0.034567665 819:0.036855061 837:0.039819747 852:0.036416363 853:0.038830318 909:0.032307968 953:0.040097132 1003:0.038780842 1005:0.03868261 1064:0.067998774 1093:0.046582147 1129:0.042789493 1190:0.079421796 1239:0.04912781 1471:0.042499732 1477:0.30378273 1892:0.048722316 1939:0.050296482 2067:0.045759775 2311:0.054456644 2523:0.057121694 3523:0.057751179 3716:0.067306966 6176:0.29714361 7370:0.081264831 9260:0.46163091 9262:0.64628327 9389:0.1706945 #
0.35139085823280269 4:0.0081497924 6:0.032030091 12:0.088908963 15:0.0064551751 18:0.010085657 20:0.021256469 26:0.02446501 27:0.010972228 30:0.011325165 31:0.0071812677 32:0.014124002 33:0.010426123 37:0.0089146821 39:0.037846707 41:0.034702793 42:0.045089945 55:0.018923353 57:0.028132847 62:0.043142289 63:0.016290113 67:0.010657764 68:0.011566577 75:0.01527398 81:0.022943251 83:0.0097637633 84:0.011057829 86:0.014636616 88:0.028773993 100:0.011642789 108:0.087206803 110:0.036367133 127:0.018738335 140:0.039942328 142:0.0097716106 158:0.013523378 168:0.013993324 172:0.01477547 174:0.041433234 179:0.020541444 180:0.014519221 185:0.032915112 188:0.020824376 191:0.024317821 204:0.011310745 208:0.028231476 213:0.01945178 218:0.010687463 219:0.015753793 221:0.017935656 229:0.069068298 232:0.01672362 239:0.031947624 243:0.053296756 252:0.013597551 259:0.022920504 274:0.020361973 284:0.011441999 286:0.021114431 289:0.01639254 296:0.016990229 308:0.027842486 309:0.013865868 316:0.025668224 320:0.017884046 342:0.017600931 346:0.015697416 347:0.015477863 350:0.027501114 355:0.011339625 357:0.01744136 385:0.059139878 387:0.013299985 402:0.014360952 406:0.017666165 427:0.020014524 433:0.015236393 439:0.060920928 442:0.016033303 455:0.013756864 457:0.01299197 475:0.030534513 478:0.02955094 496:0.015799342 514:0.020014524 530:0.015488623 550:0.015350472 574:0.028214971 586:0.055400617 598:0.039824303 609:0.013342476 610:0.024258738 631:0.012645054 643:0.015329543 644:0.017952975 653:0.019247239 655:0.028533131 656:0.018598873 663:0.017633446 684:0.017633446 719:0.020279694 723:0.019337149 732:0.020616967 747:0.020764263 764:0.017425671 778:0.018005284 787:0.021641482 804:0.017748883 827:0.016093487 834:0.018986527 882:0.07074438 890:0.019786971 893:0.059305068 918:0.021785093 960:0.13027672 984:0.021606194 987:0.015382027 996:0.02097779 1017:0.022201924 1021:0.020171989 1024:0.058349982 1037:0.021072073 1055:0.020559205 1067:0.020040438 1080:0.019050483 1083:0.020198707 1111:0.093580484 1138:0.037158508 1146:0.021571144 1178:0.029822046 1210:0.060357437 1296:0.019180818 1379:0.039773744 1424:0.01752053 1479:0.029652534 1497:0.045750707 1498:0.09292689 1645:0.021536332 1697:0.025745966 1698:0.027285678 1858:0.024258738 1932:0.024317821 2001:0.024687242 2185:0.023546441 2228:0.059644092 2248:0.024751464 2254:0.030366728 2410:0.052651156 2423:0.024317821 2424:0.026413951 2528:0.043354023 2535:0.031665944 2578:0.028465705 2615:0.40320626 2620:0.034145188 2780:0.071003065 2908:0.030178718 2913:0.027725918 2970:0.061123665 2997:0.097388573 3289:0.032462858 3589:0.029822046 3739:0.029025136 3864:0.32441592 3881:0.03307176 4008:0.036046211 4020:0.030561833 4021:0.69644719 4338:0.038142342 4492:0.029174991 5541:0.12517709 5544:0.036046211 5729:0.04023847 7122:0.039084889 7853:0.087643653 7915:0.17528731 #
0.78407731635704347 6:0.0094654504 27:0.027561121 31:0.072154455 83:0.024525579 96:0.058645751 142:0.0024545291 171:0.081842273 286:0.053037304 317:0.056416132 365:0.10029047 381:0.090988554 413:0.081842273 475:0.076699592 484:0.20923485 490:0.097955771 530:0.077811688 631:0.063526176 667:0.091168918 726:0.087230116 1010:0.2107763 2238:0.43744913 3471:0.16457127 6831:0.18108884 8695:0.41924283 9938:0.62886423 #
-1.000000001021051 6:0.018685039 15:0.021338876 28:0.04599319 29:0.02262014 31:0.02373912 80:0.04055338 108:0.11531183 110:0.060109425 142:0.0064604036 158:0.08940848 159:0.037469458 179:0.033951931 199:0.029113637 205:0.049283106 245:0.072014995 252:0.044949431 332:0.079999022 355:0.037485406 408:0.036675181 462:0.0765348 499:0.046391565 513:0.046607889 674:0.41237053 881:0.070964798 916:0.075471111 922:0.17707561 977:0.17126866 1005:0.065656878 1135:0.25379485 1190:0.067402214 1245:0.060907282 1305:0.056647398 2217:0.11042826 2408:0.10551193 2465:0.11042826 2546:0.41871253 4535:0.11424166 5049:0.26603267 5212:0.13301633 5457:0.12345281 7301:0.25840586 7654:0.47012201 #
-1.000000001021051 6:0.010728545 11:0.096421026 12:0.072323442 15:0.036756963 29:0.038963985 40:0.067034006 108:0.099314339 142:0.005564136 144:0.12756689 145:0.090029575 204:0.064405479 231:0.11501517 278:0.092620626 320:0.10183506 405:0.10203066 478:0.084134266 505:0.077172838 531:0.24143936 565:0.11411396 582:0.090490051 764:0.19845 882:0.080566324 917:0.13051359 1045:0.055732645 2164:0.13847019 2571:0.14283925 2902:0.15362045 2941:0.15419206 3610:0.30954999 4201:0.17517929 4473:0.19442903 4871:0.36349601 7018:0.22255659 8961:0.23759384 9894:0.4990592 #
-0.68020007706162366 6:0.010570362 37:0.050013412 41:0.048672657 62:0.48407629 81:0.06435845 98:0.068566583 142:0.016446292 199:0.049409855 202:0.393756 203:0.080134273 229:0.11071115 253:0.23100688 281:0.12201584 436:0.093366593 550:0.086119674 574:0.079146236 582:0.089155853 593:0.10181116 613:0.097762018 720:0.21047974 812:0.11839765 1778:0.16367839 1823:0.19156235 1910:0.12936276 2224:0.31240109 2867:0.42797458 3109:0.19388384 #
-1.000000001021051 6:0.023448087 20:0.099202044 29:0.085158885 30:0.070471376 32:0.043943636 48:0.035861734 64:0.050842818 75:0.011880383 83:0.060755476 111:0.036659732 117:0.060519811 141:0.053547744 142:0.016721183 187:0.054660786 204:0.070381641 215:0.037344985 242:0.041075584 248:0.071311966 252:0.0423057 264:0.048256502 337:0.044816129 346:0.048838958 355:0.035280678 373:0.041847426 385:0.12266689 387:0.082759783 430:0.045623995 508:0.090963565 631:0.15736888 655:0.044387188 697:0.062843703 856:0.043995187 882:0.088042051 993:0.06441842 1058:0.065759562 1109:0.081108347 1138:0.11561029 1176:0.066164218 1319:0.061873499 1363:0.066370428 1380:0.060376201 1482:0.13889778 1714:0.090305135 1734:0.081108347 2135:0.24571823 2207:0.25467962 2333:0.36122054 2365:0.24332502 2422:0.093329832 2807:0.15924516 2824:0.085563488 3360:0.082181029 4188:0.097773179 4682:0.53761232 5035:0.10289529 6991:0.11867126 7609:0.25038579 8766:0.12160378 8973:0.12982006 #
-1.000000001021051 6:0.018919773 27:0.018363282 37:0.08951845 41:0.2323164 42:0.075463191 47:0.029849594 57:0.094167091 63:0.040895056 81:0.076796316 85:0.077297173 94:0.037859656 96:0.03907419 142:0.0065415641 158:0.090531699 162:0.034156527 179:0.034378462 199:0.029479386 215:0.040177189 229:0.033026777 248:0.076720186 262:0.059023187 264:0.051916223 275:0.12722786 314:0.050326303 327:0.053037833 336:0.057659123 337:0.19285975 377:0.048539493 390:0.057608746 394:0.05875238 478:0.049456887 480:0.046385918 483:0.061232749 508:0.097862147 510:0.057015404 572:0.068342261 623:0.087540887 631:0.042325892 713:0.063062817 729:0.20364237 739:0.064424925 760:0.099821225 882:0.094719067 945:0.099821225 948:0.10101509 963:0.10701531 986:0.056394774 1018:0.068436049 1050:0.14889506 1113:0.076569058 1129:0.073539987 1188:0.07765577 1192:0.078476027 1262:0.19430757 1441:0.082211785 1888:0.11429178 1968:0.36196482 2842:0.10101509 3061:0.10441899 4218:0.12269307 4538:0.12767117 4773:0.13082609 4966:0.29336339 5125:0.11718251 5293:0.13468738 5658:0.12767117 7082:0.47602805 #
0.51483943396841469 6:0.027272416 7:0.042336803 15:0.046718881 26:0.059021268 27:0.059558053 29:0.024762025 31:0.025986962 60:0.05175012 63:0.014737319 64:0.059135165 67:0.11570223 75:0.013818046 92:0.045009557 134:0.09766192 142:0.017680338 153:0.059135165 172:0.10693643 176:0.070682444 204:0.12279109 205:0.053949691 256:0.046399266 345:0.050034791 398:0.053031966 405:0.064841568 561:0.060419295 643:0.055473246 768:0.17041571 844:0.074712329 895:0.070900694 966:0.068103306 997:0.064841568 1045:0.035418686 1094:0.070223421 2211:0.1050337 3944:0.11854313 5119:0.65220487 6759:0.42431122 7590:0.43683469 8226:0.15099341 #
0.80372683249462651 6:0.015108707 7:0.04690852 15:0.025881898 42:0.045196809 63:0.016328722 75:0.01531018 80:0.049187146 142:0.0039179078 154:0.054609165 159:0.04544666 179:0.041180257 204:0.090700418 229:0.079122283 254:0.072906643 256:0.051409669 262:0.070700951 265:0.071365356 345:0.055437773 365:0.080041587 437:0.067949496 483:0.07334768 582:0.063717291 586:0.11106384 724:0.088394731 727:0.080879189 757:0.21532342 882:0.056729641 1140:0.076729447 1305:0.068707556 1395:0.080666594 2042:0.097030722 2417:0.12903848 2767:0.11889125 5028:0.28468537 5119:0.43357971 6469:0.14973576 6695:0.50189507 6757:0.15671009 7580:0.3226707 7840:0.3514055 #
1.000000001021051 2:0.036723621 6:0.013493799 17:0.024509743 20:0.025372595 26:0.21415123 27:0.013096903 29:0.016335616 30:0.13518183 32:0.033717979 40:0.056207899 54:0.03367855 63:0.20416775 64:0.039011728 75:0.13673738 83:0.058272146 84:0.079194471 94:0.02700194 100:0.027794622 103:0.042817473 110:0.043409303 134:0.064427994 142:0.062984496 150:0.078451671 154:0.032514811 176:0.023314759 185:0.026192551 205:0.035590846 218:0.02551399 227:0.03197166 231:0.048220009 234:0.032266553 264:0.037027244 286:0.050406106 308:0.033233937 309:0.033101737 314:0.035893291 317:0.026808655 387:0.031750817 402:0.034283645 408:0.13242882 430:0.03500732 457:0.031015499 473:0.039601747 508:0.069796398 510:0.04066404 518:0.039225835 565:0.047842178 592:0.044307262 676:0.044977121 683:0.054397136 686:0.053192127 716:0.043067645 757:0.085470393 799:0.045376882 827:0.038419694 867:0.039538294 871:0.051664323 918:0.052007165 965:0.044928048 966:0.044928048 997:0.085552529 1045:0.023365863 1129:0.052449558 1363:0.10185214 1366:0.048742481 1446:0.046945307 1931:0.058634385 1980:0.055850755 2106:0.061094455 2422:0.14322408 2490:0.36973783 2682:0.066189587 2744:0.061842654 3880:0.40757102 4720:0.61464584 6598:0.083575904 #
-0.61099629941013767 2:0.065310776 6:0.015998611 48:0.097873732 63:0.034580972 129:0.16497408 142:0.024892038 179:0.17442311 221:0.15229665 409:0.081705473 571:0.12626663 755:0.16697887 799:0.16140015 852:0.3175416 964:0.19164716 1045:0.083109587 1140:0.16249764 2767:0.5035758 7451:0.6342209 #
1.000000001021051 2:0.044358421 4:0.047001407 5:0.061005361 6:0.032598291 15:0.037228227 26:0.047031462 29:0.039463542 48:0.066474855 63:0.14092229 75:0.11010995 106:0.076059751 142:0.039448317 154:0.078549206 169:0.15841092 186:0.061661188 187:0.10132159 189:0.1626261 192:0.087753102 218:0.061636638 229:0.22761717 339:0.084517695 357:0.10058766 434:0.094025485 472:0.098999523 480:0.07992176 496:0.27335346 507:0.058100455 510:0.098236091 565:0.23115405 579:0.12759098 671:0.066359632 761:0.11049283 764:0.10049717 795:0.12873344 987:0.088711083 1045:0.056447197 1433:0.10476366 1446:0.11341037 1590:0.16739349 1711:0.15797646 1918:0.15736172 1936:0.29260936 1980:0.13492413 2163:0.13731056 3236:0.48802832 3781:0.19930826 5918:0.22541 #
-1.000000001021051 2:0.085352525 6:0.010454033 26:0.1357438 29:0.075934015 31:0.039845172 32:0.23510054 48:0.063953996 88:0.079826064 106:0.073175415 134:0.29948527 142:0.027108828 176:0.21675134 193:0.20279796 221:0.099515766 373:0.074628577 409:0.05338911 420:0.10630272 457:0.072085783 598:0.11048232 671:0.12768628 1045:0.054306608 1433:0.10079081 1731:0.51923013 5978:0.36699647 9674:0.48628971 #
-0.13957595594123898 2:0.032771494 6:0.016055495 13:0.053353991 25:0.060249221 26:0.24322413 29:0.087465636 32:0.12035725 34:0.06397713 41:0.036964845 47:0.037995961 51:0.054521944 55:0.080627382 63:0.10411177 82:0.060213894 83:0.020800401 100:0.049606834 142:0.043715946 145:0.067365579 165:0.077944018 169:0.11703216 173:0.060003109 175:0.077708431 176:0.041611332 189:0.060073148 190:0.068829522 194:0.063603438 214:0.068777382 228:0.30356854 238:0.079161271 283:0.060178623 284:0.048751321 323:0.068673484 364:0.074380055 402:0.061188206 408:0.047270831 415:0.069844261 433:0.06491822 441:0.11321536 484:0.088727131 493:0.071666628 502:0.055412032 507:0.12877186 586:0.059011828 655:0.060786046 696:0.088598698 767:0.076790519 771:0.085166715 800:0.070793591 801:0.19417205 805:0.10464852 998:0.088856325 1009:0.1430964 1272:0.20288694 1338:0.10144347 1500:0.18322651 1551:0.085947484 1598:0.0839931 2392:0.36914364 3421:0.14385124 3432:0.14724666 3482:0.12244438 3853:0.1561777 6633:0.46853313 #
-0.41875835425246555 6:0.019984532 9:0.15287778 27:0.058190167 42:0.17934766 73:0.32574183 75:0.020251025 83:0.051781189 84:0.058644142 117:0.30948201 127:0.099376969 142:0.025911402 218:0.056679942 242:0.070016488 296:0.18021213 309:0.14707261 311:0.12803778 433:0.16160952 455:0.072958216 507:0.1602844 610:0.25730783 643:0.081298769 655:0.075661369 724:0.23384231 1204:0.30786407 1291:0.15167733 1358:0.13377753 1489:0.117125 1962:0.4862453 2979:0.15472679 7993:0.20728298 #
-1.000000001021051 6:0.014067969 15:0.016066045 17:0.025552651 26:0.081186734 31:0.017873188 41:0.021592621 63:0.060815781 75:0.047518548 83:0.012150332 94:0.02815089 100:0.028977303 107:0.044856366 134:0.1343389 142:0.024320196 144:0.083637021 174:0.034373876 176:0.12153409 179:0.051124834 180:0.036136348 185:0.08192119 199:0.021919664 206:0.044725738 229:0.098229438 291:0.037743814 317:0.027949382 320:0.044510931 345:0.13765076 357:0.04340915 385:0.14719103 409:0.047897078 423:0.035528701 436:0.041420162 475:0.15199241 480:0.034490671 507:0.025073569 546:0.0405146 558:0.052056745 561:0.041554894 574:0.035111595 593:0.045166422 609:0.033207588 755:0.04894286 852:0.32575908 1056:0.046047725 1059:0.042985994 1122:0.057273723 1140:0.28577629 1149:0.044988334 1225:0.041828662 1466:0.11454745 1597:0.065740697 1805:0.067910306 2047:0.064474098 2223:0.11905602 2280:0.063694067 3241:0.078812189 3263:0.078213632 3589:0.22266893 4189:0.072996654 4422:0.080099925 4621:0.27368864 6293:0.092947647 6391:0.26914221 6419:0.43566057 6992:0.3797242 7721:0.10014802 8974:0.10384953 #
-0.70993378506381921 6:0.015385249 9:0.11769415 27:0.022399077 35:0.083476603 75:0.046771228 78:0.059098568 104:0.11140381 115:0.10357602 118:0.050372355 127:0.076506138 142:0.015958477 184:0.090647511 275:0.051729798 302:0.097653031 307:0.073874004 330:0.15301228 349:0.076260224 367:0.065658204 532:0.08894565 594:0.073656775 608:0.33576205 671:0.093958251 727:0.08235956 778:0.073513187 959:0.085522771 970:0.12646939 1056:0.15107846 1237:0.094335295 1372:0.10748385 1595:0.096347019 1629:0.11320125 1649:0.087370828 2275:0.12106737 2785:0.14109977 2825:0.10387541 3111:0.49286503 3116:0.55764115 3429:0.13784608 3775:0.14109977 #
0.84640463501922059 31:0.096104547 59:0.15656924 75:0.051101662 142:0.0065385122 377:0.19406739 1891:0.35972625 2135:0.35230654 2240:0.34248444 2365:0.34887522 4487:0.46851134 4682:0.46249154 #
-0.68164292120083347 6:0.0096118562 20:0.10843991 29:0.069816776 31:0.036635246 54:0.07196936 63:0.083104037 75:0.077920236 83:0.049809851 92:0.063452445 142:0.027417436 208:0.072011456 218:0.16356632 234:0.068951994 275:0.064635858 317:0.057288744 346:0.16016078 367:0.082039252 408:0.056598742 432:0.18058389 455:0.070180662 502:0.066346437 505:0.13828048 506:0.053773124 510:0.086896993 549:0.10263693 609:0.068066657 613:0.088897087 726:0.088579334 806:0.10318073 882:0.072180517 904:0.11716136 963:0.081550851 987:0.07847143 1207:0.10951598 1242:0.12201647 1416:0.11601948 1820:0.12258366 1897:0.25665143 2223:0.12201647 2399:0.13974172 2941:0.27628571 3719:0.64126796 4871:0.16283062 5565:0.17419173 5743:0.17859748 #
-0.020265575015184834 8:0.11479637 10:0.096191294 14:0.34711033 16:0.12550452 22:0.12161969 47:0.053978339 52:0.092979059 70:0.1312097 71:0.16329917 75:0.046226259 86:0.35437837 89:0.18157196 111:0.071321033 133:0.16452645 142:0.065061696 172:0.089435071 308:0.08426448 317:0.13594642 331:0.089152396 409:0.058243118 423:0.086406209 491:0.27221075 506:0.063801922 667:0.2196905 934:0.36997804 1107:0.22187129 1150:0.12444369 1993:0.16713561 2201:0.1964958 2462:0.20667887 2782:0.21818565 3024:0.19167215 #
-0.62771745517984656 6:0.027550198 29:0.033352315 30:0.11039992 31:0.035002202 51:0.06237077 53:0.070724621 56:0.25434652 77:0.13849638 83:0.095179074 141:0.083887488 142:0.040483616 229:0.048092235 293:0.086919509 317:0.1094701 355:0.11054089 387:0.064825423 408:0.054075804 414:0.067853503 455:0.067052297 507:0.098206319 586:0.067507006 684:0.17189428 829:0.068126328 853:0.097177587 856:0.068922527 1045:0.047705922 1308:0.10727051 1924:0.12666054 1990:0.12226726 2026:0.11063518 2858:0.13810667 5247:0.15317072 9041:0.81350052 #
-1.000000001021051 6:0.012182553 9:0.046597075 12:0.041062612 27:0.017736336 42:0.03644339 47:0.028830493 75:0.012345006 83:0.015782882 84:0.035749417 92:0.040211421 98:0.039512176 110:0.23514628 141:0.11128382 142:0.0063182269 145:0.051115505 172:0.047768366 180:0.046939924 183:0.053587213 186:0.069131605 200:0.11769064 218:0.034552041 239:0.051642548 287:0.16962048 293:0.057653029 296:0.054928575 321:0.24263263 368:0.074248113 370:0.21610457 372:0.06012924 387:0.042998195 415:0.052996274 437:0.054789487 442:0.051834878 465:0.051796235 480:0.08960449 493:0.054379046 506:0.034077391 555:0.21058913 582:0.05137695 586:0.044776864 599:0.057113841 655:0.046123102 695:0.12025848 720:0.060645524 739:0.062225375 780:0.12359725 782:0.069403052 791:0.081098914 800:0.053716607 884:0.1257733 1128:0.3664203 1177:0.16450404 1474:0.093836829 1480:0.088557869 1483:0.085395001 1818:0.098804899 1891:0.17380345 1943:0.073104881 2112:0.098174132 2135:0.085109293 2313:0.22345498 2320:0.10014268 2333:0.2815105 2389:0.097566307 2611:0.07381019 2940:0.099460408 3103:0.087875597 3494:0.10495082 4095:0.10915112 4239:0.12073594 4252:0.11172749 4562:0.13008898 5427:0.26979426 5432:0.13489713 6140:0.12073594 #
-0.97134527230299961 6:0.0068459064 18:0.036645945 27:0.019933637 46:0.11464704 59:0.042509437 100:0.042303737 111:0.085625432 142:0.0017752432 179:0.037318371 199:0.064000688 239:0.058040388 292:0.067507185 336:0.062589906 363:0.063952476 406:0.064189501 475:0.055473134 507:0.036604706 571:0.054030281 574:0.051259141 919:0.42858103 1018:0.22286528 1393:0.078378126 2240:0.092986472 2677:0.49069408 2750:0.11254905 3601:0.27138707 4700:0.58482128 5981:0.14620532 #
-1.000000001021051 6:0.0064625335 15:0.044282448 26:0.027971627 27:0.018817347 28:0.047722545 40:0.040379152 69:0.26226076 83:0.016744833 92:0.042662267 134:0.046284381 142:0.0067033162 159:0.077756636 172:0.1013596 174:0.047371939 199:0.030208318 202:0.080245167 261:0.35541677 337:0.049407139 365:0.068473294 436:0.05708269 437:0.058128852 593:0.062245551 696:0.071324125 784:0.063460112 867:0.056807771 1005:0.068125591 1013:0.08007548 1305:0.058777351 1446:0.067450009 1936:0.17402734 1941:0.11853717 2707:0.10228949 3448:0.10351288 3557:0.43445623 4177:0.11580377 5455:0.14311896 5682:0.13406099 6666:0.14311896 7050:0.39248419 8170:0.48779872 #
