SVM-light Version V6.02
0 # kernel type
3 # kernel parameter -d 
1 # kernel parameter -g 
1 # kernel parameter -s 
1 # kernel parameter -r 
empty# kernel parameter -u 
9947 # highest feature index 
1600 # number of training documents 
778 # number of support vectors plus 1 
-0.12250083 # threshold b, each following line is a SV (starting with alpha*y)
1.0000000006239336 2:0.13461211 4:0.14263263 6:0.0082436893 15:0.028243624 20:0.093004405 26:0.035680961 28:0.060875479 63:0.16036847 75:0.033414472 83:0.064079762 96:0.102152 102:0.078550473 110:0.079559386 120:0.13736324 142:0.038478754 169:0.060090132 176:0.042730656 218:0.09352269 234:0.11827452 255:0.076728299 345:0.060496476 472:0.15021425 473:0.072581001 475:0.066799521 518:0.071892045 592:0.081205145 636:0.084311031 737:0.097141095 850:0.15113617 2712:0.1433291 5059:0.85504949 #
-0.33797087658770575 4:0.03159973 6:0.031656884 11:0.098484591 13:0.032368906 17:0.026538759 18:0.039105788 27:0.042543348 29:0.0088439723 37:0.046087317 40:0.12172204 41:0.022425907 46:0.020390445 58:0.065340571 59:0.015120956 63:0.078953423 67:0.027549371 72:0.075772405 74:0.03992581 75:0.054287583 78:0.056123983 79:0.049541939 80:0.031710941 83:0.063096143 86:0.018917175 91:0.019457893 92:0.016075553 96:0.075437985 98:0.047388036 108:0.022542182 113:0.078214191 132:0.029538423 135:0.022186274 137:0.019935353 138:0.020419944 142:0.021469932 144:0.057909787 151:0.019231377 154:0.017603258 157:0.02467758 158:0.034956731 159:0.014649726 162:0.052755024 171:0.042110581 177:0.076247439 185:0.056721754 199:0.068296716 203:0.036921833 208:0.036487926 227:0.017309202 237:0.083705939 242:0.017063225 249:0.055580113 252:0.070296913 264:0.020046253 275:0.016375368 278:0.042045712 285:0.051937729 287:0.022603389 290:0.025322797 292:0.072038576 297:0.023788875 299:0.040318049 304:0.055316702 308:0.017992588 323:0.020831484 327:0.020479336 330:0.048436925 331:0.01903628 336:0.022263743 339:0.018940827 349:0.024140619 355:0.029311923 369:0.021775544 375:0.017262962 377:0.018742407 381:0.023408325 387:0.017189639 390:0.022244291 394:0.045371756 398:0.037881654 402:0.018560892 404:0.020449575 406:0.022832733 408:0.014339182 411:0.036487926 414:0.035985176 423:0.018449899 426:0.021921996 430:0.018952684 436:0.02150931 449:0.027834749 455:0.035560269 485:0.033703864 502:0.016808741 505:0.017516546 507:0.039061785 509:0.022603389 513:0.018222649 519:0.029116025 521:0.02401286 530:0.020018354 538:0.021337537 548:0.027570968 550:0.019839803 556:0.060219761 571:0.019219015 576:0.047676008 589:0.038770184 597:0.043551087 598:0.025735568 602:0.030912636 641:0.0192686 654:0.050894219 656:0.024038216 658:0.022521904 671:0.014871515 680:0.033586342 685:0.025735568 692:0.034024637 722:0.031277843 739:0.0248762 749:0.028347179 751:0.030702725 770:0.032787591 826:0.03174419 848:0.026914578 850:0.022322439 856:0.01827606 884:0.050281122 888:0.036456507 908:0.025901373 963:0.041321497 965:0.048647374 973:0.099826545 974:0.031277843 1019:0.034998223 1045:0.012650091 1056:0.047824763 1092:0.038112447 1095:0.034373321 1121:0.031990163 1129:0.028395772 1138:0.02401286 1146:0.027879743 1167:0.031129355 1179:0.060733795 1209:0.038543668 1225:0.021721441 1253:0.029801918 1254:0.033481117 1274:0.067824677 1324:0.029061923 1329:0.032787591 1331:0.027527999 1335:0.026175529 1355:0.067603797 1393:0.027879743 1395:0.026002867 1404:0.032978505 1414:0.040615998 1426:0.028902195 1428:0.040926825 1433:0.023478046 1438:0.03369325 1450:0.034741208 1467:0.029923405 1471:0.028203484 1514:0.035687659 1583:0.036138274 1627:0.03251107 1645:0.027834749 1650:0.080637977 1671:0.038112447 1709:0.031056331 1743:0.036138274 1841:0.18635251 1846:0.031990163 1862:0.034255061 1916:0.029741993 1961:0.71326554 1994:0.034868483 2024:0.02371585 2070:0.044665951 2100:0.14212531 2180:0.039247643 2202:0.034138855 2257:0.035130538 2298:0.034024637 2441:0.039247643 2535:0.081853651 2597:0.045884147 2605:0.10620988 2621:0.041252822 2731:0.035543963 2789:0.038543668 2844:0.045884147 2865:0.049297277 2953:0.042743776 3029:0.038543668 3070:0.038112447 3101:0.0371424 3149:0.041595541 3206:0.041595541 3395:0.041252822 3452:0.045247324 3480:0.041956797 4393:0.045247324 4478:0.30309287 4548:0.048267305 6383:0.050515477 6817:0.053928606 7090:0.05663776 #
-0.069839621169342225 4:0.030261045 6:0.020987848 11:0.12574987 13:0.046496455 20:0.078927539 25:0.1050109 27:0.12222315 40:0.21856017 46:0.11715978 56:0.064587384 74:0.057351604 82:0.10494933 84:0.041058898 94:0.083995998 132:0.042430595 139:0.057232991 142:0.039911333 192:0.056498326 215:0.044568855 218:0.079367377 294:0.066855535 296:0.063086532 309:0.051485442 400:0.12328979 412:0.07130228 471:0.072927818 477:0.074802049 526:0.16792473 564:0.086684883 614:0.084607661 626:0.066027731 655:0.052973278 666:0.2742925 698:0.078599438 701:0.40218681 705:0.079966694 784:0.068698086 1234:0.23900038 1266:0.095308855 1306:0.10017396 1342:0.10017396 1439:0.082438104 1627:0.093401335 1660:0.098411657 2106:0.095024467 2367:0.36161414 2671:0.1142322 4383:0.14162658 5216:0.43537906 5997:0.14512634 #
-0.35588135389347358 6:0.021279208 59:0.044044193 114:0.049806114 142:0.009196681 144:0.042169783 168:0.052680016 196:0.19787617 219:0.059307568 220:0.056901783 275:0.047698036 284:0.043075163 295:0.060225144 310:0.072797664 341:0.059264936 379:0.25989667 381:0.13636714 382:0.1246011 508:0.055033136 511:0.092000797 519:0.084808908 523:0.083141878 546:0.061282378 568:0.099777848 575:0.074030966 647:0.064071052 692:0.099106677 712:0.065135434 724:0.082997181 758:0.074305728 784:0.13930357 942:0.091773167 951:0.092464201 968:0.09845788 975:0.087888278 1045:0.036847077 1068:0.08358255 1070:0.21966746 1080:0.071718462 1435:0.10667077 1476:0.091325745 1598:0.074213713 1814:0.12450371 1958:0.10312241 2142:0.092231125 2779:0.10667077 3919:0.60593557 4408:0.14714105 4903:0.1435927 5224:0.15148389 5715:0.32994798 6157:0.15148389 #
-0.1849996611430352 6:0.024758523 9:0.26515701 27:0.014418176 57:0.036968276 63:0.010703101 73:0.16142257 75:0.03010641 78:0.038041458 83:0.012830179 111:0.030966816 117:0.051121648 142:0.025680982 162:0.053636909 173:0.03701134 185:0.028834973 225:0.047182608 228:0.037449654 263:0.070902728 323:0.04235943 329:0.1329627 360:0.060972467 377:0.03811143 386:0.039436806 414:0.036586724 485:0.034267277 593:0.047693614 610:0.063754924 631:0.066465482 634:0.055632364 688:0.2198779 724:0.05794071 727:0.053014446 747:0.10914202 787:0.056876451 796:0.043527093 823:0.056418944 863:0.052331559 881:0.056418944 882:0.037184972 897:0.082589917 930:0.086708032 960:0.057063855 1018:0.053733479 1037:0.055379976 1046:0.11126473 1264:0.16397193 1334:0.07667543 1379:0.052265119 1482:0.058664121 1663:0.18401483 1726:0.13372819 1781:0.25143513 1880:0.069186829 2058:0.074131869 2373:0.079313345 2397:0.090825222 2432:0.094733842 3991:0.088730842 4111:0.08388485 4477:0.61631906 4709:0.10024272 4887:0.32341239 6359:0.10966022 7444:0.1057516 #
0.18590527994563705 6:0.011472293 31:0.043726239 41:0.052825723 80:0.14939448 96:0.14215937 174:0.084094696 200:0.22165821 314:0.091548361 365:0.12155383 473:0.10100703 539:0.10658429 731:0.13220766 1046:0.25778228 1755:0.35528898 2854:0.20340317 3248:0.18732347 6708:0.25406486 8267:0.46449214 9368:0.53365612 #
0.93372570023941415 6:0.025615644 29:0.018606205 31:0.019526623 33:0.028349727 53:0.078910068 59:0.12724762 74:0.041998539 76:0.042622074 78:0.039358422 79:0.10422777 85:0.03139599 97:0.095902637 111:0.12815545 118:0.067093894 132:0.031071896 137:0.041940574 148:0.090067938 151:0.040459529 160:0.046435144 168:0.038049322 185:0.029833218 186:0.14535956 199:0.047894869 204:0.030755106 224:0.14616601 229:0.02682914 232:0.045473285 243:0.048306499 253:0.11196192 271:0.11308341 274:0.27683175 299:0.042411141 317:0.030534957 319:0.046475023 322:0.044399712 323:0.043825883 327:0.043085024 333:0.15505229 341:0.04280543 349:0.10157546 355:0.030833637 387:0.03616406 389:0.043661471 411:0.038382176 422:0.046716694 426:0.04612013 436:0.090503819 444:0.2019055 459:0.046798185 471:0.053404994 481:0.059039362 485:0.10636076 489:0.058372125 500:0.053018082 506:0.028661128 507:0.027393105 535:0.048582133 591:0.053870279 597:0.045812022 625:0.056956396 626:0.048352066 695:0.050572298 729:0.2205705 756:0.13604572 778:0.048958261 804:0.04826108 806:0.054995432 939:0.074482478 1000:0.062200498 1007:0.23654927 1009:0.045660462 1014:0.062825352 1114:0.062698141 1124:0.056956396 1194:0.078526407 1215:0.060051087 1237:0.1256507 1478:0.32823646 1489:0.060051087 1523:0.082570329 1553:0.071345761 1570:0.084824257 1574:0.078526407 1668:0.1662017 1679:0.073908649 1906:0.080628365 2099:0.074482478 2472:0.17357777 2591:0.074482478 2622:0.18568873 2623:0.092844367 2745:0.25447276 2992:0.078526407 3181:0.092844367 3323:0.092844367 3731:0.095192634 3756:0.096532404 4437:0.095192634 5254:0.10371304 5280:0.099669121 5653:0.098013453 7707:0.10627593 8137:0.11345657 #
-0.47482986822242884 6:0.013443498 9:0.10284013 13:0.044674069 37:0.031803794 41:0.0309512 52:0.054801404 57:0.10036603 58:0.090180032 59:0.041738488 72:0.083662055 83:0.034832954 96:0.08329282 98:0.13080555 101:0.065329872 111:0.042036265 116:0.071965076 142:0.0087152375 144:0.039962206 166:0.050153855 179:0.073283136 203:0.050957806 204:0.040351924 240:0.060511447 290:0.13979742 331:0.052545983 337:0.051388886 369:0.060107198 465:0.057157364 473:0.059181184 496:0.056365326 567:0.072941139 589:0.74912339 591:0.070679948 607:0.065936841 626:0.063439831 643:0.054689284 706:0.068429001 767:0.064297818 772:0.0622795 872:0.076709099 906:0.078652292 913:0.070155464 990:0.090503834 1045:0.034918141 1067:0.14299151 1453:0.094554499 1504:0.093918465 1835:0.18100767 1855:0.086968862 1904:0.093918465 2115:0.12044872 2258:0.12489653 2324:0.2871075 4293:0.10766482 5151:0.11581366 5830:0.12665436 #
0.68386221230312061 6:0.031759463 15:0.012090088 26:0.015273745 28:0.026058622 29:0.10252815 37:0.066786282 42:0.042225141 58:0.023671661 60:0.10713673 63:0.022882674 75:0.014303544 80:0.022976557 100:0.065418363 134:0.025273319 139:0.028868914 142:0.0036603073 162:0.03822431 174:0.025867175 178:0.028479224 180:0.027193476 215:0.022480993 216:0.030702071 256:0.024014754 275:0.023729954 277:0.031957302 284:0.021430057 306:0.027691001 312:0.031984691 313:0.040016446 333:0.035600189 345:0.025896383 351:0.025042934 373:0.02519138 375:0.025016187 377:0.027160088 379:0.043099862 389:0.060148351 394:0.06574934 415:0.061404143 477:0.037730929 484:0.078005172 502:0.024357965 538:0.030920755 557:0.03321122 608:0.038505942 643:0.028711151 655:0.026720271 667:0.067977652 688:0.039173961 742:0.036217116 800:0.093358129 847:0.075264253 862:0.033955146 870:0.11603034 915:0.043724753 920:0.092715487 952:0.03287467 1126:0.075264253 1140:0.035842262 1149:0.033854809 1156:0.049471464 1198:0.042036586 1207:0.040206928 1236:0.038889997 1245:0.034508582 1289:0.047789976 1374:0.047112603 1485:0.044005424 1497:0.042843923 1625:0.047650658 1736:0.050528783 1924:0.048670806 1954:0.049985699 1969:0.048220377 1994:0.050528783 2024:0.03436723 2042:0.045325499 2066:0.09448868 2251:0.050908536 2316:0.058427248 2402:0.14601241 2410:0.049305949 2424:0.049471464 2537:0.26534557 2760:0.055537101 2868:0.056182839 2880:0.053069115 2924:0.16392809 3442:0.1398907 3745:0.075363815 4002:0.16756377 4003:0.32363269 5806:0.065569021 6668:0.065569021 7116:0.082075186 7585:0.082075186 7586:0.082075186 7635:0.075363815 7771:0.067512013 8220:0.64294124 9237:0.26635969 #
-0.099384878744543992 6:0.031058684 18:0.09975376 25:0.09323968 26:0.026886109 37:0.029390683 46:0.052013364 53:0.095677584 65:0.044439971 76:0.051678795 78:0.04772165 79:0.084250011 94:0.14916091 96:0.11545947 98:0.080587126 106:0.043480489 111:0.038846768 113:0.066504732 118:0.12202591 132:0.03767433 135:0.16978286 139:0.050817449 142:0.0016107939 144:0.036930077 145:0.10425273 157:0.062949285 158:0.044585027 160:0.0563021 162:0.033642795 166:0.046348438 168:0.092268765 177:0.064832419 179:0.067722782 186:0.035249371 189:0.046483599 199:0.029036 203:0.047091387 218:0.035235338 224:0.059074894 227:0.044153512 246:0.064206891 249:0.1417776 252:0.044829562 258:0.0589053 277:0.056253884 286:0.034805927 287:0.057658292 288:0.12903357 294:0.05936135 353:0.069682628 416:0.060434397 422:0.056643475 426:0.055920146 439:0.20084929 479:0.078673735 480:0.045688249 481:0.57267654 485:0.042987078 493:0.05545444 502:0.042876903 516:0.087083764 595:0.088301703 597:0.055546567 599:0.058243319 613:0.057450436 615:0.32990786 625:0.069058999 666:0.081181876 796:0.054603189 882:0.046647221 885:0.087083764 969:0.069472209 988:0.091792189 1123:0.070551291 1126:0.066243187 1168:0.080771156 1184:0.08181712 1190:0.067222476 1269:0.063455939 1277:0.14665559 1304:0.15995656 1424:0.057763178 1449:0.079595253 1459:0.094745412 1476:0.07997828 1600:0.092585072 1932:0.080173068 2057:0.098319866 2394:0.095692538 3882:0.10903379 4071:0.094745412 5554:0.12312359 #
-1.0000000006239336 6:0.0415131 13:0.045984041 17:0.11310478 18:0.074072823 28:0.051092215 29:0.075383745 33:0.076573335 37:0.065472744 50:0.19702064 53:0.053284522 58:0.046412189 94:0.083070323 96:0.042867605 98:0.044880383 101:0.067245536 160:0.062711254 179:0.037716005 180:0.053317282 186:0.039261986 204:0.041535161 224:0.065799683 242:0.096961699 253:0.075602993 254:0.066773437 274:0.074772954 322:0.059962377 369:0.061869714 394:0.1289124 410:0.26410049 411:0.051835615 423:0.052420735 428:0.10224136 430:0.053849269 468:0.092630297 485:0.047880515 489:0.078832299 502:0.047757801 534:0.10547218 567:0.075079985 580:0.062603995 586:0.10172069 599:0.06487345 603:0.074075304 647:0.062497344 656:0.068298526 771:0.073402375 856:0.051926814 876:0.20032032 1007:0.2395971 1012:0.092372008 1029:0.1065857 1127:0.079733402 1160:0.087629564 1168:0.089965746 1195:0.093157671 1196:0.086846605 1227:0.15120599 1288:0.09089198 1324:0.16514425 1431:0.080818504 1478:0.55410939 1510:0.1060509 1523:0.11151228 1645:0.079085417 1815:0.089965746 1824:0.09800519 1851:0.093700111 2472:0.11720949 2745:0.11455624 3156:0.12538749 3350:0.11082187 3662:0.11628325 4195:0.1323684 #
0.24939467843930085 6:0.018421676 11:0.016556177 17:0.020076357 26:0.079734087 27:0.0429116 29:0.013380786 31:0.028085425 58:0.049429614 63:0.015927367 64:0.031955183 67:0.10420439 72:0.11464243 75:0.014933862 78:0.028304894 111:0.02304098 118:0.024125529 140:0.026035266 142:0.015286428 172:0.028892905 174:0.027007071 179:0.060252089 199:0.01722197 204:0.044235516 206:0.035140384 218:0.020898951 232:0.032702442 240:0.033167627 275:0.024775669 308:0.027222494 327:0.030984906 337:0.084502056 345:0.027037567 351:0.026146509 355:0.022174234 398:0.028657164 411:0.055205639 507:0.01969995 546:0.063663498 561:0.097947285 657:0.038266506 671:0.022500362 693:0.043808471 729:0.039656218 742:0.037813105 837:0.039980605 882:0.055335246 887:0.046557486 926:0.06532307 956:0.3415089 960:0.042458583 990:0.049607094 1011:0.088435605 1037:0.041205686 1067:0.039188359 1188:0.045366801 1237:0.045181308 1268:0.04989595 1281:0.047669504 1321:0.042743366 1440:0.09130317 1500:0.042045906 1519:0.059381053 1535:0.054676626 1647:0.05592626 1700:0.26475874 1731:0.045748323 1876:0.066020533 1892:0.048919134 2241:0.051478729 2433:0.050193299 2736:0.14445294 2804:0.14445294 2852:0.06347996 3029:0.1166319 3086:0.33010265 3292:0.064057782 3684:0.070487082 3737:0.06532307 4217:0.069421977 4630:0.066020533 4631:0.066020533 4853:0.068458475 5150:0.069421977 5291:0.06757886 5350:0.14917198 5531:0.068458475 5847:0.078684889 5860:0.078684889 6162:0.13884395 6738:0.57115179 6752:0.24477933 #
-1.0000000006239336 6:0.012441702 13:0.13781667 17:0.11299373 29:0.075309731 31:0.015807036 33:0.022949444 34:0.066102766 37:0.019622538 42:0.12406207 48:0.050742563 52:0.067623548 53:0.031939324 58:0.027819971 63:0.0089642387 72:0.051618431 78:0.06372223 79:0.14062271 81:0.050501499 97:0.077634335 100:0.025627507 118:0.054313309 142:0.0010754382 144:0.024656175 146:0.074481249 148:0.036455538 158:0.089300886 160:0.037589807 165:0.040266849 166:0.030944295 185:0.048300695 186:0.047068123 199:0.038771473 206:0.039555412 216:0.2886593 219:0.069352873 229:0.021718511 232:0.073622338 242:0.02905995 252:0.059860453 271:0.13731357 274:0.089639448 275:0.027888479 284:0.025185538 287:0.11548579 306:0.032543674 312:0.037589807 322:0.17971051 323:0.035477575 333:0.16735558 335:0.16474971 337:0.031706292 341:0.034651507 342:0.038742263 367:0.035397533 377:0.031919722 405:0.039441045 409:0.021180071 411:0.031070832 419:0.050451431 426:0.11200439 429:0.047328547 430:0.032277837 444:0.10896329 480:0.030503524 484:0.04583754 489:0.1417588 504:0.044054937 532:0.095904447 561:0.036751118 570:0.048113633 580:0.15010206 598:0.043829598 603:0.044401541 625:0.046106886 628:0.045065772 643:0.033742599 656:0.04093888 684:0.038813829 715:0.051172532 730:0.039866127 774:0.093046494 810:0.061028857 814:0.046038948 881:0.094505869 886:0.035721138 895:0.21563309 900:0.12106806 906:0.097054936 920:0.27240822 930:0.036310576 963:0.035186801 1000:0.050352048 1003:0.043829598 1023:0.058540337 1026:0.057382125 1034:0.10457808 1039:0.12106806 1058:0.046523247 1126:0.044226918 1170:0.11043209 1201:0.10578252 1260:0.055368789 1320:0.17501679 1332:0.0509618 1379:0.043773953 1386:0.059383631 1404:0.11232973 1424:0.038565289 1432:0.049312558 1476:0.053397086 1497:0.050352048 1503:0.056164864 1509:0.052406959 1551:0.044401541 1613:0.047558438 1645:0.047404662 1679:0.059829935 1724:0.063888632 1751:0.056499571 1759:0.062952824 1873:0.054916572 1979:0.061284583 1990:0.055216044 2141:0.13733251 2227:0.054916572 2402:0.057200056 2403:0.062369142 2472:0.070256643 2554:0.062952824 2649:0.068666257 2745:0.068666257 2907:0.061813947 2979:0.12843697 2987:0.070840321 3095:0.065642752 3323:0.075158626 3541:0.078144141 3576:0.066427834 3776:0.070840321 3810:0.074315332 3969:0.062952824 4498:0.082202837 4512:0.068181954 4522:0.082202837 4684:0.066841677 4734:0.088570841 5094:0.079343066 5823:0.076069452 6845:0.088570841 6875:0.088570841 7641:0.091844454 7982:0.088570841 #
-0.59169660985081274 6:0.038150091 17:0.056695674 29:0.01259579 37:0.065638632 41:0.079848744 42:0.16599819 51:0.070664577 53:0.24038787 57:0.025892699 58:0.023264889 63:0.0074964864 65:0.049624208 75:0.0070288759 81:0.021116337 83:0.0089862999 85:0.04250811 111:0.021689259 138:0.029082559 142:0.0017987044 144:0.020619115 159:0.020864479 160:0.22004548 164:0.1215349 166:0.23289889 184:0.081736162 186:0.098403648 190:0.059472188 200:0.033504758 215:0.02209468 229:0.018162448 252:0.050059248 271:0.038276881 275:0.02332218 281:0.040034022 290:0.072130628 293:0.032825902 335:0.04592485 341:0.028977871 342:0.032398827 347:0.0284908 377:0.080080107 378:0.095973417 384:0.037583526 396:0.035226353 402:0.026434854 409:0.017712168 444:0.22780567 454:0.069209345 483:0.033673786 485:0.048001826 502:0.023939399 506:0.019402644 507:0.018544232 508:0.026908712 517:0.038672265 518:0.030245593 534:0.026434854 535:0.098665528 549:0.037033889 550:0.056512613 554:0.044026494 555:0.039967708 557:0.03264052 591:0.036468409 597:0.15506618 641:0.027442787 654:0.036242362 662:0.036153428 671:0.021180358 676:0.034680195 687:0.039024752 694:0.051036347 738:0.042025305 741:0.042025305 767:0.03317545 800:0.030584624 814:0.077001594 824:0.07757663 909:0.030535445 910:0.055551328 953:0.03789727 969:0.038788315 993:0.038112331 996:0.038614765 1000:0.042107698 1001:0.081305228 1007:0.16013609 1009:0.34001696 1014:0.085061409 1102:0.041545402 1146:0.039706979 1149:0.033273049 1194:0.37211859 1213:0.044128269 1227:0.07579454 1327:0.045096844 1512:0.11848267 1531:0.047391761 1535:0.051468968 1548:0.038166866 1598:0.036287144 1645:0.039642897 1707:0.039642897 1722:0.049479235 1734:0.14396013 1747:0.052157179 2057:0.054894786 2147:0.058288932 2170:0.053703722 2204:0.051692888 2217:0.06149083 2502:0.059241336 2555:0.046831831 2624:0.044026494 2807:0.047107678 3056:0.068743415 3316:0.053427875 3426:0.057018239 3542:0.18089931 3989:0.058288932 4065:0.12722856 4069:0.059755843 4188:0.057846244 4293:0.055551328 4317:0.060299769 4390:0.068743415 6486:0.07406877 6846:0.071945317 7148:0.071945317 7158:0.067472719 7643:0.076806374 7646:0.076806374 7647:0.076806374 8402:0.24199444 #
-0.25945615137236261 6:0.029253818 17:0.11955551 21:0.044242259 29:0.02656104 41:0.13470314 42:0.087511078 53:0.33794108 58:0.049059223 81:0.089057043 85:0.04481893 92:0.048279602 96:0.13593744 98:0.047440056 132:0.044356275 144:0.04348002 160:0.13257575 162:0.0396097 176:0.037908841 179:0.03986707 186:0.041501224 215:0.046591576 229:0.038299583 271:0.080715366 286:0.040979128 287:0.067884602 290:0.076051787 293:0.069220766 299:0.060543463 306:0.057389256 314:0.05836102 335:0.096842825 347:0.12015846 369:0.065398343 377:0.056288943 388:0.30420715 398:0.11376971 402:0.055743802 411:0.054791968 444:0.38430339 466:0.13515833 479:0.092627361 485:0.10122259 535:0.069352783 671:0.044663522 883:0.085280828 913:0.15266229 1020:0.093490586 1025:0.17829111 1098:0.082041584 1168:0.095096782 1194:0.22419865 1260:0.097640283 1301:0.1921517 1344:0.11575793 1375:0.091799751 1386:0.10472027 1500:0.083461687 1544:0.095826566 1911:0.19808826 1939:0.1002425 2706:0.11384537 2760:0.11509995 3248:0.11941654 3352:0.13253875 4270:0.15619056 4444:0.14496088 5573:0.14805418 #
0.74830618807488458 6:0.022258541 18:0.19858225 31:0.056558426 33:0.041057173 36:0.17006716 47:0.14046857 60:0.056314878 63:0.016037265 75:0.015036904 84:0.043544777 107:0.14194475 121:0.080075115 142:0.011543928 159:0.089270934 180:0.057175439 205:0.05870847 252:0.10709196 255:0.069057271 284:0.045057606 301:0.13449836 310:0.15229605 347:0.12190098 351:0.052653834 375:0.21039039 392:0.092324667 409:0.037891716 415:0.064552411 498:0.15247501 505:0.05337023 513:0.16656485 539:0.068931602 607:0.07278154 641:0.05870847 647:0.26807916 784:0.21857208 876:0.07160531 1245:0.14511152 1311:0.090619296 1424:0.068994336 1995:0.095996834 2022:0.53317112 2611:0.089904912 3049:0.3988564 3760:0.12114831 6226:0.15020125 #
1.0000000006239336 6:0.031007037 17:0.08448042 27:0.022571264 29:0.056305755 31:0.029545555 37:0.11003178 42:0.13913359 56:0.071565114 57:0.057872832 59:0.048134305 64:0.067232996 75:0.015710257 80:0.050472472 83:0.040170595 109:0.085306846 142:0.0060304324 160:0.14052118 203:0.058766346 216:0.067443065 229:0.040594928 242:0.054317102 276:0.060218748 314:0.061858673 337:0.059263486 409:0.079177015 439:0.083548047 485:0.053644493 507:0.041448254 563:0.11881758 655:0.058696266 671:0.047340263 717:0.078555763 1089:0.5062933 1319:0.081819631 1379:0.081819631 1626:0.11140931 2374:0.49974567 3843:0.50295651 7376:0.16555126 8716:0.17167009 #
0.15856840520188556 6:0.029858468 12:0.040256478 15:0.061378684 26:0.077541411 27:0.017388139 29:0.06506408 31:0.068282694 60:0.045325778 75:0.012102651 81:0.036359109 108:0.055280078 110:0.11526497 134:0.042769007 142:0.0061941887 165:0.057981119 176:0.030953906 215:0.038043667 286:0.033460904 337:0.091309175 346:0.049752679 351:0.042379137 373:0.042630345 384:0.064713091 387:0.042154063 389:0.050893299 411:0.089479148 457:0.041177817 496:0.050075728 561:0.052918743 582:0.050368328 625:0.066390321 643:0.048586708 644:0.1707049 719:0.064276129 772:0.05532996 774:0.066989847 987:0.048753057 1064:0.11065992 1126:0.063683316 1155:0.069515638 1296:0.18237977 1379:0.063031077 1482:0.070748195 1573:0.0770749 1788:0.07353203 2240:0.081112228 2246:0.075633511 2379:0.089806698 2450:0.098176703 2803:0.51445222 3737:0.21175565 6227:0.11836567 9226:0.60099947 9932:0.2644977 #
-0.46260712594713077 6:0.022842241 8:0.3448914 9:0.087369338 10:0.096331589 22:0.12179708 52:0.18622933 63:0.024686731 69:0.1158722 75:0.02314684 80:0.14872809 96:0.070762634 142:0.02961663 174:0.083719589 363:0.10669281 409:0.058328066 475:0.092546605 506:0.06389498 627:0.58044195 818:0.3501218 1125:0.40499175 1190:0.12359763 1471:0.1322777 1917:0.28423727 #
0.0018026962349101221 6:0.011242541 26:0.048660818 31:0.085701093 60:0.085332058 63:0.024300732 142:0.0029153547 252:0.16227287 373:0.080257535 493:0.10036626 764:0.10397879 772:0.10416631 776:0.14019744 882:0.084426194 2073:0.3256267 2103:0.36015218 2122:0.37503067 3578:0.20145793 5956:0.64526206 6484:0.24010251 #
-1.0000000006239336 6:0.029523658 15:0.050575357 26:0.19167979 29:0.053612083 88:0.11272002 134:0.10572357 142:0.015311829 176:0.15303406 192:0.1192145 238:0.2911315 373:0.1053808 409:0.075389177 420:0.15010692 480:0.10857545 561:0.13081339 586:0.10851394 755:0.15407045 772:0.13677382 987:0.24103189 1045:0.076684751 1140:0.14993566 1916:0.36059144 8511:0.68667525 #
-0.43493742746455 1:0.16355163 3:0.097612828 4:0.16564798 7:0.11889765 15:0.065602086 20:0.21602339 21:0.11583333 27:0.055753797 30:0.11509439 31:0.072981156 47:0.090628043 63:0.082775868 75:0.2328376 83:0.049613155 110:0.18479435 142:0.069514245 165:0.18591222 172:0.15015885 227:0.13610406 256:0.13030659 346:0.15952832 825:0.24774241 862:0.1842442 1595:0.23981847 2303:0.26578784 4720:0.32707009 6598:0.35578442 8752:0.38762963 #
-1.0000000006239336 6:0.03454642 11:0.25226521 17:0.023530917 18:0.046231508 26:0.14952643 27:0.012573862 32:0.12948564 41:0.019884206 47:0.020438867 63:0.074672028 75:0.026255321 88:0.098922536 134:0.061854988 142:0.021276176 154:0.031216292 155:0.044851065 159:0.02597872 174:0.031654205 176:0.044767313 192:0.034874018 205:0.068338968 227:0.030694833 229:0.022614373 280:0.045237768 283:0.032371409 312:0.03914034 317:0.025738019 345:0.063379899 346:0.035977587 357:0.039974608 377:0.066472746 405:0.041067943 416:0.084026098 434:0.074733458 437:0.077684075 469:0.099860393 472:0.039343465 478:0.033864539 498:0.044371728 502:0.029807355 506:0.024158562 507:0.069269225 539:0.040119547 580:0.0390734 599:0.040489849 633:0.04490554 647:0.19503418 671:0.026372025 730:0.04151056 755:0.090140976 757:0.041028515 799:0.0435647 827:0.036885358 959:0.04800874 965:0.043133795 966:0.043133795 997:0.16427177 1021:0.046233051 1045:0.022432718 1059:0.079169862 1066:0.057493642 1080:0.043662623 1111:0.05362029 1126:0.046051227 1140:0.35088745 1190:0.14019604 1223:0.053063914 1232:0.048892278 1245:0.084457755 1424:0.080312118 1433:0.083268397 1603:0.31268612 1731:0.05362029 1858:0.1111993 1931:0.05629275 2399:0.062781535 2401:0.58481598 2611:0.052326426 2765:0.065549552 3024:0.072576545 3592:0.073154643 5815:0.085593604 8188:0.17916068 #
-0.084625861320332174 6:0.018385641 12:0.099153273 13:0.048877839 17:0.060111262 33:0.020348033 34:0.029304875 42:0.021999827 46:0.03079007 65:0.02630689 70:0.084611416 79:0.099746048 86:0.028565396 91:0.088145681 94:0.022074495 98:0.07155709 100:0.045445051 109:0.20233099 119:0.46167883 132:0.022301869 142:0.00095353293 145:0.030856961 157:0.037263751 161:0.035884891 162:0.039830688 168:0.027309921 179:0.020044746 183:0.032349057 199:0.017188285 203:0.027876435 204:0.022074495 212:0.08326567 215:0.070277274 226:0.028512061 227:0.13068658 232:0.032638475 242:0.025765887 247:0.054110993 252:0.23883763 258:0.034869853 275:0.049454413 288:0.19095828 295:0.12488561 297:0.035921782 306:0.028854717 325:0.033019248 334:0.050246842 345:0.026984679 371:0.051378034 376:0.046895821 377:0.028301492 384:0.039847717 393:0.2302029 394:0.068512462 411:0.027548829 424:0.11361833 427:0.039061133 429:0.083927326 438:0.16400817 459:0.067178845 461:0.080473773 499:0.02738893 504:0.039061133 509:0.068263337 571:0.029021181 576:0.035995968 634:0.041312512 644:0.035037734 651:0.04757626 663:0.034414127 670:0.052460074 700:0.045466654 701:0.052848175 719:0.03957865 756:0.048823446 759:0.054337729 770:0.049510062 776:0.045854755 785:0.10345195 812:0.082374349 834:0.037054852 846:0.053251803 930:0.032194626 966:0.036729362 990:0.049510062 1023:0.051904555 1032:0.048561372 1044:0.053672254 1048:0.049945641 1059:0.033707429 1093:0.093357667 1116:0.042878311 1145:0.096611857 1253:0.090003252 1268:0.049798351 1305:0.033443831 1347:0.055554789 1362:0.0651953 1363:0.041632835 1400:0.056085929 1438:0.20351052 1440:0.04556229 1466:0.044911135 1609:0.051378034 1667:0.058897972 1722:0.052460074 1724:0.056646597 1776:0.042587947 1842:0.056362368 1929:0.050877631 1969:0.050246842 2024:0.035811514 2045:0.061800506 2219:0.052848175 2320:0.060453258 2520:0.13664913 2644:0.06004139 2663:0.11929135 2786:0.062810287 2844:0.069286183 2877:0.06004139 2944:0.060453258 2949:0.054807086 3191:0.063355789 3570:0.20234002 3714:0.066639096 3917:0.076279603 4043:0.078530982 4044:0.074440092 4677:0.074440092 4706:0.22883882 4757:0.071537562 4910:0.074440092 5609:0.076279603 5899:0.078530982 6128:0.078530982 #
-0.40201865649139495 6:0.013858396 11:0.12455004 63:0.11981959 75:0.11234557 77:0.10450039 85:0.084928192 86:0.10765753 118:0.18149334 120:0.23092018 142:0.043124206 186:0.078641407 192:0.1119185 199:0.1943381 237:0.238185 242:0.097106718 276:0.10765753 296:0.1249692 304:0.4197427 339:0.10779213 349:0.13738412 436:0.36722806 586:0.20374565 657:0.14393707 761:0.1409203 847:0.14778866 856:0.10400895 1045:0.071991593 1067:0.14740457 1271:0.17674141 1710:0.38598984 1746:0.16187875 #
0.49188971683862204 6:0.03517545 17:0.047918752 29:0.010645865 31:0.011172499 33:0.064883165 37:0.069346584 41:0.026995018 47:0.013874016 53:0.18059909 59:0.12741217 60:0.022248778 64:0.02542381 65:0.020971 72:0.018242093 79:0.05963574 83:0.0075951517 96:0.036323167 97:0.01829079 98:0.019014332 111:0.018331597 118:0.019194473 132:0.053334985 138:0.024580356 144:0.017427118 145:0.02459817 160:0.13284341 174:0.064461149 179:0.015979022 180:0.022588767 186:0.049902007 216:0.025503246 220:0.023515277 224:0.055754293 229:0.18420914 252:0.021154847 256:0.019948302 274:0.031678826 284:0.017801275 291:0.023593592 293:0.083232611 299:0.072798826 319:0.026591497 320:0.027823705 323:0.05015149 337:0.067230538 341:0.024491875 347:0.024080208 355:0.017642004 380:0.036020078 382:0.025746375 388:0.060964257 389:0.024981674 391:0.030335221 423:0.044417858 426:0.026388438 444:0.15403169 454:0.029247604 459:0.026776399 462:0.036020078 466:0.054172479 473:0.025808323 478:0.022987435 480:0.043120116 485:0.020285388 489:0.033398632 510:0.026500614 521:0.0289053 543:0.032445397 604:0.043316279 607:0.028754396 625:0.032588597 631:0.019672967 640:0.027358068 641:0.023194434 653:0.029944539 671:0.017901476 676:0.029311437 680:0.040429309 687:0.032983422 696:0.032351326 706:0.029841203 726:0.027013671 727:0.03138325 774:0.032882884 781:0.063530616 789:0.090359323 803:0.073266335 806:0.0314666 811:0.066585608 827:0.025037983 840:0.037041526 841:0.13547049 876:0.028289694 883:0.0341812 912:0.027877146 913:0.030594097 963:0.024870222 987:0.023931107 993:0.032212254 1009:0.10450172 1014:0.071893252 1035:0.035801705 1094:0.03019095 1098:0.032882884 1124:0.032588597 1168:0.038115505 1185:0.092265852 1188:0.036094204 1194:0.044930253 1201:0.11215148 1227:0.032030482 1260:0.039134961 1305:0.026660338 1327:0.07623101 1347:0.044286478 1386:0.041972674 1393:0.033560034 1404:0.039697632 1410:0.040429309 1431:0.034240123 1464:0.03747173 1478:0.093903117 1497:0.035589103 1512:0.10014065 1523:0.047244057 1574:0.089860506 1679:0.042288125 1784:0.042785782 1822:0.04166913 1875:0.045877576 1906:0.092265852 1939:0.080355898 1953:0.051452503 2024:0.028547779 2229:0.04166913 2472:0.29794666 2622:0.053122528 2623:0.053122528 2663:0.047547601 2745:0.2912021 2848:0.053766306 2926:0.050070323 2986:0.051971581 3089:0.047547601 3323:0.10624506 3518:0.090779953 3756:0.055232704 3812:0.059341233 3950:0.053766306 3958:0.50472099 3969:0.044495396 3982:0.053122528 4310:0.058101412 4639:0.056080107 4849:0.052526485 5056:0.050964903 5280:0.057027429 5573:0.059341233 6982:0.06080763 7002:0.064916156 7539:0.064916156 7990:0.059341233 9117:0.29500884 #
1.0000000006239336 17:0.065225452 27:0.01742677 29:0.065208636 31:0.022811467 34:0.047697145 36:0.045728303 40:0.037395187 42:0.035807319 48:0.036613829 53:0.046092309 67:0.033854637 72:0.074491642 73:0.19510609 78:0.045979448 79:0.16234848 81:0.036439888 83:0.015507412 118:0.039190341 126:0.056863558 142:0.003103975 146:0.21497092 165:0.1743298 178:0.096602604 185:0.034851875 209:0.037596475 216:0.26035646 229:0.062684879 232:0.053122971 271:0.13210674 274:0.25872114 276:0.046493556 287:0.11110665 306:0.093928918 308:0.044221159 337:0.04575602 355:0.072041176 367:0.051082928 387:0.042247716 389:0.051006369 402:0.045617905 411:0.044838972 444:0.078623608 478:0.046934631 489:0.27276683 543:0.066245437 557:0.056326855 597:0.053518694 628:0.065035366 757:0.056863558 827:0.10224268 842:0.086673602 856:0.044917859 862:0.05758857 864:0.089205004 881:0.13638341 886:0.051549926 895:0.062236931 920:0.23587082 930:0.052400559 936:0.070031017 952:0.055756062 993:0.065769412 1034:0.075459413 1094:0.06164242 1120:0.096460626 1156:0.083904542 1164:0.19048412 1194:0.091736414 1201:0.15265697 1294:0.13595127 1378:0.073394075 1393:0.068521246 1527:0.077822395 1706:0.090006225 1738:0.08081641 1776:0.069316916 1854:0.099823691 2185:0.07479582 2194:0.18257296 2402:0.082546607 2472:0.10138883 2666:0.08081641 2745:0.09909372 2979:0.18535011 2987:0.10223116 3070:0.093670607 3095:0.094730437 3136:0.097724453 3323:0.108463 3475:0.097080387 3541:0.11277145 3756:0.11277145 3810:0.10724603 4330:0.10724603 4512:0.098394819 #
0.45197420072350031 6:0.031250387 11:0.070214421 13:0.051924057 15:0.0089222202 17:0.085143439 18:0.013940204 25:0.019544831 27:0.0075828028 29:0.10403737 30:0.015653428 31:0.019851623 37:0.036965113 47:0.012325879 48:0.015931549 53:0.1002793 56:0.048084512 58:0.01746917 59:0.01617069 60:0.11859684 63:0.0056289714 67:0.014730959 68:0.015987102 75:0.0052778511 77:0.019637179 78:0.040013503 79:0.052981265 80:0.067824788 81:0.015855862 83:0.026990576 97:0.048749417 98:0.01689261 102:0.049628522 111:0.016286058 138:0.021837549 139:0.042609256 142:0.0020259202 145:0.021853374 151:0.020566467 159:0.015666747 160:0.51928812 162:0.014104352 179:0.014195996 183:0.091640405 185:0.03032976 186:0.014777891 190:0.022328276 194:0.020632938 199:0.012173007 203:0.019742519 204:0.015633497 206:0.02483828 215:0.016590482 216:0.045314915 232:0.069345206 237:0.022379255 242:0.018247798 243:0.024555255 265:0.024601653 274:0.14071965 275:0.017512189 286:0.014591984 292:0.10271957 299:0.021558516 307:0.025008708 317:0.01552159 327:0.087604254 331:0.020357827 337:0.11945719 341:0.04351788 342:0.048655346 345:0.038221929 347:0.021393208 355:0.015673416 364:0.024128869 367:0.022227397 369:0.023287257 373:0.018590689 375:0.018461401 383:0.031195663 385:0.027247338 387:0.018382985 389:0.022194086 408:0.015334643 426:0.023443876 441:0.018363517 444:0.034211002 448:0.02358379 454:0.025984 458:0.027417881 473:0.022928493 478:0.020422375 483:0.025285015 485:0.03604367 502:0.017975647 507:0.027849033 508:0.020205248 509:0.024172572 534:0.039698873 535:0.024695367 549:0.027808053 550:0.042434264 553:0.033290435 560:0.031022081 567:0.028259493 576:0.025492897 580:0.023563635 586:0.13400394 597:0.023287257 609:0.018441716 631:0.017477753 633:0.027080771 634:0.029258156 638:0.031806756 654:0.027213711 658:0.072256297 662:0.027146932 667:0.025083011 671:0.015903933 673:0.026331216 676:0.026040711 695:0.02570701 702:0.031022081 707:0.038647085 712:0.047828551 726:0.023999341 730:0.02503339 740:0.037289139 763:0.03016144 769:0.037861079 804:0.049064334 811:0.029577814 837:0.028259493 841:0.04011799 851:0.029577814 854:0.031313773 872:0.029719312 876:0.050265957 887:0.032908235 908:0.027699511 913:0.027180243 942:0.033694237 966:0.026012298 984:0.02986367 997:0.024766466 998:0.11529987 1002:0.038815223 1005:0.027452484 1007:0.030060798 1009:0.023210216 1014:0.12774204 1030:0.038987409 1034:0.032834187 1055:0.028416542 1061:0.033777811 1074:0.034034561 1093:0.033058669 1114:0.031870842 1124:0.057904374 1143:0.24726927 1167:0.033290435 1184:0.034300882 1216:0.027881339 1227:0.028456351 1229:0.058786809 1251:0.034211002 1263:0.035372272 1308:0.030419426 1321:0.030212298 1379:0.027487256 1382:0.034122236 1428:0.043768067 1439:0.030687077 1442:0.03916385 1446:0.027180243 1476:0.033529967 1558:0.031373568 1624:0.032983053 1652:0.031195663 1658:0.038011517 1669:0.038987409 1694:0.040985167 1697:0.035585586 1702:0.040538434 1713:0.042813927 1734:0.036032323 1739:0.041972313 1741:0.039530363 1771:0.037153032 1781:0.066117339 1794:0.042813927 1797:0.36222371 1799:0.044869542 1819:0.14459404 1836:0.055543378 1838:0.079833396 1844:0.033862375 1865:0.030908659 1884:0.03916385 1947:0.036148511 2024:0.025362264 2056:0.033947948 2099:0.037861079 2107:0.033369388 2185:0.032545444 2211:0.04011799 2229:0.074038938 2318:0.11975009 2383:0.041461706 2395:0.044869542 2403:0.03916385 2411:0.043768067 2412:0.038322236 2423:0.033611633 2472:0.044116694 2621:0.044116694 2658:0.042813927 2659:0.040538434 2745:0.043118034 2956:0.043118034 3182:0.047194831 3350:0.041712452 3624:0.045277964 3681:0.057672467 3739:0.04011799 3820:0.041712452 3958:0.04982239 4234:0.041461706 4354:0.046665296 5080:0.057672467 5280:0.050664004 5297:0.045277964 5582:0.048388507 5601:0.046172313 5629:0.052719619 5709:0.055616848 5975:0.050664004 5978:0.091422312 6016:0.05402239 6198:0.057672467 6220:0.055616848 6713:0.057672467 7020:0.098139085 7324:0.055616848 7876:0.12113939 7877:0.18170908 8182:0.05402239 #
1.0000000006239336 6:0.015898915 27:0.015431277 29:0.019247254 31:0.020199385 52:0.12962145 58:0.035550389 59:0.13163175 78:0.040714458 79:0.035939593 80:0.06901294 85:0.032477692 98:0.034377072 100:0.032748699 132:0.064284861 142:0.0013742734 148:0.046585545 179:0.028889364 185:0.030861076 199:0.024772508 216:0.046108741 224:0.1008013 229:0.11101399 252:0.076494053 253:0.057909697 277:0.047993861 291:0.042656168 299:0.087744705 336:0.04845288 337:0.040516615 355:0.063791931 377:0.040789347 380:0.065122701 382:0.046548307 444:0.069620617 489:0.241533 542:0.1506719 586:0.038957547 594:0.050743964 639:0.06097284 712:0.04866641 803:0.066231146 854:0.063724652 859:0.082944624 883:0.061798096 908:0.056369502 993:0.058238328 1001:0.12424012 1007:0.12234961 1048:0.071983844 1094:0.054583903 1168:0.06891115 1192:0.065946013 1347:0.16013598 1389:0.067588307 1478:0.33954534 1523:0.08541517 1679:0.076455057 1751:0.28879711 1910:0.06485831 2146:0.081641555 2204:0.07899037 2224:0.078313909 2403:0.079699844 2472:0.17955813 2504:0.077987127 2622:0.48021591 2623:0.096043184 2663:0.085963957 2745:0.087746747 3275:0.085963957 4028:0.098472357 4310:0.31513435 5075:0.097207099 5280:0.10310306 5946:0.10504478 #
-0.084091402317877983 6:0.031680401 17:0.069052026 34:0.05049539 37:0.029979009 42:0.037908021 51:0.043032669 52:0.051657103 53:0.19518562 59:0.039343689 63:0.041086279 69:0.064282268 75:0.038523428 83:0.049251553 96:0.078513786 100:0.039153308 105:0.20191936 142:0.0049291137 149:0.0705458 158:0.045477506 160:0.057429124 164:0.074011214 173:0.047358803 194:0.050200444 278:0.054700028 284:0.038478076 290:0.065888181 296:0.057136111 323:0.10840418 337:0.048440382 339:0.04928273 342:0.05918983 359:0.0705458 371:0.088529773 384:0.068661816 388:0.065888181 473:0.11157118 475:0.051341958 485:0.043847572 489:0.072192304 515:0.045777254 534:0.048294168 546:0.054742172 554:0.080432557 559:0.27217618 574:0.047441788 609:0.044869151 620:0.090069279 641:0.10027115 655:0.095953509 680:0.087389357 697:0.067925833 720:0.063082822 740:0.090725392 742:0.065028518 756:0.084127948 871:0.072777718 1043:0.070862859 1056:0.062218376 1207:0.072192304 1231:0.10028797 1607:0.081978917 1636:0.18496591 1645:0.072424106 2400:0.22032481 2730:0.10148742 3151:0.21645749 4522:0.12558822 5353:0.11621774 6549:0.4421027 8390:0.47825387 #
-1.0000000006239336 6:0.0083731292 12:0.056445077 33:0.046334174 54:0.062694319 67:0.094727196 98:0.054313831 132:0.050783228 179:0.045643564 215:0.053342413 218:0.047495581 224:0.079630181 271:0.092410527 318:0.40426996 341:0.069960259 394:0.15600862 443:0.13034087 448:0.075827591 453:0.081215248 531:0.094216093 542:0.23805308 591:0.088044405 603:0.089645252 745:0.11373042 786:0.13253056 820:0.12425973 830:0.29115924 874:0.11441626 1211:0.14557962 1229:0.094506912 1319:0.088378176 1339:0.10106749 1498:0.13765714 1517:0.15558076 1530:0.11373042 1574:0.12834184 1759:0.12709968 1860:0.15358174 2218:0.12425973 2293:0.12480033 2622:0.45522842 2623:0.1517428 3174:0.17369506 4182:0.17369506 4859:0.15777045 #
-0.21293873146540743 6:0.049344059 11:0.086230591 13:0.036438927 17:0.16431637 27:0.0079821153 29:0.019912001 33:0.045508996 34:0.021847082 37:0.077823408 52:0.022349704 53:0.27445608 58:0.0183891 59:0.18724467 63:0.0059253941 64:0.023776315 67:0.03101339 72:0.15353985 78:0.021060312 79:0.018590424 82:0.020562002 83:0.021308931 85:0.03359938 91:0.043809 94:0.01645676 96:0.03396938 97:0.051316574 98:0.071128719 100:0.05081962 101:0.026643539 106:0.01918862 111:0.017143687 114:0.019249117 119:0.028682189 132:0.01662627 137:0.022441996 142:0.0085304221 144:0.032595642 145:0.02300418 146:0.049232375 148:0.024097241 151:0.10824751 160:0.32301095 164:0.032021321 168:0.020359823 176:0.01420955 179:0.059774246 181:0.046277601 183:0.07234966 185:0.015963467 186:0.046668295 194:0.043438945 199:0.051256165 203:0.020782165 212:0.031037703 215:0.034928281 216:0.04770121 224:0.026070673 232:0.024332315 240:0.024678435 252:0.019783987 253:0.029954869 262:0.10262433 271:0.090764761 280:0.028717753 286:0.0153604 299:0.022693792 303:0.024493214 306:0.021511486 312:0.049693994 323:0.023450805 325:0.07384856 327:0.02305438 331:0.021429874 335:0.072600104 337:0.062873922 341:0.045809545 351:0.01945436 359:0.030521993 367:0.046795797 369:0.024513569 373:0.019569678 377:0.063297153 379:0.03348171 380:0.03368593 384:0.029706879 387:0.019351039 399:0.10339336 400:0.024155324 408:0.016142169 411:0.041075863 413:0.023702754 426:0.04935687 432:0.025751596 434:0.023721077 437:0.024657629 438:0.1528372 444:0.072025128 448:0.17378004 454:0.027352324 459:0.075123772 485:0.018970869 493:0.024472911 505:0.19719051 506:0.030672586 509:0.025445506 510:0.024783343 513:0.061541818 538:0.024020487 551:0.16203731 557:0.051599625 558:0.030431911 570:0.095409855 572:0.029706879 586:0.040303033 593:0.026403889 613:0.025353776 628:0.029788636 660:0.035295665 667:0.026403889 670:0.039109521 672:0.038302846 695:0.027060747 712:0.025173606 713:0.02741202 714:0.028369462 719:0.029506287 720:0.027293097 737:0.032303065 740:0.078505591 756:0.036398377 762:0.072996005 763:0.031749748 780:0.11124817 792:0.030082 796:0.024097241 804:0.025824038 827:0.023415493 856:0.020574065 871:0.03148764 873:0.031696592 890:0.02878939 906:0.032076832 962:0.037125178 969:0.030659171 974:0.035210673 984:0.031436298 986:0.024513569 993:0.03012486 1012:0.036598969 1025:0.033414848 1030:0.08208099 1034:0.034563243 1055:0.029912965 1068:0.06460613 1080:0.027717823 1094:0.056469079 1095:0.038695373 1110:0.13428439 1117:0.065432258 1133:0.031966217 1157:0.037574369 1184:0.036107175 1196:0.034409732 1216:0.14674789 1228:0.033755258 1245:0.026807657 1251:0.036012564 1288:0.036012564 1301:0.036012564 1313:0.035826832 1340:0.11041517 1360:0.040509328 1393:0.031385303 1436:0.036805056 1439:0.032303065 1440:0.033967152 1463:0.040340293 1464:0.035043515 1476:0.035295665 1485:0.068370372 1492:0.039547801 1497:0.033282887 1499:0.041812632 1500:0.03128434 1507:0.037574369 1547:0.036805056 1564:0.043909039 1570:0.090777278 1613:0.031436298 1625:0.037016951 1665:0.02954598 1744:0.075381972 1757:0.044466458 1782:0.033755258 1818:0.044466458 1846:0.036012564 1898:0.039398853 1923:0.040682249 1952:0.038431428 1990:0.072996005 2030:0.042230614 2067:0.034185186 2102:0.038302846 2124:0.038302846 2134:0.037346419 2143:0.086286917 2157:0.044182587 2219:0.078797705 2233:0.04161204 2238:0.042230614 2295:0.040859241 2415:0.040013213 2424:0.038431428 2468:0.040682249 2523:0.042673197 2648:0.048603758 2841:0.047232386 2861:0.046825707 2952:0.042904653 3005:0.045388639 3096:0.046072904 3248:0.044761468 3270:0.053331982 3311:0.05686722 3319:0.049122702 3540:0.046072904 3566:0.053331982 3675:0.045388639 3727:0.097207516 3753:0.051653557 3759:0.045068517 3813:0.047662314 3945:0.050282184 4207:0.045388639 4505:0.10666396 4524:0.052446049 5297:0.047662314 5379:0.060709514 6279:0.15280998 6981:0.17060167 8319:0.25503725 #
-0.49272669462377644 51:0.22830884 56:0.31034604 111:0.21022625 135:0.30627012 160:0.3046889 607:0.32975465 798:0.52612281 2251:0.48495907 #
-0.36187392863119539 6:0.018087531 33:0.20018101 53:0.069649249 56:0.16698611 59:0.11231395 72:0.11256296 73:0.098273747 92:0.05970221 142:0.018761441 146:0.24362898 293:0.085597895 377:0.069606498 390:0.082611978 409:0.046186827 433:0.073134482 463:0.11113106 475:0.073282629 580:0.081830911 594:0.086593926 762:0.12040818 767:0.086509384 774:0.10145203 952:0.16850394 1120:0.72879946 1159:0.1839246 1377:0.086257458 1383:0.26296511 1789:0.13727957 1863:0.10895296 3746:0.19314413 #
-0.94748917182368642 6:0.041439362 11:0.046553679 17:0.056451939 25:0.31100747 37:0.049017336 46:0.086747102 53:0.079784811 59:0.064329103 79:0.070255443 81:0.063076675 87:0.19302513 92:0.06839025 94:0.062192075 97:0.12928766 111:0.064788051 151:0.08181607 178:0.16721706 216:0.0901343 229:0.054253101 242:0.072592102 255:0.096424423 293:0.29416308 309:0.076241404 337:0.15840541 382:0.090993576 399:0.097683989 419:0.12602828 505:0.074520662 582:0.17476043 852:0.10281143 913:0.10812654 921:0.14030051 984:0.11880155 1011:0.12433435 1075:0.28950211 1102:0.12410039 1469:0.23459041 1516:0.16593754 1665:0.22331561 1697:0.14156407 1781:0.13151167 1973:0.16397637 2066:0.2773973 2399:0.15061629 2487:0.1856406 2631:0.15003017 3369:0.16915897 #
1.0000000006239336 2:0.036723621 6:0.013493799 17:0.024509743 20:0.025372595 26:0.21415123 27:0.013096903 29:0.016335616 30:0.13518183 32:0.033717979 40:0.056207899 54:0.03367855 63:0.20416775 64:0.039011728 75:0.13673738 83:0.058272146 84:0.079194471 94:0.02700194 100:0.027794622 103:0.042817473 110:0.043409303 134:0.064427994 142:0.062984496 150:0.078451671 154:0.032514811 176:0.023314759 185:0.026192551 205:0.035590846 218:0.02551399 227:0.03197166 231:0.048220009 234:0.032266553 264:0.037027244 286:0.050406106 308:0.033233937 309:0.033101737 314:0.035893291 317:0.026808655 387:0.031750817 402:0.034283645 408:0.13242882 430:0.03500732 457:0.031015499 473:0.039601747 508:0.069796398 510:0.04066404 518:0.039225835 565:0.047842178 592:0.044307262 676:0.044977121 683:0.054397136 686:0.053192127 716:0.043067645 757:0.085470393 799:0.045376882 827:0.038419694 867:0.039538294 871:0.051664323 918:0.052007165 965:0.044928048 966:0.044928048 997:0.085552529 1045:0.023365863 1129:0.052449558 1363:0.10185214 1366:0.048742481 1446:0.046945307 1931:0.058634385 1980:0.055850755 2106:0.061094455 2422:0.14322408 2490:0.36973783 2682:0.066189587 2744:0.061842654 3880:0.40757102 4720:0.61464584 6598:0.083575904 #
0.36759973419723563 6:0.022950193 15:0.019657359 26:0.074501075 28:0.042368896 29:0.020837657 31:0.043736923 41:0.026419315 63:0.0248034 88:0.043811414 106:0.040161297 140:0.040544249 142:0.0074391495 154:0.041475784 159:0.034516841 185:0.03341113 296:0.051738802 312:0.052004136 377:0.044159777 389:0.048897814 405:0.054565262 448:0.051959604 502:0.039603788 506:0.032098472 507:0.030678375 531:0.32280007 539:0.053305168 541:0.059164304 593:0.05526267 697:0.061509285 726:0.052875139 755:0.11976656 757:0.054512873 774:0.064363226 799:0.1157652 827:0.049008034 880:0.13497958 947:0.41878638 987:0.046841491 1118:0.073872939 1411:0.072667979 1688:0.077252232 1731:0.07124304 2024:0.05587792 2171:0.1587722 2401:0.38851029 2449:0.28807482 2723:0.14958766 2740:0.083090596 3767:0.091900513 4468:0.34117395 4530:0.28298181 5557:0.10660914 6734:0.25412697 7985:0.11162249 #
0.46974205363477772 4:0.025984826 6:0.018022032 11:0.026995007 20:0.033887099 26:0.052002884 28:0.0443612 63:0.090894043 75:0.060874514 83:0.031130817 102:0.057241328 142:0.026482461 158:0.043117989 159:0.03613992 218:0.068151884 255:0.11182695 276:0.14000231 304:0.1364627 312:0.054449517 317:0.035805073 339:0.093451574 345:0.044085015 346:0.10009939 351:0.042632136 363:0.056118872 373:0.042884842 386:0.047844224 398:0.046725787 399:0.056643855 405:0.057131074 408:0.035373826 472:0.054732092 475:0.048678175 496:0.15112402 587:0.076085031 631:0.080635063 709:0.10477839 726:0.05536148 867:0.052806508 1043:0.067186274 1064:0.055660274 1808:0.1208043 2306:0.084504999 2376:0.50032246 4396:0.23814461 5953:0.11492987 7374:0.23374259 8201:0.64148241 #
0.16627021261894967 6:0.011397507 31:0.065161794 60:0.043254133 63:0.012317846 68:0.034984484 75:0.011549492 83:0.014765831 96:0.035308164 138:0.047786985 142:0.0029555396 159:0.034283452 179:0.031065019 180:0.087830216 200:0.16515994 229:0.059687223 245:0.065891601 265:0.05383566 346:0.047478698 408:0.033556711 507:0.030470941 513:0.085289694 535:0.05404073 553:0.072849266 850:0.052239221 987:0.046524767 1008:0.074100845 1149:0.054672588 2102:0.079624839 2187:0.079624839 2369:0.14857621 2421:0.54767472 3298:0.17384212 5187:0.11821689 5881:0.48682413 6728:0.378613 6799:0.36511812 6800:0.12170603 #
1.0000000006239336 2:0.044358421 4:0.047001407 5:0.061005361 6:0.032598291 15:0.037228227 26:0.047031462 29:0.039463542 48:0.066474855 63:0.14092229 75:0.11010995 106:0.076059751 142:0.039448317 154:0.078549206 169:0.15841092 186:0.061661188 187:0.10132159 189:0.1626261 192:0.087753102 218:0.061636638 229:0.22761717 339:0.084517695 357:0.10058766 434:0.094025485 472:0.098999523 480:0.07992176 496:0.27335346 507:0.058100455 510:0.098236091 565:0.23115405 579:0.12759098 671:0.066359632 761:0.11049283 764:0.10049717 795:0.12873344 987:0.088711083 1045:0.056447197 1433:0.10476366 1446:0.11341037 1590:0.16739349 1711:0.15797646 1918:0.15736172 1936:0.29260936 1980:0.13492413 2163:0.13731056 3236:0.48802832 3781:0.19930826 5918:0.22541 #
-0.1260063149545762 6:0.015604131 27:0.13630646 41:0.14370266 77:0.35299274 83:0.080862582 106:0.43689889 114:0.10956908 118:0.10217798 120:0.13000454 125:0.1672838 142:0.040463783 194:0.12363075 207:0.36906594 234:0.11193842 351:0.11073736 685:0.16491058 805:0.20341313 827:0.13328476 1109:0.43180501 1381:0.23917735 2374:0.25149441 #
-1.0000000006239336 6:0.017015293 63:0.036778525 85:0.10427456 108:0.15751089 142:0.01323694 169:0.12402836 180:0.13112138 189:0.2546573 229:0.17821364 387:0.1201106 510:0.30765712 852:0.16886038 853:0.18005373 1262:0.2621226 1980:0.4225572 7109:0.36338893 8229:0.37681988 8915:0.37681988 #
-1.0000000006239336 4:0.048024472 6:0.033307847 20:0.062629253 29:0.12096761 31:0.042317227 83:0.02876758 88:0.1695572 142:0.0028790701 205:0.0878518 228:0.16793777 252:0.080126606 382:0.097517595 391:0.11489842 398:0.08635737 408:0.065376982 430:0.086411431 496:0.093101151 507:0.059365112 508:0.17228416 534:0.084625125 587:0.14061837 631:0.074513808 806:0.11918364 853:0.11748651 950:0.12098095 987:0.090642035 1064:0.10286985 1751:0.15125576 1863:0.13375655 2067:0.13845253 2264:0.15080445 2965:0.16934425 3767:0.17783485 4286:0.22006631 4530:0.18253084 5003:0.19895057 6638:0.63723111 8428:0.23711419 #
-0.073923295162083111 1:0.20554368 2:0.13098133 3:0.081783354 4:0.069392763 5:0.18013632 7:0.099616498 15:0.054963663 20:0.45247936 21:0.097049117 47:0.075931258 63:0.069352441 75:0.065026425 142:0.0624015 143:0.14136027 187:0.29918188 189:0.12005039 229:0.084013358 284:0.097424805 856:0.12040225 1936:0.21600388 3236:0.48034921 4577:0.31798387 8260:0.34261715 #
-0.99594806254656065 2:0.095283255 4:0.025240116 5:0.032760344 6:0.011670354 15:0.019991843 18:0.03123554 20:0.13166367 26:0.10102502 29:0.063576676 30:0.035074327 31:0.04448114 63:0.075676344 75:0.070955865 83:0.030238625 114:0.040973444 142:0.030262928 169:0.12760182 215:0.037173964 218:0.13239738 227:0.041476898 228:0.044131339 229:0.030558042 234:0.041859459 286:0.032695968 308:0.04311445 339:0.04538665 348:0.057970684 377:0.089822382 408:0.068720065 411:0.13115041 457:0.040236466 461:0.063851282 510:0.052753534 537:0.065260753 586:0.085788563 608:0.063672386 609:0.041321989 631:0.039162055 636:0.23871341 643:0.047475986 644:0.16680248 826:0.076066501 873:0.067468993 993:0.064123422 1064:0.10813016 1155:0.13585295 1265:0.074949026 1296:0.11880697 1576:0.12936398 1936:0.15713347 1980:0.072455294 2010:0.085515983 2246:0.073904485 2461:0.19934529 2666:0.078793846 2753:0.082948789 3287:0.098851405 3784:0.098851405 4321:0.38645491 5600:0.11352183 8187:0.2420938 8420:0.24923915 8422:0.49847829 8963:0.12922555 #
0.63502379149667909 6:0.036053032 11:0.048603099 15:0.037056282 18:0.038598172 25:0.027058238 27:0.041991111 28:0.026623342 29:0.026187515 37:0.051175211 42:0.021570103 53:0.11106288 56:0.066569127 59:0.022387015 63:0.023378568 64:0.062539436 68:0.088531405 75:0.021920277 79:0.097797707 80:0.023474485 83:0.018683136 92:0.047600649 96:0.022337627 97:0.022496544 142:0.013088706 144:0.042868562 160:0.26142269 174:0.052855492 176:0.018687867 178:0.029096402 179:0.039306421 185:0.020994551 186:0.020458797 189:0.026979161 199:0.016852545 203:0.027331924 204:0.021643313 208:0.081032149 209:0.022647882 215:0.022968182 216:0.031367421 226:0.027955133 239:0.030566176 262:0.033741914 283:0.027026532 286:0.080805689 293:0.034123659 306:0.028291097 323:0.030841619 327:0.030320255 330:0.10756841 331:0.028183766 337:0.1378157 341:0.030123495 346:0.12014915 347:0.05923434 359:0.040141378 364:0.033404469 373:0.025737306 377:0.027748678 387:0.076349273 396:0.036619004 399:0.067989536 409:0.018412409 455:0.026324006 465:0.030657141 466:0.033314403 478:0.028273128 505:0.077801265 507:0.01927737 521:0.035551738 535:0.03418874 586:0.026502518 625:0.040081967 626:0.068053663 655:0.02729933 667:0.034725402 671:0.022017712 686:0.04263597 695:0.10676783 696:0.039790135 702:0.085895129 712:0.033107381 719:0.038805559 733:0.040692795 754:0.043945953 792:0.039562717 793:0.043269295 796:0.031691786 804:0.033962805 827:0.030795176 890:0.037862722 986:0.064478651 1009:0.12853068 1033:0.043187875 1101:0.046419531 1143:0.042790543 1162:0.041826483 1175:0.038199719 1189:0.049116608 1194:0.055261441 1195:0.048542984 1250:0.048683301 1272:0.13667637 1308:0.042113237 1338:0.091117583 1373:0.041826483 1377:0.03438659 1411:0.045662377 1469:0.3673766 1489:0.084519587 1499:0.054990403 1547:0.048404627 1561:0.048000801 1639:0.097366601 1651:0.098832794 1665:0.23314656 1688:0.048542984 1802:0.10747308 1806:0.049569771 1808:0.10875092 1809:0.056426585 1816:0.039619084 1863:0.043434169 1890:0.11938687 1897:0.096267171 1949:0.13458769 1954:0.051068947 1969:0.04926537 2056:0.046998195 2058:0.053974919 2154:0.04926537 2229:0.15375139 2575:0.050208203 2593:0.11285317 2779:0.054219186 2858:0.32531512 3101:0.054990403 3349:0.054990403 3401:0.10893928 3624:0.062683687 3739:0.055540118 3779:0.062683687 3904:0.061583411 4781:0.065337434 5056:0.062683687 5217:0.063921839 5406:0.13067487 5482:0.062683687 5494:0.064604335 5589:0.074789636 5740:0.064604335 5774:0.072986051 5893:0.07014022 6539:0.072986051 6978:0.07014022 7075:0.079842873 7163:0.079842873 7835:0.25156155 8275:0.079842873 #
0.9835217691307806 6:0.01282695 11:0.096066751 26:0.037012383 27:0.012449668 29:0.015528327 52:0.069717452 63:0.027725428 72:0.079825133 75:0.017330661 84:0.025093589 88:0.06529697 97:0.053358812 118:0.02799754 142:0.0066524297 151:0.10129988 176:0.022162568 185:0.024898143 218:0.024253115 237:0.036742914 242:0.029959768 304:0.064750381 309:0.031465884 310:0.043881893 317:0.0254838 328:0.086756624 337:0.032688055 341:0.035724465 357:0.039579771 377:0.032908089 480:0.031448044 493:0.038170286 501:0.044461999 558:0.047464509 561:0.037889089 628:0.046461198 643:0.034787409 655:0.03237519 717:0.043329123 913:0.04462532 936:0.050030086 1005:0.045072291 1026:0.059158921 1066:0.056925766 1266:0.11649808 1319:0.045129381 1359:0.094929017 1535:0.063451916 2024:0.041640509 2402:0.058971211 2723:0.055736739 2873:0.061682522 3141:0.074338689 4292:0.073033832 5631:0.088695541 5817:0.075807057 7361:0.080563813 9208:0.75303781 9387:0.29833531 9388:0.29833531 9632:0.29833531 #
1.0000000006239336 6:0.011008536 11:0.19787478 20:0.041399032 23:0.026395623 40:0.022927815 68:0.022527026 75:0.0074368888 83:0.0095079364 85:0.022487812 91:0.058642063 92:0.048448395 98:0.071408868 132:0.044511348 142:0.0076124626 162:0.019874092 172:0.086329974 180:0.028277587 218:0.020814868 237:0.03153405 274:0.039656911 284:0.0222844 293:0.034731384 304:0.027785517 346:0.030572237 377:0.028242869 399:0.034600198 404:0.030815395 408:0.021607663 411:0.027491765 448:0.033231333 457:0.025303118 465:0.03120313 502:0.025329035 540:0.041481849 575:0.038299002 587:0.0464756 663:0.03434284 695:0.036223106 697:0.039338935 797:0.10845035 804:0.034567665 819:0.036855061 837:0.039819747 852:0.036416363 853:0.038830318 909:0.032307968 953:0.040097132 1003:0.038780842 1005:0.03868261 1064:0.067998774 1093:0.046582147 1129:0.042789493 1190:0.079421796 1239:0.04912781 1471:0.042499732 1477:0.30378273 1892:0.048722316 1939:0.050296482 2067:0.045759775 2311:0.054456644 2523:0.057121694 3523:0.057751179 3716:0.067306966 6176:0.29714361 7370:0.081264831 9260:0.46163091 9262:0.64628327 9389:0.1706945 #
1.0000000006239336 6:0.013005709 31:0.049570799 48:0.079564236 142:0.0033725698 176:0.067414291 221:0.12380611 238:0.25649747 373:0.092844322 409:0.066420615 420:0.13224967 671:0.079426318 799:0.1312066 1001:0.15244727 1045:0.067562059 9619:0.90747887 #
0.49494930547009958 6:0.016971778 15:0.058146849 26:0.036729269 42:0.10154016 63:0.018342234 88:0.12959501 96:0.052576616 102:0.080858298 140:0.059965335 142:0.0044010296 161:0.082813323 345:0.062273867 587:0.10747664 755:0.088567942 952:0.07905478 8689:0.18792811 8691:0.93964052 #
-1.0000000006239336 6:0.035184376 15:0.024108971 29:0.051113117 40:0.04396775 63:0.015210193 68:0.043199174 69:0.2141764 81:0.042844549 98:0.091291949 100:0.043483816 132:0.042678814 142:0.0054742927 179:0.076718763 198:0.061271291 218:0.039915837 254:0.20373748 265:0.066476785 276:0.054665245 285:0.07504262 291:0.056638986 299:0.05825384 306:0.055218916 309:0.051786631 312:0.063781008 326:0.082055688 337:0.053798079 346:0.1172543 355:0.042351551 359:0.078348443 373:0.050234392 405:0.066922128 408:0.12430844 410:0.089535214 423:0.053314954 427:0.074750811 431:0.078465104 468:0.094210431 483:0.20496994 493:0.062820747 513:0.052658264 515:0.050840396 644:0.067051277 685:0.14873692 698:0.079059243 713:0.070365295 724:0.2470189 729:0.075741172 774:0.078938946 837:0.076360732 853:0.074463338 861:0.093947731 871:0.080827214 873:0.081363581 936:0.082339637 1003:0.074368462 1266:0.095866412 1296:0.071637057 1305:0.38400626 1359:0.078117207 1380:0.072476663 1395:0.075140879 1411:0.089124389 1591:0.083519109 1647:0.10681605 2041:0.11074711 2256:0.10681605 2379:0.10582568 2385:0.11074711 2423:0.090822883 2575:0.19599399 2736:0.1839314 2752:0.12609555 2804:0.1839314 2824:0.10271193 2916:0.13259211 3149:0.12019926 4050:0.10953998 4117:0.14597534 4495:0.13259211 4985:0.13259211 5516:0.12019926 5657:0.15583831 6854:0.15583831 #
-1.0000000006239336 6:0.029843872 15:0.081798241 27:0.01737964 29:0.086709701 77:0.045008041 96:0.036981151 142:0.0030955803 145:0.050087519 160:0.054099929 199:0.055800602 205:0.094458379 306:0.046837442 383:0.64349878 408:0.070293419 411:0.089435406 413:0.05160854 414:0.044101559 478:0.046807695 507:0.03191473 513:0.044665463 528:0.062450379 535:0.056601308 658:0.055203352 697:0.063988134 733:0.13473825 881:0.068007283 884:0.06162193 890:0.12536758 1036:0.13494754 1059:0.054714441 1124:0.33178931 1273:0.080136478 1627:0.079687759 2369:0.1556161 2692:0.3898406 2834:0.21165213 3084:0.10582606 3370:0.10111463 3559:0.10948054 4650:0.099553712 5005:0.20568028 6651:0.13218419 #
-1.0000000006239336 6:0.010728545 11:0.096421026 12:0.072323442 15:0.036756963 29:0.038963985 40:0.067034006 108:0.099314339 142:0.005564136 144:0.12756689 145:0.090029575 204:0.064405479 231:0.11501517 278:0.092620626 320:0.10183506 405:0.10203066 478:0.084134266 505:0.077172838 531:0.24143936 565:0.11411396 582:0.090490051 764:0.19845 882:0.080566324 917:0.13051359 1045:0.055732645 2164:0.13847019 2571:0.14283925 2902:0.15362045 2941:0.15419206 3610:0.30954999 4201:0.17517929 4473:0.19442903 4871:0.36349601 7018:0.22255659 8961:0.23759384 9894:0.4990592 #
-1.0000000006239336 6:0.027838709 15:0.019075586 29:0.040441904 54:0.041688807 63:0.012034663 83:0.01442637 86:0.043252431 94:0.066848405 97:0.069483727 98:0.036116172 142:0.0072189826 154:0.040248279 160:0.05046504 218:0.063164704 226:0.086343348 264:0.13750191 276:0.043252431 307:0.10693655 336:0.050904058 339:0.043306507 373:0.039746638 390:0.050859585 404:0.046756126 496:0.046688382 502:0.038431685 505:0.12015005 523:0.065262645 530:0.045770179 572:0.06033561 704:0.076792173 742:0.057142898 764:0.051494323 772:0.051587194 829:0.041303858 882:0.12543336 950:0.060669545 1036:0.062940314 1198:0.066324785 1242:0.070678979 1275:0.084118553 1339:0.067205176 1440:0.06898836 1482:0.065962471 1590:0.085771717 1613:0.063848116 1627:0.07433366 1691:0.078055449 1919:0.081268102 1995:0.072037823 2047:0.076551586 2161:0.073926255 2163:0.070357352 2227:0.073726557 2402:0.30716869 2532:0.1631933 2837:0.083731771 2866:0.076314732 3051:0.083731771 3778:0.092864849 5093:0.19953954 5565:0.1009019 5817:0.098715775 6766:0.10491001 6779:0.71344841 7029:0.11035889 7458:0.11890806 8888:0.11890806 #
-0.65718151502196998 6:0.007301847 18:0.01954329 22:0.038934164 27:0.010630613 42:0.021843046 57:0.05451389 65:0.026119415 83:0.0094597731 98:0.071047142 118:0.071720235 142:0.0028402128 148:0.032092806 168:0.027115297 171:0.28410682 208:0.027352503 233:0.1727019 240:0.032866843 253:0.039894018 287:0.10166529 291:0.029385855 322:0.063281626 325:0.032783937 327:0.030703917 355:0.043946289 382:0.03206715 403:0.042284444 466:0.033735953 478:0.028630886 492:0.17766184 502:0.025200728 512:0.062362667 557:0.17180148 580:0.066069476 631:0.024502711 641:0.028888704 684:0.068337746 764:0.033766262 767:0.034923412 870:0.12004487 876:0.035234857 932:0.049589705 952:0.10203631 1035:0.044591077 1036:0.12381516 1061:0.047354374 1146:0.041799076 1500:0.041664612 1551:0.039087888 1596:0.071027748 1609:0.05101189 1625:0.049299326 1626:0.052471552 1788:0.044955388 1863:0.043983772 1910:0.044680919 1960:0.071027748 2230:0.45441598 2264:0.049589705 2381:0.21308325 2456:0.051534656 2537:0.32943153 2548:0.050843526 2592:0.049443465 2608:0.064730681 2741:0.057140592 2968:0.055686235 3013:0.069847867 3021:0.33483008 3210:0.25474474 3211:0.25474474 3295:0.068792418 3442:0.14473079 3745:0.077971332 5026:0.16982982 #
1.0000000006239336 6:0.023760097 11:0.05338499 15:0.02035106 20:0.16753678 30:0.035704549 54:0.044476297 63:0.064196758 64:0.051519357 75:0.060192343 80:0.038676087 81:0.036166288 83:0.030781958 114:0.041709661 142:0.018484019 151:0.046910901 176:0.030789752 178:0.047938645 179:0.032380234 213:0.061325114 218:0.067388162 220:0.047651861 229:0.062214229 278:0.051280838 284:0.036072887 314:0.047401115 317:0.035403833 322:0.051479358 339:0.046202164 345:0.043590985 367:0.050699387 375:0.042109367 404:0.099764884 408:0.034977417 412:0.060540359 455:0.043370899 507:0.031761002 508:0.046086982 530:0.048830569 631:0.039865725 662:0.061920553 796:0.052214749 808:0.061996538 844:0.065090388 853:0.0628566 884:0.061325114 886:0.051162876 912:0.05649085 987:0.04849451 991:0.063099258 1010:0.13227224 1056:0.058329232 1359:0.065940931 1366:0.064369902 1389:0.075755395 1418:0.075404882 1445:0.091979221 1730:0.083846495 2298:0.082995951 2461:0.81170863 2611:0.071977414 2642:0.082452625 3085:0.10764863 3565:0.10234479 3700:0.096351482 4020:0.096351482 4050:0.092465781 4190:0.10146358 4237:0.1064408 5323:0.11773795 7766:0.12685876 8160:0.12685876 #
0.04296188695350063 6:0.024006149 15:0.05483149 28:0.11818219 68:0.049124353 72:0.049798641 77:0.060340125 81:0.048721086 83:0.020733817 142:0.0041500959 172:0.062752828 176:0.041478131 179:0.043620735 205:0.06331791 245:0.092523366 346:0.13333684 507:0.042786546 571:0.063154973 586:0.11764585 768:0.10000397 1681:0.23750558 1936:0.21548444 2825:0.10805366 3470:0.15077838 4006:0.13668574 4250:0.17721301 4811:0.13668574 4900:0.14045891 6283:0.17089662 9206:0.80533731 #
1.0000000006239336 6:0.029281948 12:0.15791675 27:0.034104802 29:0.12761559 30:0.14080733 31:0.022321422 33:0.032407355 39:0.23527664 41:0.053933069 42:0.035038091 57:0.043722443 63:0.063292876 75:0.035606902 83:0.060697101 84:0.034370877 86:0.090989523 88:0.044718873 108:0.27106354 142:0.042522117 165:0.056861594 168:0.043495227 186:0.033232901 195:0.081557304 218:0.033219673 228:0.088583536 229:0.030669129 231:0.25113326 239:0.24825574 286:0.065629654 296:0.052810464 316:0.15956828 317:0.034905348 350:0.17096254 351:0.041560862 385:0.061274514 408:0.034484942 427:0.062210828 457:0.040382735 502:0.040424097 507:0.093941435 508:0.045438081 534:0.044637922 537:0.065497994 546:0.050597765 567:0.063550681 576:0.057329085 582:0.098791584 643:0.047648575 655:0.044344541 674:0.07754875 686:0.069257103 709:0.051072739 758:0.061350491 811:0.066515349 829:0.04344517 1248:0.075403057 1254:0.080520242 1407:0.071385019 1511:0.070689291 2001:0.076734968 2151:0.089325428 2241:0.08182738 2270:0.086180031 2726:0.58607543 3711:0.11855724 3972:0.10090379 4741:0.10383348 4885:0.11608021 6331:0.10881732 7863:0.13621069 8288:0.12969533 #
1.0000000006239336 6:0.021578707 12:0.2182001 20:0.030431079 39:0.43345526 41:0.049681034 42:0.064551435 47:0.02553343 63:0.12826642 75:0.054666143 82:0.080927931 83:0.11182359 84:0.031661104 86:0.083815992 108:0.099877246 110:0.052063726 114:0.037880339 140:0.11436406 142:0.089530766 173:0.040322319 176:0.027962975 181:0.045534845 211:0.053652156 215:0.034367684 218:0.12240265 227:0.038345784 229:0.084753603 239:0.045736697 268:0.31145239 276:0.041907996 283:0.040440265 286:0.030227734 296:0.1459408 309:0.039701164 316:0.36747012 317:0.064306885 345:0.11876682 346:0.044945307 350:0.39371002 355:0.032467954 365:0.057158895 370:0.063796937 389:0.045975719 408:0.063532352 437:0.04852375 455:0.078778125 457:0.074397989 477:0.057680935 507:0.028845057 509:0.050074216 534:0.041118708 537:0.12066837 548:0.1221582 560:0.06426318 609:0.076405145 612:0.062798671 631:0.036205694 655:0.040848456 684:0.050488606 706:0.054919086 780:0.054731321 789:0.055431765 848:0.059624974 891:0.075886644 893:0.16980402 987:0.088084556 1069:0.085889183 1128:0.081129096 1335:0.17396317 1782:0.066426978 2116:0.081503853 2301:0.095647343 #
0.46535890215182252 6:0.027790857 30:0.027841076 31:0.017653979 58:0.031070542 80:0.030158171 81:0.084603369 85:0.028385047 132:0.028092034 142:0.004804383 185:0.026972149 220:0.14862859 231:0.049655233 299:0.038343824 309:0.03408698 339:0.10808018 408:0.054548178 411:0.034701243 423:0.03509295 430:0.03604928 502:0.063942716 510:0.12562309 518:0.040393356 565:0.049266156 663:0.043348957 781:0.050193254 827:0.03956322 844:0.050755061 885:0.064934403 953:0.050612263 991:0.049202453 1010:0.30942291 1064:0.042915437 1273:0.062186457 1334:0.071721971 1463:0.13631931 1576:0.05134286 1614:0.058530349 1980:0.17253929 3050:0.14420274 3819:0.093766741 4370:0.07668943 4841:0.16424349 4930:0.57485223 5100:0.088613749 6990:0.093766741 7188:0.10257584 7875:0.43091533 8706:0.10257584 9153:0.34961379 #
-1.0000000006239336 6:0.033503726 12:0.15057057 18:0.059781503 27:0.032518271 29:0.081119336 31:0.042566087 39:0.11216587 42:0.066816285 57:0.083377011 75:0.022633664 108:0.10338154 110:0.10778087 142:0.023168011 180:0.17212182 185:0.065033436 215:0.071147017 283:0.0837183 284:0.067821056 316:0.30429056 350:0.16300949 367:0.0953205 404:0.093784556 423:0.08461377 537:0.12490214 561:0.098965511 668:0.16111347 888:0.16719455 987:0.091175087 1190:0.12085742 1335:0.12004457 1410:0.15403157 1954:0.1581929 2620:0.20239145 2948:0.19800645 3277:0.21365952 4535:0.20484418 6584:0.51949704 7674:0.24732399 8201:0.23850863 #
-1.0000000006239336 6:0.014909023 12:0.15075743 15:0.02553983 27:0.043411501 28:0.11009561 42:0.04459947 63:0.016112914 74:0.061110824 75:0.015107834 86:0.057909612 108:0.41403931 142:0.007732254 158:0.0535051 172:0.11691798 173:0.055718482 174:0.054643381 185:0.13022828 198:0.064907722 231:0.079915956 256:0.050730214 260:0.093987763 316:0.10155606 345:0.054705083 350:0.10880785 367:0.063625857 404:0.062600628 462:0.091602094 499:0.055524606 565:0.079289772 827:0.063673705 884:0.076960757 916:0.090328999 1069:0.11868402 1273:0.10008392 1315:0.11370102 1755:0.11543053 2152:0.12014563 2528:0.085764863 3277:0.14261645 4882:0.15090975 6460:0.69352233 6529:0.16508727 6530:0.16508727 #
-0.73155689069053376 6:0.015761774 11:0.035414089 12:0.26563382 29:0.028621847 39:0.15830475 58:0.052865606 83:0.020419877 98:0.05112081 108:0.14590704 140:0.055690099 142:0.022479918 225:0.075093493 284:0.04785946 297:0.076988198 350:0.23006266 411:0.059043139 451:0.08950907 537:0.088140018 572:0.085402332 727:0.084375158 893:0.24806054 922:0.11202917 977:0.10835532 1059:0.072242364 1210:0.12623119 1225:0.14059469 1258:0.13461612 1315:0.12020437 1331:0.17817836 1335:0.084712155 1487:0.11851855 1745:0.12868178 2056:0.10273407 2397:0.28910583 2719:0.13578525 2780:0.14849539 3462:0.1412196 3701:0.52358925 5264:0.33661801 #
-0.81473154008412207 6:0.012583463 15:0.021556042 29:0.022850344 73:0.27347553 117:0.12991232 131:0.16707823 142:0.019578453 172:0.049340356 180:0.048484653 181:0.053106621 202:0.15624864 218:0.035689101 260:0.15865447 295:0.053421222 301:0.057027161 311:0.16124056 316:0.51428998 360:0.077472799 409:0.032132097 434:0.05444302 457:0.043384638 507:0.033641566 631:0.042226166 724:0.073620588 730:0.060480546 775:0.52086478 1045:0.032684289 1132:0.097425289 1225:0.056122113 1226:0.099586032 1548:0.069239482 1626:0.090425603 2044:0.23710355 3680:0.13437004 3885:0.11274313 5749:0.29267219 6245:0.13933639 #
-0.029012139481382086 6:0.025438931 12:0.128617 17:0.0346549 27:0.037036031 34:0.05068389 39:0.51099622 55:0.12774906 75:0.19333617 82:0.095405161 85:0.19487125 108:0.058872163 110:0.061377428 111:0.039772298 120:0.15895678 125:0.068179399 140:0.044940896 142:0.061019339 176:0.16482641 186:0.036089193 191:0.16416641 195:0.088566966 204:0.038178675 211:0.37950006 215:0.040515736 296:0.057349399 321:0.16888399 332:0.1633732 339:0.049466703 399:0.059966564 408:0.037448842 446:0.07847245 457:0.04385354 555:0.073290087 557:0.059853982 561:0.056357391 583:0.20018034 641:0.05032273 654:0.066458799 842:0.092101008 961:0.10863276 972:0.43453103 1045:0.03303754 1391:0.080365434 2226:0.10529885 #
0.015018825646513986 6:0.011485798 15:0.078702763 28:0.084816821 57:0.085750297 63:0.024826532 75:0.023277922 80:0.074785173 142:0.0089353044 159:0.069098063 182:0.11679433 199:0.053688951 204:0.068951413 245:0.13280407 317:0.068457842 337:0.2634325 436:0.10145251 496:0.19262867 1294:0.26090541 4947:0.21642081 7015:0.22345318 9689:0.80142647 #
0.61135310143387545 6:0.019224815 15:0.043910637 26:0.055473536 27:0.018659351 33:0.035461292 34:0.051070724 53:0.049352378 63:0.027702937 64:0.055580586 75:0.025974903 80:0.041724894 88:0.048932999 142:0.0066470332 192:0.051752325 205:0.050706808 265:0.060538419 337:0.048992302 351:0.045477387 398:0.099688493 535:0.060769022 804:0.060367431 993:0.14084245 1126:0.068339072 1248:0.082508735 1527:0.083326705 2340:0.088952303 2692:0.52318209 3237:0.10264374 4650:0.21376826 4822:0.11613449 6342:0.13293537 6763:0.13293537 8364:0.14191729 8705:0.70958644 #
0.014781762940792944 6:0.041078601 15:0.070369504 26:0.088899761 29:0.14918947 63:0.022197831 75:0.020813191 81:0.062527545 96:0.06362839 134:0.14710157 142:0.0053261397 176:0.0532321 178:0.33152261 199:0.048004217 204:0.061650645 215:0.065424517 240:0.18490171 256:0.069888085 279:0.11627407 294:0.098140076 373:0.29324928 387:0.072493248 411:0.076939613 457:0.070814379 574:0.076894641 582:0.086619504 643:0.083555609 644:0.097854964 645:0.13066813 693:0.12211096 872:0.11719802 1155:0.11954755 1192:0.12779033 1294:0.23328003 1296:0.10454748 1380:0.1057728 2163:0.12977351 2866:0.14076185 3051:0.15444252 3930:0.17855352 5222:0.18026181 6455:0.20789966 6638:0.3929489 7443:0.19979334 7963:0.21932487 8280:0.22743119 #
0.47258995079332083 6:0.050706722 11:0.1519061 15:0.028954301 29:0.092078462 31:0.032211147 40:0.10560845 63:0.073068328 75:0.051382892 81:0.10291057 96:0.052361198 142:0.019723488 154:0.061091743 158:0.060658306 176:0.043805864 179:0.046068709 180:0.065125093 185:0.049212918 189:0.12648265 199:0.079007447 229:0.044257388 240:0.076079831 278:0.072959386 320:0.080217816 324:0.089543216 375:0.1198215 377:0.065045133 405:0.080371886 409:0.04316017 434:0.073128439 469:0.097715728 477:0.090361029 499:0.1258956 505:0.060790811 547:0.21215986 580:0.22940542 594:0.080919363 628:0.0918338 631:0.056718629 742:0.086735621 837:0.091707431 884:0.087249801 903:0.094094619 930:0.073992699 966:0.084414855 997:0.080371886 1380:0.087042756 1448:0.10607993 1466:0.10321897 1731:0.10493741 2134:0.11513329 2163:0.10679347 2164:0.10907613 2448:0.12488405 2722:0.11656071 5058:0.31002453 5153:0.133765 5620:0.15315621 6710:0.18715812 9405:0.58968055 #
1.0000000006239336 4:0.01820913 6:0.033677656 11:0.28375536 29:0.10702185 42:0.025186183 86:0.032702681 97:0.052535865 98:0.027307032 118:0.027565736 122:0.045311041 144:0.02502759 151:0.033245847 179:0.022947935 199:0.019677758 203:0.031913932 205:0.066620395 237:0.036176231 243:0.039693754 255:0.039181933 258:0.039920244 276:0.032702681 277:0.038123377 281:0.048593506 286:0.02358805 308:0.24883454 309:0.030980591 328:0.042709295 373:0.030051988 375:0.029842991 387:0.029716235 399:0.039693754 436:0.03718378 448:0.038123377 455:0.061474085 484:0.046528026 490:0.043565292 496:0.10590169 499:0.062711641 504:0.044718571 505:0.21196958 510:0.076116599 513:0.12600812 538:0.03688683 550:0.034297653 564:0.052161325 570:0.048838407 580:0.038090792 626:0.039731193 641:0.033310197 658:0.077868566 687:0.047368448 695:0.041555576 717:0.042660862 767:0.040268533 778:0.040229309 791:0.056047805 796:0.074009389 814:0.04673247 827:0.035957772 848:0.046528026 863:0.044489838 886:0.03625923 912:0.040035177 1009:0.037519488 1021:0.045070395 1027:0.043991171 1082:0.057700716 1086:0.15923013 1093:0.053439587 1159:0.042806767 1164:0.044660963 1198:0.10029486 1232:0.047662746 1245:0.041166916 1251:0.055302341 1253:0.051519457 1280:0.055447634 1289:0.057010919 1305:0.076575369 1316:0.058434337 1335:0.045250408 1340:0.056519326 1377:0.040151265 1395:0.044951927 1530:0.057179544 1614:0.053196408 1627:0.056202851 1664:0.049964078 1665:0.090743996 1873:0.055743821 1916:0.10283173 1980:0.10454372 2050:0.10840289 2078:0.058434337 2187:0.058819395 2261:0.063901126 2305:0.067428492 3197:0.076290801 3491:0.068737514 3519:0.071907438 3552:0.073892429 3740:0.65518993 4015:0.083441116 4493:0.0873276 4686:0.080538265 5003:0.075434804 5482:0.14638434 5953:0.080538265 6853:0.0873276 #
-1.0000000006239336 111:0.1833868 122:0.31563011 160:0.26578948 190:0.25142431 214:0.25123388 422:0.26740104 534:0.2235117 641:0.23203398 1506:0.41110274 3740:0.57049465 #
-0.61754982881175391 6:0.039511804 11:0.17755291 18:0.10575279 27:0.057524446 97:0.24654764 118:0.38809302 142:0.015368978 169:0.14400527 194:0.15652502 280:0.41391858 286:0.1106973 341:0.16506706 343:0.20932218 406:0.18523793 530:0.32481074 720:0.19669227 1046:0.4439148 1607:0.25561029 #
-1.0000000006239336 6:0.030179083 15:0.015907118 20:0.013095275 25:0.0174229 26:0.030143861 27:0.027038231 29:0.0084311189 30:0.13953978 31:0.0088481931 37:0.03295191 38:0.018913643 40:0.029009957 48:0.014201904 54:0.017382134 63:0.050178487 67:0.026263317 68:0.02850285 72:0.014447043 75:0.037638795 80:0.030230617 83:0.048120562 84:0.013624587 85:0.028453233 88:0.017726526 92:0.015325118 97:0.014485608 102:0.022120243 139:0.037983283 142:0.017457724 144:0.027603226 145:0.019480813 159:0.01396585 162:0.012573081 166:0.017321469 172:0.018205171 174:0.017016925 176:0.012033187 178:0.018735282 185:0.013518469 186:0.039520487 190:0.019904155 199:0.03255425 209:0.014583055 218:0.0263365 274:0.05017684 286:0.01300777 308:0.017152661 317:0.027672904 342:0.021686483 345:0.017036138 365:0.024596941 386:0.018488841 387:0.016387194 390:0.021205887 396:0.023579113 399:0.021889357 404:0.038989905 414:0.017152661 433:0.018773085 459:0.021205887 485:0.032130506 499:0.017291352 501:0.024140684 507:0.049651079 508:0.036023237 518:0.06073558 534:0.017694436 548:0.026283905 550:0.037827287 560:0.027654096 561:0.020571915 582:0.019580452 629:0.028353583 639:0.026708709 643:0.018887855 647:0.29357451 654:0.024259193 667:0.022359816 671:0.014177286 673:0.023472507 676:0.023213539 678:0.050245147 695:0.045832139 712:0.042635933 714:0.024024339 716:0.022228025 720:0.023112832 732:0.025402606 747:0.025584091 763:0.026886893 778:0.022184692 780:0.023552295 784:0.36473775 850:0.021280387 876:0.044808719 904:0.028296964 908:0.02469225 909:0.020439208 912:0.022077637 947:0.48009431 963:0.059088804 966:0.023188213 981:0.027552988 997:0.022077637 1009:0.18621311 1018:0.075574309 1042:0.026450442 1046:0.13040838 1056:0.022796109 1080:0.023472507 1083:0.024887256 1094:0.023910081 1098:0.02604199 1117:0.02770526 1118:0.41845593 1134:0.028240843 1138:0.022891896 1149:0.022271652 1194:0.035583049 1196:0.058278937 1198:0.027654096 1229:0.026202241 1305:0.042227942 1404:0.03143901 1407:0.028296964 1410:0.032018472 1493:0.030993396 1500:0.026492767 1595:0.029075451 1608:0.025156911 1609:0.032436308 1697:0.031722154 1707:0.026535373 1849:0.028704297 1872:0.034601156 1920:0.034911934 1921:0.035073202 1923:0.034451276 1995:0.030036146 2003:0.036333289 2034:0.031257007 2099:0.033750605 2107:0.029746564 2257:0.03349058 2282:0.13447706 2326:0.034911934 2385:0.073071033 2403:0.034911934 2510:0.036960322 2547:0.036744379 2624:0.029469578 2643:0.033750605 2648:0.041159507 2651:0.040748417 2658:0.038165733 2723:0.030262312 2724:0.042071015 2825:0.031347357 2846:0.15374729 2880:0.034911934 3042:0.036744379 3046:0.035583049 3083:0.043742195 3360:0.03254519 3466:0.036744379 3482:0.035408527 3587:0.048157323 3778:0.038719967 3848:0.04699599 3969:0.035238657 4006:0.039653786 4174:0.040362258 4237:0.041598972 4293:0.037183844 4354:0.041598972 4445:0.040362258 4820:0.042580862 5035:0.040748417 5084:0.04699599 5143:0.045163546 5248:0.041598972 5299:0.048157323 5601:0.041159507 6015:0.090327092 6088:0.048157323 6290:0.051411122 6302:0.092028201 6321:0.049578678 6324:0.09399198 6410:0.042071015 6978:0.045163546 7055:0.043135099 7077:0.043135099 7390:0.04699599 7392:0.04699599 7503:0.051411122 7544:0.048157323 7550:0.09399198 7999:0.053993806 8410:0.049578678 8554:0.10798761 8783:0.051411122 8784:0.051411122 8832:0.051411122 8987:0.051411122 #
-0.17010037547321025 6:0.032343674 11:0.072670862 17:0.088122167 27:0.047088511 37:0.076516658 63:0.034955397 72:0.10064115 86:0.3768878 87:0.15065728 96:0.10019698 97:0.10090981 122:0.34813008 138:0.13560918 142:0.012580778 208:0.12115845 276:0.25125852 313:0.36677289 490:0.33471724 499:0.12045522 560:0.1926443 585:0.2003808 844:0.17720991 903:0.18005694 1013:0.2003808 1637:0.26231888 1822:0.22988752 #
-0.84626050380032813 2:0.07762704 6:0.02535416 26:0.1646097 31:0.02415912 32:0.23757885 48:0.038776901 54:0.047460206 75:0.012846128 88:0.096801065 94:0.038051449 134:0.13618903 142:0.016436758 176:0.065710865 221:0.060338885 286:0.071032874 345:0.046515502 355:0.038148612 409:0.032371148 420:0.064453989 422:0.057799768 478:0.049707431 505:0.091189086 506:0.035460696 667:0.12210256 698:0.071213454 1045:0.0658549 1059:0.058104005 1731:0.47223327 1828:0.086352684 1917:0.078873582 2528:0.072925501 2624:0.080463782 2683:0.089785121 4740:0.10420778 9870:0.73712391 #
0.78758108104897617 6:0.01758761 12:0.19760314 26:0.025374675 27:0.07681635 29:0.042583179 42:0.035074867 57:0.021884168 60:0.022248631 63:0.012671862 64:0.025423642 73:0.031852521 75:0.011881426 108:0.24421324 117:0.030262563 127:0.029152602 142:0.01368217 145:0.024598008 155:0.030444948 172:0.1379237 185:0.1024169 232:0.078054488 243:0.027639225 248:0.035659112 254:0.028289508 259:0.10697734 308:0.086633198 351:0.062406726 374:0.03783302 408:0.069042273 414:0.021658299 437:0.026366016 438:0.032685287 439:0.094779156 462:0.10805952 475:0.023752391 496:0.024580194 530:0.024096787 533:0.036712956 561:0.025975719 568:0.041234002 592:0.057749402 598:0.030978795 667:0.028233264 674:0.23289046 727:0.031383045 728:0.040429045 777:0.040429045 856:0.021999525 882:0.022012446 960:0.03378018 1000:0.035588868 1190:0.031721741 1201:0.037383582 1210:0.28170747 1231:0.046396345 1331:0.033136405 1410:0.040429045 1459:0.044709593 1479:0.36906096 1568:0.043500893 2076:0.073107369 2669:0.10505227 2753:0.041668858 2829:0.058101028 2970:0.095094576 3444:0.059340838 3814:0.049657449 3881:0.05145216 4553:0.60807228 5067:0.062601939 5350:0.059340838 5395:0.062601939 5541:0.064915732 5542:0.25966293 6375:0.059340838 #
1.0000000006239336 4:0.038321678 6:0.017718919 15:0.030353308 27:0.05159324 28:0.13084526 31:0.033767514 63:0.019149706 64:0.076840363 73:0.28881299 75:0.035910398 86:0.068823807 131:0.11763237 142:0.011486934 158:0.063589178 173:0.06621971 185:0.051590774 202:0.2200155 209:0.055653568 221:0.084336437 239:0.075111523 260:0.11170159 316:0.12069626 383:0.10612734 432:0.083224081 528:0.092695177 565:0.28270042 592:0.087270841 923:0.14889854 933:0.1029562 1132:0.13718566 1138:0.087362744 2025:0.13865937 2767:0.13943115 5408:0.18920799 6075:0.5886035 9637:0.41211504 #
0.76677844589675348 6:0.022876255 16:0.25174946 28:0.16892959 29:0.041541051 31:0.087192036 41:0.0526684 60:0.086816579 98:0.29678202 108:0.31764889 176:0.05928883 179:0.062351469 185:0.066606984 194:0.090623714 199:0.21386449 200:0.11049905 231:0.24524449 339:0.088967018 348:0.11363427 386:0.09109655 436:0.40412581 653:0.11684608 795:0.13551044 977:0.15726428 991:0.12150411 1033:0.13701718 1047:0.38670617 1123:0.12991127 1373:0.13269804 2184:0.18553469 2989:0.17620571 3611:0.16902371 #
1.0000000006239336 4:0.010375159 6:0.035978969 9:0.018348806 12:0.12935574 15:0.0082178134 20:0.040591083 25:0.036003541 26:0.031145381 27:0.0069841421 29:0.017422481 31:0.0091421716 37:0.011348909 39:0.048181057 40:0.044960704 41:0.055223342 42:0.043051589 46:0.020084424 51:0.03258105 57:0.017907375 58:0.016089983 62:0.30207452 63:0.072583914 64:0.020803656 75:0.048611663 79:0.016266135 81:0.073020227 83:0.037289515 92:0.031668581 108:0.066611603 109:0.026396181 123:0.024334813 127:0.02385499 132:0.014547554 141:0.021910446 142:0.011817837 172:0.018810034 173:0.017928235 179:0.013075226 185:0.027935233 186:0.027222361 189:0.035898324 190:0.041130926 208:0.017970154 215:0.015280668 225:0.022855181 227:0.017049422 232:0.04258028 242:0.016807139 259:0.058358271 265:0.022659359 296:0.021629551 299:0.019856475 308:0.017722553 327:0.040343963 340:0.027461322 341:0.060123231 345:0.017602159 346:0.019983724 355:0.014436003 369:0.021448733 370:0.028365593 387:0.084658265 429:0.02737298 433:0.019396814 439:0.025851961 441:0.016913721 478:0.018810034 483:0.02328877 507:0.01282518 510:0.021684779 518:0.020917833 546:0.020723296 561:0.021255409 565:0.025512643 582:0.020231007 586:0.017632052 597:0.042897467 610:0.06176557 631:0.016097888 641:0.018979415 669:0.036238499 681:0.0262466 726:0.022104599 730:0.02305701 757:0.022789259 781:0.025992744 804:0.067786075 827:0.020487946 862:0.023079822 960:0.16584985 976:0.035152055 1009:0.14964443 1019:0.068945937 1024:0.037141461 1031:0.029474311 1034:0.030241936 1037:0.026825974 1055:0.026173064 1111:0.089350052 1138:0.023652472 1175:0.050828334 1178:0.037965201 1210:0.076838523 1213:0.06103817 1223:0.029474311 1340:0.032203462 1424:0.022304654 1488:0.033403378 1498:0.078867555 1500:0.02737298 1591:0.028468428 1598:0.025096167 1710:0.033403378 1781:0.030448696 1910:0.058709297 1943:0.028786941 1947:0.033294596 2003:0.037540451 2037:0.039433777 2200:0.034603294 2225:0.037141461 2259:0.040633693 2423:0.061916005 2459:0.034603294 2471:0.037141461 2495:0.035595909 2528:0.027596097 2578:0.036238499 2615:0.37331274 2616:0.03184763 2668:0.037749398 2753:0.034096789 2780:0.090391025 2877:0.039165117 2908:0.038419262 2970:0.038906991 2997:0.082654208 3083:0.045195512 3162:0.046664093 3289:0.12398131 3391:0.046664093 3482:0.036584962 3489:0.047542904 3738:0.044568248 3864:0.27533355 3895:0.046664093 3897:0.038419262 4021:0.55996913 4033:0.04170328 4034:0.044568248 4244:0.037749398 4338:0.048557419 4388:0.046664093 4719:0.047542904 4768:0.095085807 4771:0.081942543 4954:0.045195512 5482:0.04170328 5544:0.045888923 5811:0.043995596 6192:0.18104866 6272:0.051225912 6483:0.038658611 6488:0.13558654 6626:0.043995596 7122:0.049757335 7638:0.051225912 #
-0.86512570588364157 6:0.010570362 37:0.050013412 41:0.048672657 62:0.48407629 81:0.06435845 98:0.068566583 142:0.016446292 199:0.049409855 202:0.393756 203:0.080134273 229:0.11071115 253:0.23100688 281:0.12201584 436:0.093366593 550:0.086119674 574:0.079146236 582:0.089155853 593:0.10181116 613:0.097762018 720:0.21047974 812:0.11839765 1778:0.16367839 1823:0.19156235 1910:0.12936276 2224:0.31240109 2867:0.42797458 3109:0.19388384 #
-0.31498105032993789 6:0.010825493 9:0.082812905 62:0.49576017 63:0.023399284 105:0.11499626 142:0.0056144162 173:0.080914766 229:0.11338332 262:0.10131545 317:0.064522281 338:0.28368804 351:0.076824948 380:0.26605037 408:0.063745163 409:0.11057235 447:0.30456331 506:0.060562767 582:0.18261553 867:0.095159605 958:0.18194114 1011:0.25984582 1213:0.13774052 1816:0.11896257 5937:0.50356895 #
-1.0000000006239336 6:0.018685039 15:0.021338876 28:0.04599319 29:0.02262014 31:0.02373912 80:0.04055338 108:0.11531183 110:0.060109425 142:0.0064604036 158:0.08940848 159:0.037469458 179:0.033951931 199:0.029113637 205:0.049283106 245:0.072014995 252:0.044949431 332:0.079999022 355:0.037485406 408:0.036675181 462:0.0765348 499:0.046391565 513:0.046607889 674:0.41237053 881:0.070964798 916:0.075471111 922:0.17707561 977:0.17126866 1005:0.065656878 1135:0.25379485 1190:0.067402214 1245:0.060907282 1305:0.056647398 2217:0.11042826 2408:0.10551193 2465:0.11042826 2546:0.41871253 4535:0.11424166 5049:0.26603267 5212:0.13301633 5457:0.12345281 7301:0.25840586 7654:0.47012201 #
-0.58907441397208948 83:0.047074169 85:0.11133803 94:0.054532655 100:0.056133542 142:0.0376896 175:0.087932438 216:0.079033583 226:0.070435964 344:0.27710846 512:0.31033203 518:0.3168793 546:0.078483082 562:0.47834802 577:0.1325915 678:0.19661023 679:0.11427634 826:0.236834 894:0.14378145 1345:0.55168861 #
-0.14224214139185903 6:0.021626035 27:0.18890949 77:0.16307293 106:0.15137644 120:0.18017554 142:0.072903298 234:0.15513739 236:0.59654719 503:0.29374179 772:0.20037325 865:0.3209368 1045:0.3370288 2343:0.39191979 #
0.67594013761375793 6:0.0066348277 15:0.02273152 26:0.057434727 28:0.048994854 29:0.024096401 30:0.039880902 33:0.073429957 63:0.028682336 75:0.040339816 80:0.043200023 114:0.046588432 142:0.015484568 172:0.052030947 204:0.039830122 205:0.052499481 208:0.049707737 213:0.068498299 317:0.039545011 333:0.066934697 404:0.055717178 437:0.059678596 441:0.046785507 561:0.058795173 579:0.077906929 644:0.063220344 743:0.084224969 768:0.0829174 784:0.26060796 1027:0.069333524 1271:0.08461649 1332:0.081529699 1411:0.084032327 1561:0.08833573 1598:0.069419198 2976:0.089591727 4944:0.13150974 8898:0.58773834 9060:0.6677382 #
0.55627273051405535 6:0.019891178 28:0.048962101 29:0.024080293 31:0.025271505 40:0.041427966 41:0.030530537 63:0.014331581 75:0.013437617 98:0.043009251 142:0.0051580719 158:0.047589947 172:0.051996164 179:0.10843069 218:0.18805055 229:0.069444962 309:0.048795193 365:0.07025183 398:0.15471578 418:0.068452507 478:0.051996164 493:0.11838386 513:0.049616478 647:0.23956692 729:0.071366012 784:0.13021687 804:0.06245986 876:0.06398955 882:0.049791127 947:0.24197775 1118:0.085368611 1225:0.059142958 1235:0.077718578 1431:0.15489811 1526:0.10686316 1620:0.080186687 1928:0.095653139 1951:0.082682736 2682:0.097569913 4176:0.1105889 6059:0.11527947 6832:0.76109856 7319:0.14160268 8723:0.14683636 #
0.43352710863684374 111:0.14651375 174:0.17173344 186:0.13294587 916:0.56777269 1046:0.2632142 1049:0.37082136 1133:0.27319035 3374:0.39374924 5601:0.41537848 #
1.0000000006239336 68:0.19888686 111:0.20260602 232:0.28756204 339:0.25199077 829:0.24033777 1074:0.42340553 2250:0.5403595 2686:0.49414641 #
0.36554157205203203 111:0.13067296 176:0.10830832 582:0.17623976 1430:0.31423539 2103:0.33468437 2122:0.34851074 2480:0.34851074 4224:0.4141638 4297:0.37867287 5228:0.4141638 #
-1.0000000006239336 2:0.011467878 6:0.039328609 15:0.0096245259 26:0.036476798 27:0.049078058 28:0.020744421 29:0.03060725 30:0.016885575 31:0.021414228 33:0.015545122 57:0.020972731 60:0.10661008 63:0.036432307 68:0.017245512 75:0.028466465 80:0.01829089 81:0.034207888 83:0.050951455 84:0.016486982 85:0.017215492 92:0.018544778 106:0.019663548 132:0.017037781 139:0.068944812 140:0.019851048 142:0.016754648 162:0.015214565 169:0.040953599 173:0.041994326 176:0.014561244 179:0.015313422 189:0.02102167 190:0.024085827 205:0.066684842 228:0.10622913 239:0.023816608 252:0.020273652 256:0.019117365 278:0.024251992 284:0.017059771 286:0.047221735 315:0.03979199 320:0.026664723 339:0.043700323 345:0.020615268 351:0.019935867 355:0.016907135 408:0.066166788 411:0.021046257 412:0.028631052 422:0.025616357 457:0.019370744 507:0.030041147 513:0.063065015 534:0.021411868 546:0.024270678 586:0.041300558 631:0.018853499 641:0.02222828 647:0.025375124 655:0.021271139 664:0.095269002 713:0.028090483 716:0.1344896 726:0.02588843 727:0.030075997 739:0.22957771 757:0.026690288 784:0.055170707 800:0.024773125 823:0.032007426 850:0.10300477 856:0.021083284 908:0.029879857 987:0.022934267 997:0.026715938 998:0.062187798 1009:0.025037188 1017:0.033102583 1018:0.030483916 1112:0.033843111 1117:0.033525869 1122:0.0343104 1175:0.029764524 1225:0.025057882 1229:0.031707082 1288:0.036903892 1471:0.065071143 1472:0.028565452 1551:0.030075997 1598:0.02939209 1649:0.095718019 1782:0.034590717 1792:0.033161648 1806:0.077247716 2008:0.049806729 2020:0.046854664 2387:0.038156573 2555:0.037933137 2682:0.041338738 2686:0.17139007 2781:0.047984667 2866:0.038504355 2912:0.045869336 3157:0.043499276 3298:0.085695036 3302:0.051526695 3699:0.04264196 5004:0.10439474 5060:0.053744119 6483:0.045276128 6786:0.47995746 7381:0.056869399 7511:0.062212106 7667:0.062212106 8969:0.062212106 9648:0.13067478 9807:0.56544077 9814:0.35340047 #
-1.0000000006239336 6:0.016403262 9:0.041827247 15:0.018733017 27:0.015920788 29:0.019857815 30:0.032865804 31:0.020840149 73:0.35649088 86:0.042475685 98:0.03546758 117:0.16934811 131:0.072598659 142:0.011342946 172:0.042878643 173:0.040868528 179:0.029805792 204:0.065647908 215:0.034833234 337:0.041801885 340:0.12519959 389:0.046598509 508:0.042422768 571:0.04315342 609:0.038720068 633:0.1137171 689:0.34166065 726:0.050388809 733:0.18514243 811:0.062101323 862:0.052611891 873:0.063220672 933:0.2541641 987:0.089277759 1017:0.064430326 1088:0.070229709 1119:0.38026091 1248:0.070399232 1393:0.062599793 1472:0.055599324 1663:0.10159609 1720:0.07109715 2043:0.095974751 2066:0.073202863 2840:0.1063737 2968:0.083397701 3289:0.18841542 3696:0.22684988 4709:0.22137932 5536:0.1919495 5750:0.38151485 6105:0.12108862 #
-0.12862137096082013 2:0.11300109 6:0.013840447 31:0.052752376 32:0.10375252 48:0.16934171 68:0.25489831 129:0.14271957 142:0.017945148 176:0.071741104 193:0.13424554 221:0.26350456 238:0.2729601 286:0.077551514 373:0.098803297 409:0.1413673 448:0.12533997 772:0.12823687 895:0.2878505 952:0.12893799 1045:0.14379671 2683:0.19604929 2686:0.63331026 4061:0.25386444 #
-0.59814499928005227 6:0.034195859 9:0.19619372 10:0.072106354 14:0.086732931 16:0.37631986 22:0.18233567 52:0.069698416 75:0.051977783 83:0.022150908 96:0.052967414 98:0.11090883 124:0.29654112 142:0.022168709 151:0.067514807 174:0.25066394 179:0.046602074 185:0.049782686 196:0.15899429 218:0.24246491 229:0.089539565 230:0.36860052 281:0.19736487 283:0.064085834 284:0.051916592 289:0.14875807 317:0.050953679 339:0.066494785 363:0.079861954 421:0.2485778 462:0.10505088 770:0.23021212 802:0.1515727 867:0.07514818 947:0.10399883 987:0.069793962 1045:0.088820323 1059:0.078366481 1101:0.1100709 2517:0.17306595 2525:0.14258893 3260:0.18257686 #
-1.0000000006239336 6:0.013309483 27:0.019377012 29:0.024168726 31:0.050728627 36:0.050845787 53:0.051250532 142:0.0017256715 158:0.047764715 172:0.15656134 179:0.0362763 205:0.052657053 351:0.047226503 539:0.06182643 671:0.081281483 684:0.062281515 688:0.1477502 733:0.15022318 768:0.083166271 781:0.072115041 890:0.069887787 998:0.14731802 1024:0.51523191 1124:0.073984109 1178:0.10533178 1196:0.083531477 1485:0.082986377 1654:0.093935095 1718:0.09459915 1881:0.11570283 2340:0.092373513 2528:0.076563433 2850:0.46433744 2969:0.38839874 3315:0.12539178 4355:0.12539178 5129:0.2842454 6793:0.1421227 7171:0.1421227 #
0.94102476867220164 6:0.0059946743 9:0.13757426 27:0.034910109 34:0.047774557 62:0.13726491 64:0.1039867 83:0.01553258 99:0.17043218 140:0.084722444 142:0.010881544 151:0.047342494 186:0.034017619 205:0.047434129 242:0.042005088 337:0.04583028 355:0.036079049 361:0.21484016 377:0.046138782 408:0.035299219 423:0.045418706 471:0.06249024 555:0.069083124 610:0.15436704 621:0.083483092 671:0.036609687 697:0.064265795 781:0.064962126 896:0.15184914 965:0.059878398 1129:0.069902778 1171:0.19850908 1262:0.27704599 1319:0.063273638 1509:0.075752333 2119:0.09488418 2341:0.16696618 2754:0.084040716 2886:0.44554713 2938:0.096018992 3416:0.09488418 7126:0.13275777 9074:0.60331231 #
1.0000000006239336 6:0.036561731 11:0.082148135 26:0.11868694 27:0.02661475 37:0.043247737 41:0.042088356 64:0.079277322 67:0.051703941 72:0.056883071 75:0.018524641 85:0.11203035 87:0.085152529 100:0.16944776 142:0.016591731 151:0.14437178 276:0.071006522 288:0.094935022 291:0.073570281 294:0.17469782 296:0.082424589 306:0.071725704 345:0.067077249 367:0.078015558 377:0.07035052 424:0.18828474 434:0.31637254 459:0.083495006 491:0.10908531 500:0.094592243 507:0.048873425 539:0.1698399 749:0.10640249 771:0.096971244 776:0.1139836 1011:0.10969955 1081:0.10161879 1230:0.2554262 1245:0.089384712 1388:0.11826283 1591:0.21697155 1608:0.09905158 4288:0.14640582 6473:0.56883675 7610:0.19520862 8766:0.18961225 #
0.32380513595600935 6:0.013348278 15:0.045732405 31:0.050876487 102:0.25437969 111:0.083477043 118:0.17481269 220:0.3212463 280:0.4195025 513:0.099887677 795:0.31628096 991:0.14179511 1150:0.14565396 2340:0.37057102 8412:0.57014781 #
1.0000000006239336 2:0.11240888 6:0.013767912 15:0.04717011 26:0.059591319 29:0.10000475 41:0.063396208 51:0.18701468 60:0.10449989 82:0.10326927 92:0.09088856 94:0.16530274 117:0.28428125 142:0.0071404404 176:0.2854605 206:0.13131534 215:0.087710775 242:0.096472695 252:0.099361822 264:0.11333824 287:0.12779588 291:0.11081631 592:0.13562196 1485:0.17168948 1743:0.40863982 1795:0.1760003 1836:0.14682372 1942:0.17857698 2682:0.20260249 3124:0.53570223 #
0.91019329835220542 6:0.029523462 37:0.034922387 52:0.3008754 102:0.28131604 142:0.0019139659 146:0.066277437 161:0.072029456 252:0.053267062 322:0.063966446 422:0.067304507 479:0.18696229 580:0.066784464 598:0.078003883 628:0.16040783 643:0.06005197 656:0.07285925 664:0.25031009 695:0.07285925 804:0.069529496 882:0.055426829 906:0.086364724 920:0.096961416 947:0.089788817 1039:0.1077329 1086:0.093059219 1118:0.28509367 1223:0.18139423 1467:0.090697117 1488:0.20557496 1506:0.10347404 1664:0.087601855 1946:0.10278748 2198:0.22515543 3717:0.14359279 3950:0.40614426 4241:0.12607509 4398:0.13225959 5861:0.15763023 7870:0.34333536 #
-0.74853259805324124 6:0.030621536 11:0.3027266 18:0.065566488 27:0.026748771 37:0.043465517 46:0.23076576 53:0.023582732 57:0.022861326 65:0.02190724 68:0.018798472 79:0.14536235 83:0.015868466 86:0.023788027 88:0.023382334 94:0.018382685 97:0.019107373 121:0.033048298 142:0.004764366 145:0.025696343 150:0.026704606 151:0.19346504 154:0.022135798 158:0.021978747 171:0.026476672 185:0.10698996 199:0.01431366 205:0.024229938 211:0.060908612 215:0.019507958 220:0.049130209 237:0.0263147 242:0.021456717 252:0.13259576 255:0.057002109 256:0.062516652 276:0.023788027 288:0.095413074 289:0.026641827 292:0.030195763 294:0.029262921 295:0.05199967 306:0.024028961 309:0.022535374 314:0.024435841 330:0.060908612 343:0.1622241 349:0.030356418 351:0.021731092 355:0.018429624 357:0.085039236 358:0.081096448 372:0.090682946 375:0.065123647 381:0.029435571 391:0.031689525 412:0.062418558 423:0.023200436 424:0.18923286 426:0.027566537 430:0.071498036 442:0.026057979 449:0.035001725 455:0.044716436 467:0.038436681 475:0.049625937 483:0.029731447 485:0.02119102 496:0.05135547 498:0.031464458 504:0.032528423 505:0.022026759 506:0.051393267 507:0.016373176 509:0.028423378 538:0.026831592 546:0.026456254 549:0.032698166 550:0.04989643 551:0.04525011 557:0.028819149 580:0.027707357 586:0.022509836 593:0.058987837 594:0.029320078 601:0.04134902 607:0.030038122 617:0.085858062 626:0.02890059 628:0.23292348 634:0.034403272 639:0.070460729 661:0.040882122 685:0.03236204 695:0.03022765 697:0.032827761 737:0.07216695 748:0.04525011 761:0.031137772 763:0.035465401 767:0.029291451 772:0.02837199 774:0.1374037 780:0.093200602 781:0.033183455 789:0.031464458 807:0.039817154 886:0.052750148 887:0.038695224 908:0.032570537 930:0.053620584 952:0.028527107 954:0.041843396 963:0.025980541 965:0.091759875 966:0.030586625 982:0.034298901 984:0.14046107 1005:0.064560138 1015:0.038268637 1027:0.063998617 1056:0.060138829 1093:0.038872115 1105:0.038436681 1106:0.039237477 1113:0.037177961 1162:0.035525203 1167:0.039144635 1200:0.043686479 1218:0.037251342 1227:0.033460468 1232:0.034670025 1245:0.02994494 1268:0.082939826 1274:0.38379773 1394:0.039717723 1440:0.037942305 1482:0.036278121 1511:0.036961589 1564:0.049047686 1567:0.044876628 1608:0.033183455 1626:0.044009674 1664:0.10903206 1753:0.04648187 1765:0.044695932 1797:0.053240206 1836:0.032655407 1855:0.039619453 1880:0.042785406 1897:0.081764244 1919:0.044695932 1973:0.048468009 1994:0.087693051 1995:0.079238907 2023:0.044876628 2106:0.12477772 2219:0.044009674 2241:0.042785406 2256:0.04648187 2285:0.12404706 2423:0.039522316 2444:0.043375261 2565:0.049353246 2594:0.052305687 2733:0.039817154 2806:0.048752848 2989:0.047172837 3014:0.054871503 3096:0.10292958 3151:0.052305687 3167:0.047416389 3283:0.050342858 3360:0.042929031 3380:0.051874723 3497:0.053749572 3842:0.046936143 3890:0.061990492 3918:0.063522354 4042:0.061990492 4136:0.063522354 4148:0.051874723 4257:0.063522354 4551:0.10858365 4590:0.10749914 4636:0.061990492 4639:0.058583777 4698:0.054871503 4812:0.058583777 4880:0.05957339 5146:0.056897745 5590:0.065397203 5950:0.065397203 6085:0.055494156 6103:0.06069532 6240:0.054871503 6395:0.061990492 8987:0.067814305 #
